tree
version=v3
num_class=1
num_tree_per_iteration=1
label_index=0
max_feature_idx=0
objective=regression
feature_names=Column_0
feature_infos=[0:6.2831853071795862]
tree_sizes=472 468 469 470 470 469 470 469 469 473 474 471 473 474 474 475 393 394 476 396 397 398 397 398 479 395 395 397 397 397 397 398 396 398 398 398 398 483 485 484 484 483 483 485 484 482 479 485 484 484 486 482 487 481 484 487 484 487 484 487 486 487 485 484 487 486 485 485 488 487 488 487 488 487 486 489 489 488 489 489 488 488 490 491 489 489 489 491 488 489 491 490 490 492 492 491 492 492 491 491 492 492 492 489 492 489 493 492 493 492 494 492 495 492 494 492 494 491 494 489 495 493 494 493 496 494 494 492 494 492 494 493 496 493 496 494 495 494 495 493 493 494 495 495 494 494 497 495 494 493 496 493 492 494 497 494 494 496 494 497 495 493 494 497 494 495 493 495 495 495 493 495 495 495 495 495 493 497 495 494 495 494 494 495 494 491 494 494 494 493 493 491 493 494 496 492 495 496 495 492 494 495 495 494 494 494 495 492 496 493 492 496 496 492 495 493 495 493 495 494 495 494 495 494 495 495 496 495 495 494 495 495 491 494 495 493 494 494 496 491 495 494 494 496 494 495 497 493 495 496 496 491 495 496 496 494 496 492 493 495 497 494 494 496 497 495 493 492 497 492 496 495 495 496 491 495 493 496 496 496 491 493 496 496 492 497 495 492 496 496 493 497 491 496 494 496 492 497 496 490 495 494 494 496 494 494 493 493 497 492 497 496 497 493 494 496 496 493 495 493 494 495 494 496 496 494 496 496 496 489 496 495 495 497 492 492 496 494 497 496 493 497 495 495 494 493 496 493 496 493 497 494 491 495 491 497 495 497 494 491 497 493 495 496 489 496 495 493 496 494 497 496 493 497 493 495 493 494 497 496 497 491 497 495 497 496 493 495 494 497 493 496 494 495 495 493 491 495 494 492 496 492 497 493 491 497 494 495 495 492 497 493 495 495 495 497 495 497 492 493 495 493 497 495 494 496 494 495 495 494 495 495 495 495 494 495 491 496 494 497 493 491 494 494 496 493 492 497 493 494 493 493 496 493 497 494 496 496 493 496 494 493 494 494 497 494 497 493 495 497 496 495 493 497 495 494 496 496 496 495 494 497 496 497 496 494 497 496 495 494 493 496 495 497 495 493 496 494 493 494 496 494 496 496 496 494 495 495 495 495 494 495 495 496 493 496 496 497 496 495 496 494 494 492 496 495 494 496 496 495 494 495 494 496 496 495 494 495 495 495 495 492 497 494 495 494 496 494 496 496 496 493 497 495 494 495 496 494 495 495 492 495 494 494 496 496 493 495 493 495 496 494 494 493 492 493 496 494 493 496 495 495 496 493 497 496 496 496 495 493 495 497 496 495 496 493 496 496 496 496 497 495 492 494 494 494 491 495 496 494 496 495 494 495 496 495 494 495 495 493 495 496 495 496 494 497 495 496 495 496 494 496 495 493 496 493 493 494 493 496 495 495 494 493 494 493 495 496 493 496 496 493 492 494 494 495 494 496 495 496 493 493 494 496 496 493 497 495 496 494 493 496 496 491 493 493 497 493 496 494 407 493 496 494 492 494 493 497 495 493 495 495 495 493 494 495 491 494 408 494 492 491 495 495 494 493 494 496 408 492 494 495 493 491 495 495 495 493 492 493 494 493 497 495 494 493 495 496 494 493 406 494 492 495 495 494 492 495 495 494 408 494 493 493 490 490 495 493 491 495 495 493 492 496 494 492 493 496 495 408 495 491 493 495 495 492 407 491 495 496 495 492 495 495 496 491 495 494 496 407 491 493 494 494 496 491 494 495 493 492 408 496 494 496 494 492 495 494 493 492 408 495 494 496 496 493 495 494 494 493 408 491 494 494 407 494 494 494 493 495 496 493 490 496 496 495 492 408 495 491 495 495 494 408 495 493 495 495 493 493 494 495 493 408 495 491 495 489 495 492 496 407 495 493 492 493 494 408 494 496 493 494 495 491 490 494 492 407 495 493 496 408 496 492 495 492 494 495 494 493 494 493 491 408 495 493 496 495 492 408 495 495 495 495 493 405 495 492 494 494 493 493 493 407 495 493 496 494 493 492 494 493 496 406 492 407 495 493 496 495 492 494 494 495 496 408 495 492 494 496 495 494 494 493 494 407 495 492 496 494 494 407 494 491 494 495 496 494 495 408 493 496 495 495 493 407 494 492 496 494 494 494 494 407 494 494 494 407 492 495 493 490 495 407 493 489 496 495 493 408 494 491 493 493 496 494 492 496 496 494 493 408 494 492 494 408 492 493 494 408

Tree=0
num_leaves=4
num_cat=0
split_feature=0 0 0
split_gain=39.6512 0.296425 0.213723
threshold=3.0781261353354545 4.4109230186765798 1.3645301424682941
decision_type=2 2 2
left_child=2 -2 -1
right_child=1 -3 -4
leaf_value=0.056925023211674253 -0.052609965418066298 -0.068100711951653167 0.070202967469339017
leaf_weight=22 21 30 27
leaf_count=22 21 30 27
internal_value=0 -0.0617222 0.0642414
internal_weight=0 51 49
internal_count=100 51 49
is_linear=0
shrinkage=0.1


Tree=1
num_leaves=4
num_cat=0
split_feature=0 0 0
split_gain=32.2987 0.52524 0.448013
threshold=3.2685256900984725 1.9357288067573475 4.9821216829656327
decision_type=2 2 2
left_child=1 -1 -2
right_child=2 -3 -4
leaf_value=0.0628743149625558 -0.067672855379404859 0.042391488106832624 -0.04819799413948897
leaf_weight=31 27 21 21
leaf_count=31 27 21 21
internal_value=0 0.0546024 -0.0591526
internal_weight=0 52 48
internal_count=100 52 48
is_linear=0
shrinkage=0.1


Tree=2
num_leaves=4
num_cat=0
split_feature=0 0 0
split_gain=26.2624 0.232956 0.21494
threshold=3.0781261353354545 4.4109230186765798 1.3645301424682941
decision_type=2 2 2
left_child=2 -2 -1
right_child=1 -3 -4
leaf_value=0.044945090399547055 -0.042154030617149105 -0.055886595395083227 0.05826076064948682
leaf_weight=22 21 30 27
leaf_count=22 21 30 27
internal_value=0 -0.050232 0.0522823
internal_weight=0 51 49
internal_count=100 51 49
is_linear=0
shrinkage=0.1


Tree=3
num_leaves=4
num_cat=0
split_feature=0 0 0
split_gain=21.4739 0.823754 0.401459
threshold=2.8877265805724366 4.2205234639135618 1.3645301424682941
decision_type=2 2 2
left_child=2 -2 -1
right_child=1 -3 -4
leaf_value=0.04045057987624949 -0.027287006267302096 -0.052622482135440365 0.059152343155195325
leaf_weight=22 21 33 24
leaf_count=22 21 33 24
internal_value=0 -0.0427698 0.050208
internal_weight=0 54 46
internal_count=100 54 46
is_linear=0
shrinkage=0.1


Tree=4
num_leaves=4
num_cat=0
split_feature=0 0 0
split_gain=17.6224 0.465458 0.35345
threshold=3.2685256900984725 4.9821216829656327 1.9357288067573475
decision_type=2 2 2
left_child=2 -2 -1
right_child=1 -3 -4
leaf_value=0.047117777078622775 -0.052377692547937241 -0.032527285743327368 0.03031522007215591
leaf_weight=31 27 21 21
leaf_count=31 27 21 21
internal_value=0 -0.0436931 0.0403321
internal_weight=0 48 52
internal_count=100 48 52
is_linear=0
shrinkage=0.1


Tree=5
num_leaves=4
num_cat=0
split_feature=0 0 0
split_gain=14.4965 0.859249 0.646946
threshold=3.45892524486149 2.1261283615203657 4.9821216829656327
decision_type=2 2 2
left_child=1 -1 -2
right_child=2 -3 -4
leaf_value=0.044262544157476547 -0.053308496996760373 0.018535389360927402 -0.02927455764175171
leaf_weight=34 24 21 21
leaf_count=34 24 21 21
internal_value=0 0.0344394 -0.0420927
internal_weight=0 55 45
internal_count=100 55 45
is_linear=0
shrinkage=0.1


Tree=6
num_leaves=4
num_cat=0
split_feature=0 0 0
split_gain=11.8316 0.521212 0.42173
threshold=2.8877265805724366 4.2205234639135618 1.3645301424682941
decision_type=2 2 2
left_child=2 -2 -1
right_child=1 -3 -4
leaf_value=0.027267490873451941 -0.019431365064589218 -0.039584254541180357 0.046435594625654636
leaf_weight=22 21 33 24
leaf_count=22 21 33 24
internal_value=0 -0.031747 0.0372682
internal_weight=0 54 46
internal_count=100 54 46
is_linear=0
shrinkage=0.1


Tree=7
num_leaves=4
num_cat=0
split_feature=0 0 0
split_gain=9.71718 0.604102 0.573986
threshold=3.45892524486149 2.1261283615203657 4.9821216829656327
decision_type=2 2 2
left_child=1 -1 -2
right_child=2 -3 -4
leaf_value=0.036433017886627249 -0.045026867774625619 0.014861161213013389 -0.02238867683336139
leaf_weight=34 24 21 21
leaf_count=34 24 21 21
internal_value=0 0.0281965 -0.0344624
internal_weight=0 55 45
internal_count=100 55 45
is_linear=0
shrinkage=0.1


Tree=8
num_leaves=4
num_cat=0
split_feature=0 0 0
split_gain=8.00562 0.82794 0.614423
threshold=2.6973270258094186 4.0301239091505439 1.3645301424682941
decision_type=2 2 2
left_child=2 -2 -1
right_child=1 -3 -4
leaf_value=0.020897438952868636 -0.0087951678638568242 -0.033779975440767072 0.0448111440099421
leaf_weight=22 21 36 21
leaf_count=22 21 36 21
internal_value=0 -0.024575 0.0325762
internal_weight=0 57 43
internal_count=100 57 43
is_linear=0
shrinkage=0.1


Tree=9
num_leaves=4
num_cat=0
split_feature=0 0 0
split_gain=6.48455 0.670632 0.497682
threshold=2.6973270258094186 4.0301239091505439 1.3645301424682941
decision_type=2 2 2
left_child=2 -2 -1
right_child=1 -3 -4
leaf_value=0.018807695780626753 -0.0079156510975389258 -0.030401977834602197 0.040330027434087937
leaf_weight=22 21 36 21
leaf_count=22 21 36 21
internal_value=0 -0.0221175 0.0293186
internal_weight=0 57 43
internal_count=100 57 43
is_linear=0
shrinkage=0.1


Tree=10
num_leaves=4
num_cat=0
split_feature=0 0 0
split_gain=5.35828 0.762105 0.705002
threshold=3.6493247996245075 4.9821216829656327 2.3165279162833836
decision_type=2 2 2
left_child=2 -2 -1
right_child=1 -3 -4
leaf_value=0.028004026674741025 -0.040672555565834045 -0.013731613258520762 0.0050637420355564081
leaf_weight=37 21 21 21
leaf_count=37 21 21 21
internal_value=0 -0.0272021 0.0196981
internal_weight=0 42 58
internal_count=100 42 58
is_linear=0
shrinkage=0.1


Tree=11
num_leaves=4
num_cat=0
split_feature=0 0 0
split_gain=4.3441 0.449441 0.275517
threshold=3.45892524486149 4.9821216829656327 2.1261283615203657
decision_type=2 2 2
left_child=2 -2 -1
right_child=1 -3 -4
leaf_value=0.024415175719802982 -0.032390601420775059 -0.012358451993869883 0.0098469489032313937
leaf_weight=34 24 21 21
leaf_count=34 24 21 21
internal_value=0 -0.0230423 0.0188528
internal_weight=0 45 55
internal_count=100 45 55
is_linear=0
shrinkage=0.1


Tree=12
num_leaves=4
num_cat=0
split_feature=0 0 0
split_gain=3.58314 0.519518 0.468672
threshold=3.6493247996245075 4.9821216829656327 2.3165279162833836
decision_type=2 2 2
left_child=2 -2 -1
right_child=1 -3 -4
leaf_value=0.022880226549868651 -0.033366240773882186 -0.011122606756786507 0.0041760665963270832
leaf_weight=37 21 21 21
leaf_count=37 21 21 21
internal_value=0 -0.0222444 0.016108
internal_weight=0 42 58
internal_count=100 42 58
is_linear=0
shrinkage=0.1


Tree=13
num_leaves=4
num_cat=0
split_feature=0 0 0
split_gain=2.94043 0.482171 0.335867
threshold=2.6973270258094186 1.3645301424682941 4.0301239091505439
decision_type=2 2 2
left_child=1 -1 -2
right_child=2 -3 -4
leaf_value=0.0093969828957183796 -0.0048431922759239882 0.030581276509023848 -0.02075648282447623
leaf_weight=22 21 21 36
leaf_count=22 21 21 36
internal_value=0 0.0197428 -0.0148937
internal_weight=0 43 57
internal_count=100 43 57
is_linear=0
shrinkage=0.1


Tree=14
num_leaves=4
num_cat=0
split_feature=0 0 0
split_gain=2.39117 0.440141 0.324475
threshold=3.6493247996245075 4.9821216829656327 2.3165279162833836
decision_type=2 2 2
left_child=2 -2 -1
right_child=1 -3 -4
leaf_value=0.018793683470151312 -0.028408632879810675 -0.0079346973537689162 0.003230651502408797
leaf_weight=37 21 21 21
leaf_count=37 21 21 21
internal_value=0 -0.0181717 0.0131588
internal_weight=0 42 58
internal_count=100 42 58
is_linear=0
shrinkage=0.1


Tree=15
num_leaves=4
num_cat=0
split_feature=0 0 0
split_gain=1.95698 0.408989 0.233074
threshold=2.6973270258094186 1.3645301424682941 4.0301239091505439
decision_type=2 2 2
left_child=1 -1 -2
right_child=2 -3 -4
leaf_value=0.0065779161046851768 -0.0037779587431855145 0.026088437890367851 -0.017034284744618666
leaf_weight=22 21 21 36
leaf_count=22 21 21 36
internal_value=0 0.0161063 -0.0121504
internal_weight=0 43 57
internal_count=100 43 57
is_linear=0
shrinkage=0.1


Tree=16
num_leaves=3
num_cat=0
split_feature=0 0
split_gain=1.6053 0.310777
threshold=2.5069274710464011 3.8397243543875255
decision_type=2 2
left_child=-1 -2
right_child=1 -3
leaf_value=0.015517570786178112 -0.00053724815536822592 -0.015626169478472989
leaf_weight=40 21 39
leaf_count=40 21 39
internal_value=0 -0.010345
internal_weight=0 60
internal_count=100 60
is_linear=0
shrinkage=0.1


Tree=17
num_leaves=3
num_cat=0
split_feature=0 0
split_gain=1.30029 0.251729
threshold=2.5069274710464011 3.8397243543875255
decision_type=2 2
left_child=-1 -2
right_child=1 -3
leaf_value=0.013965813294053079 -0.000483523342492325 -0.014063552929422794
leaf_weight=40 21 39
leaf_count=40 21 39
internal_value=0 -0.00931054
internal_weight=0 60
internal_count=100 60
is_linear=0
shrinkage=0.1


Tree=18
num_leaves=4
num_cat=0
split_feature=0 0 0
split_gain=1.05605 0.387671 0.145423
threshold=3.6493247996245075 4.9821216829656327 2.3165279162833836
decision_type=2 2 2
left_child=2 -2 -1
right_child=1 -3 -4
leaf_value=0.012517217331175768 -0.021683677529827472 -0.0024688268390794595 0.0020983601077681499
leaf_weight=37 21 21 21
leaf_count=37 21 21 21
internal_value=0 -0.0120763 0.00874487
internal_weight=0 42 58
internal_count=100 42 58
is_linear=0
shrinkage=0.1


Tree=19
num_leaves=3
num_cat=0
split_feature=0 0
split_gain=0.865739 0.171783
threshold=2.5069274710464011 3.8397243543875255
decision_type=2 2
left_child=-1 -2
right_child=1 -3
leaf_value=0.011395651826169343 -0.00030526356062009224 -0.011523475438260879
leaf_weight=40 21 39
leaf_count=40 21 39
internal_value=0 -0.0075971
internal_weight=0 60
internal_count=100 60
is_linear=0
shrinkage=0.1


Tree=20
num_leaves=3
num_cat=0
split_feature=0 0
split_gain=0.701249 0.139144
threshold=2.5069274710464011 3.8397243543875255
decision_type=2 2
left_child=-1 -2
right_child=1 -3
leaf_value=0.010256086671724916 -0.00027473723582391231 -0.010371128023446849
leaf_weight=40 21 39
leaf_count=40 21 39
internal_value=0 -0.00683739
internal_weight=0 60
internal_count=100 60
is_linear=0
shrinkage=0.1


Tree=21
num_leaves=3
num_cat=0
split_feature=0 0
split_gain=0.568012 0.121053
threshold=2.5069274710464011 4.9821216829656327
decision_type=2 2
left_child=-1 -2
right_child=1 -3
leaf_value=0.009230478317476809 -0.0094496656591311484 -3.2483817388614016e-05
leaf_weight=40 39 21
leaf_count=40 39 21
internal_value=0 -0.00615365
internal_weight=0 60
internal_count=100 60
is_linear=0
shrinkage=0.1


Tree=22
num_leaves=3
num_cat=0
split_feature=0 0
split_gain=0.505984 0.171311
threshold=3.8397243543875255 1.3645301424682941
decision_type=2 2
left_child=1 -1
right_child=-2 -3
leaf_value=-0.0013681577052921058 -0.0088961271903453733 0.0096679082546287636
leaf_weight=22 39 39
leaf_count=22 39 39
internal_value=0 0.00568769
internal_weight=0 61
internal_count=100 61
is_linear=0
shrinkage=0.1


Tree=23
num_leaves=3
num_cat=0
split_feature=0 0
split_gain=0.421098 0.122545
threshold=2.5069274710464011 4.9821216829656327
decision_type=2 2
left_child=-1 -2
right_child=1 -3
leaf_value=0.0079476227867417044 -0.0086146879977045156 0.00086037662057649529
leaf_weight=40 39 21
leaf_count=40 39 21
internal_value=0 -0.00529842
internal_weight=0 60
internal_count=100 60
is_linear=0
shrinkage=0.1


Tree=24
num_leaves=4
num_cat=0
split_feature=0 0 0
split_gain=0.376706 0.267922 0.186254
threshold=3.6493247996245075 4.9821216829656327 1.3645301424682941
decision_type=2 2 2
left_child=2 -2 -1
right_child=1 -3 -4
leaf_value=-0.0020261040804061023 -0.015199497067147778 0.00077433938249236067 0.0096528495868874933
leaf_weight=22 21 21 36
leaf_count=22 21 21 36
internal_value=0 -0.00721258 0.0052229
internal_weight=0 42 58
internal_count=100 42 58
is_linear=0
shrinkage=0.1


Tree=25
num_leaves=3
num_cat=0
split_feature=0 0
split_gain=0.312869 0.1364
threshold=3.8397243543875255 1.3645301424682941
decision_type=2 2
left_child=1 -1
right_child=-2 -3
leaf_value=-0.0018234931588680906 -0.0069954221256268339 0.0080240587846790914
leaf_weight=22 39 39
leaf_count=22 39 39
internal_value=0 0.00447248
internal_weight=0 61
internal_count=100 61
is_linear=0
shrinkage=0.1


Tree=26
num_leaves=3
num_cat=0
split_feature=0 0
split_gain=0.28769 0.107781
threshold=2.5069274710464011 4.9821216829656327
decision_type=2 2
left_child=-1 -2
right_child=1 -3
leaf_value=0.0065691276302095513 -0.0074895001608335111 0.001396448076480911
leaf_weight=40 39 21
leaf_count=40 39 21
internal_value=0 -0.00437942
internal_weight=0 60
internal_count=100 60
is_linear=0
shrinkage=0.1


Tree=27
num_leaves=3
num_cat=0
split_feature=0 0
split_gain=0.233029 0.0873022
threshold=2.5069274710464011 4.9821216829656327
decision_type=2 2
left_child=-1 -2
right_child=1 -3
leaf_value=0.0059122150005714511 -0.006740550104773437 0.0012568031925530663
leaf_weight=40 39 21
leaf_count=40 39 21
internal_value=0 -0.00394148
internal_weight=0 60
internal_count=100 60
is_linear=0
shrinkage=0.1


Tree=28
num_leaves=3
num_cat=0
split_feature=0 0
split_gain=0.213741 0.149254
threshold=3.8397243543875255 1.3645301424682941
decision_type=2 2
left_child=1 -1
right_child=-2 -3
leaf_value=-0.0028892781670120629 -0.0057819754816591743 0.0074118245733328734
leaf_weight=22 39 39
leaf_count=22 39 39
internal_value=0 0.00369667
internal_weight=0 61
internal_count=100 61
is_linear=0
shrinkage=0.1


Tree=29
num_leaves=3
num_cat=0
split_feature=0 0
split_gain=0.176568 0.0853634
threshold=2.5069274710464011 4.9821216829656327
decision_type=2 2
left_child=-1 -2
right_child=1 -3
leaf_value=0.005146371609298513 -0.0061987327826686974 0.0017093195801689512
leaf_weight=40 39 21
leaf_count=40 39 21
internal_value=0 -0.00343091
internal_weight=0 60
internal_count=100 60
is_linear=0
shrinkage=0.1


Tree=30
num_leaves=3
num_cat=0
split_feature=0 0
split_gain=0.160458 0.137353
threshold=3.8397243543875255 1.3645301424682941
decision_type=2 2
left_child=1 -1
right_child=-2 -3
leaf_value=-0.0031149879838763316 -0.0050097228714432096 0.0067668952919447273
leaf_weight=22 39 39
leaf_count=22 39 39
internal_value=0 0.00320294
internal_weight=0 61
internal_count=100 61
is_linear=0
shrinkage=0.1


Tree=31
num_leaves=3
num_cat=0
split_feature=0 0
split_gain=0.134913 0.0820144
threshold=2.5069274710464011 4.9821216829656327
decision_type=2 2
left_child=-1 -2
right_child=1 -3
leaf_value=0.0044985483516938986 -0.0057120130315291675 0.0020393601308266326
leaf_weight=40 39 21
leaf_count=40 39 21
internal_value=0 -0.00299903
internal_weight=0 60
internal_count=100 60
is_linear=0
shrinkage=0.1


Tree=32
num_leaves=3
num_cat=0
split_feature=0 0
split_gain=0.121254 0.125436
threshold=3.8397243543875255 1.3645301424682941
decision_type=2 2
left_child=1 -1
right_child=-2 -3
leaf_value=-0.0032533434134992684 -0.0043549306762333106 0.0061901503290312417
leaf_weight=22 39 39
leaf_count=22 39 39
internal_value=0 0.0027843
internal_weight=0 61
internal_count=100 61
is_linear=0
shrinkage=0.1


Tree=33
num_leaves=3
num_cat=0
split_feature=0 0
split_gain=0.103968 0.0776858
threshold=2.5069274710464011 4.9821216829656327
decision_type=2 2
left_child=-1 -2
right_child=1 -3
leaf_value=0.0039490708021912724 -0.0052731308240953909 0.0022709173726893606
leaf_weight=40 39 21
leaf_count=40 39 21
internal_value=0 -0.00263271
internal_weight=0 60
internal_count=100 60
is_linear=0
shrinkage=0.1


Tree=34
num_leaves=3
num_cat=0
split_feature=0 0
split_gain=0.0922408 0.113823
threshold=3.8397243543875255 1.3645301424682941
decision_type=2 2
left_child=1 -1
right_child=-2 -3
leaf_value=-0.0033229164271192119 -0.0037983425152607457 0.0056728082631404206
leaf_weight=22 39 39
leaf_count=22 39 39
internal_value=0 0.00242845
internal_weight=0 61
internal_count=100 61
is_linear=0
shrinkage=0.1


Tree=35
num_leaves=3
num_cat=0
split_feature=0 0
split_gain=0.0808125 0.0727334
threshold=2.5069274710464011 4.9821216829656327
decision_type=2 2
left_child=-1 -2
right_child=1 -3
leaf_value=0.0034816476970445363 -0.0048759682447267463 0.0024236600934749563
leaf_weight=40 39 21
leaf_count=40 39 21
internal_value=0 -0.0023211
internal_weight=0 60
internal_count=100 60
is_linear=0
shrinkage=0.1


Tree=36
num_leaves=3
num_cat=0
split_feature=0 0
split_gain=0.0706397 0.102731
threshold=3.8397243543875255 1.3645301424682941
decision_type=2 2
left_child=1 -1
right_child=-2 -3
leaf_value=-0.0033387892625548624 -0.0033239688461598679 0.0052073881430073805
leaf_weight=22 39 39
leaf_count=22 39 39
internal_value=0 0.00212516
internal_weight=0 61
internal_count=100 61
is_linear=0
shrinkage=0.1


Tree=37
num_leaves=4
num_cat=0
split_feature=0 0 0
split_gain=0.0642748 0.0625628 0.0649356
threshold=2.3165279162833836 4.9821216829656327 3.6493247996245075
decision_type=2 2 2
left_child=-1 2 -2
right_child=1 -3 -4
leaf_value=0.0033081845896368897 -0.00023916886933702267 0.0025136902307470641 -0.0081032283515447678
leaf_weight=37 21 21 21
leaf_count=37 21 21 21
internal_value=0 -0.0019429 -0.0041712
internal_weight=0 63 42
internal_count=100 63 42
is_linear=0
shrinkage=0.1


Tree=38
num_leaves=4
num_cat=0
split_feature=0 0 0
split_gain=0.0520626 0.0506759 0.0525978
threshold=2.3165279162833836 4.9821216829656327 3.6493247996245075
decision_type=2 2 2
left_child=-1 2 -2
right_child=1 -3 -4
leaf_value=0.0029773661338195609 -0.00021525199408642948 0.0022623218595981599 -0.0072929052780160604
leaf_weight=37 21 21 21
leaf_count=37 21 21 21
internal_value=0 -0.00174861 -0.00375408
internal_weight=0 63 42
internal_count=100 63 42
is_linear=0
shrinkage=0.1


Tree=39
num_leaves=4
num_cat=0
split_feature=0 0 0
split_gain=0.0437434 0.0907211 0.0793702
threshold=4.0301239091505439 1.3645301424682941 2.6973270258094186
decision_type=2 2 2
left_child=1 -1 -3
right_child=-2 2 -4
leaf_value=-0.0036334656559946863 -0.0027886553260032089 0.0086406649112524027 -5.3624931959867745e-05
leaf_weight=22 36 21 21
leaf_count=22 36 21 21
internal_value=0 0.00156862 0.00429352
internal_weight=0 64 42
internal_count=100 64 42
is_linear=0
shrinkage=0.1


Tree=40
num_leaves=4
num_cat=0
split_feature=0 0 0
split_gain=0.0380509 0.0457223 0.0368748
threshold=2.3165279162833836 4.9821216829656327 3.6493247996245075
decision_type=2 2 2
left_child=-1 2 -2
right_child=1 -3 -4
leaf_value=0.0025453765901762085 -0.00043677258962859582 0.0023149555726420311 -0.0063628931217993212
leaf_weight=37 21 21 21
leaf_count=37 21 21 21
internal_value=0 -0.0014949 -0.00339983
internal_weight=0 63 42
internal_count=100 63 42
is_linear=0
shrinkage=0.1


Tree=41
num_leaves=4
num_cat=0
split_feature=0 0 0
split_gain=0.0350398 0.125676 0.0413326
threshold=1.3645301424682941 2.6973270258094186 4.9821216829656327
decision_type=2 2 2
left_child=-1 -2 -3
right_child=1 2 -4
leaf_value=-0.0035246568266302349 0.0076072648012389735 -0.0034989658954954293 0.0020834600819008694
leaf_weight=22 21 36 21
leaf_count=22 21 36 21
internal_value=0 0.000994134 -0.00144228
internal_weight=0 78 57
internal_count=100 78 57
is_linear=0
shrinkage=0.1


Tree=42
num_leaves=4
num_cat=0
split_feature=0 0 0
split_gain=0.0312084 0.0677993 0.0420977
threshold=4.0301239091505439 1.3645301424682941 2.6973270258094186
decision_type=2 2 2
left_child=1 -1 -3
right_child=-2 2 -4
leaf_value=-0.0031721911774101582 -0.0023554534754819342 0.0068465382620204428 0.00051462922489181866
leaf_weight=22 36 21 21
leaf_count=22 36 21 21
internal_value=0 0.00132494 0.00368058
internal_weight=0 64 42
internal_count=100 64 42
is_linear=0
shrinkage=0.1


Tree=43
num_leaves=4
num_cat=0
split_feature=0 0 0
split_gain=0.0259756 0.0352621 0.0225114
threshold=2.3165279162833836 4.9821216829656327 3.6493247996245075
decision_type=2 2 2
left_child=-1 2 -2
right_child=1 -3 -4
leaf_value=0.0021030644193996448 -0.00059289430888990568 0.0021106586924621038 -0.0052231643260234883
leaf_weight=37 21 21 21
leaf_count=37 21 21 21
internal_value=0 -0.00123513 -0.00290803
internal_weight=0 63 42
internal_count=100 63 42
is_linear=0
shrinkage=0.1


Tree=44
num_leaves=4
num_cat=0
split_feature=0 0 0
split_gain=0.0265013 0.0766334 0.0286924
threshold=1.3645301424682941 2.6973270258094186 4.9821216829656327
decision_type=2 2 2
left_child=-1 -2 -3
right_child=1 2 -4
leaf_value=-0.0030652784022756601 0.0060286055984241629 -0.0027515567852080696 0.0018995928090243114
leaf_weight=22 21 36 21
leaf_count=22 21 36 21
internal_value=0 0.000864566 -0.00103798
internal_weight=0 78 57
internal_count=100 78 57
is_linear=0
shrinkage=0.1


Tree=45
num_leaves=4
num_cat=0
split_feature=0 0 0
split_gain=0.0229877 0.050882 0.0212232
threshold=4.0301239091505439 1.3645301424682941 2.6973270258094186
decision_type=2 2 2
left_child=1 -1 -3
right_child=-2 2 -4
leaf_value=-0.0027587500803003262 -0.0020215595451494057 0.0054257451068787351 0.00092990481782527197
leaf_weight=22 36 21 21
leaf_count=22 36 21 21
internal_value=0 0.00113713 0.00317782
internal_weight=0 64 42
internal_count=100 64 42
is_linear=0
shrinkage=0.1


Tree=46
num_leaves=4
num_cat=0
split_feature=0 0 0
split_gain=0.01862 0.0412144 0.0171908
threshold=4.0301239091505439 1.3645301424682941 2.6973270258094186
decision_type=2 2 2
left_child=1 -1 -3
right_child=-2 2 -4
leaf_value=-0.0024828754963395609 -0.00181940325225393 0.0048831703230029066 0.00083691427661549485
leaf_weight=22 36 21 21
leaf_count=22 36 21 21
internal_value=0 0.00102341 0.00286004
internal_weight=0 64 42
internal_count=100 64 42
is_linear=0
shrinkage=0.1


Tree=47
num_leaves=4
num_cat=0
split_feature=0 0 0
split_gain=0.0174627 0.0303975 0.0112397
threshold=2.3165279162833836 4.9821216829656327 3.6493247996245075
decision_type=2 2 2
left_child=-1 2 -2
right_child=1 -3 -4
leaf_value=0.0017243505383187252 -0.00093005274511164145 0.0020937301218509675 -0.0042018180668708825
leaf_weight=37 21 21 21
leaf_count=37 21 21 21
internal_value=0 -0.00101271 -0.00256594
internal_weight=0 63 42
internal_count=100 63 42
is_linear=0
shrinkage=0.1


Tree=48
num_leaves=4
num_cat=0
split_feature=0 0 0
split_gain=0.0163414 0.0376445 0.021433
threshold=1.3645301424682941 2.6973270258094186 4.9821216829656327
decision_type=2 2 2
left_child=-1 -2 -3
right_child=1 2 -4
leaf_value=-0.0024070229472603058 0.0042982584885543308 -0.0021355672247914807 0.0018843572586774828
leaf_weight=22 21 36 21
leaf_count=22 21 36 21
internal_value=0 0.000678904 -0.000654542
internal_weight=0 78 57
internal_count=100 78 57
is_linear=0
shrinkage=0.1


Tree=49
num_leaves=4
num_cat=0
split_feature=0 0 0
split_gain=0.0144985 0.0315834 0.00774075
threshold=4.0301239091505439 1.3645301424682941 2.6973270258094186
decision_type=2 2 2
left_child=1 -1 -3
right_child=-2 2 -4
leaf_value=-0.0021663210312412545 -0.0016054606155699329 0.0038684327598838583 0.0011532639064604328
leaf_weight=22 36 21 21
leaf_count=22 36 21 21
internal_value=0 0.000903071 0.00251085
internal_weight=0 64 42
internal_count=100 64 42
is_linear=0
shrinkage=0.1


Tree=50
num_leaves=4
num_cat=0
split_feature=0 0 0
split_gain=0.0130871 0.0235312 0.00648992
threshold=2.3165279162833836 4.9821216829656327 3.6493247996245075
decision_type=2 2 2
left_child=-1 2 -2
right_child=1 -3 -4
leaf_value=0.0014927617551104442 -0.0010002169957650561 0.0018564677132027491 -0.0034863543430609365
leaf_weight=37 21 21 21
leaf_count=37 21 21 21
internal_value=0 -0.000876701 -0.00224329
internal_weight=0 63 42
internal_count=100 63 42
is_linear=0
shrinkage=0.1


Tree=51
num_leaves=4
num_cat=0
split_feature=0 0 0
split_gain=0.0124262 0.0267418 0.00505685
threshold=1.3645301424682941 4.0301239091505439 2.6973270258094186
decision_type=2 2 2
left_child=-1 2 -2
right_child=1 -3 -4
leaf_value=-0.002098964917769825 0.0034035410920512823 -0.001407943409220833 0.0012089916859709081
leaf_weight=22 21 36 21
leaf_count=22 21 36 21
internal_value=0 0.000592016 0.00230627
internal_weight=0 78 42
internal_count=100 78 42
is_linear=0
shrinkage=0.1


Tree=52
num_leaves=4
num_cat=0
split_feature=0 0 0
split_gain=0.0109195 0.0202108 0.00499452
threshold=2.1261283615203657 4.9821216829656327 3.6493247996245075
decision_type=2 2 2
left_child=-1 2 -2
right_child=1 -3 -4
leaf_value=0.0014559077290708529 -0.00095996609349337323 0.0018116152357487453 -0.0030716940362860139
leaf_weight=34 24 21 21
leaf_count=34 24 21 21
internal_value=0 -0.000750013 -0.00194544
internal_weight=0 66 45
internal_count=100 66 45
is_linear=0
shrinkage=0.1


Tree=53
num_leaves=4
num_cat=0
split_feature=0 0 0
split_gain=0.0116765 0.022228 0.0039504
threshold=1.3645301424682941 4.2205234639135618 2.6973270258094186
decision_type=2 2 2
left_child=-1 2 -2
right_child=1 -3 -4
leaf_value=-0.0020346581882966512 0.0030211337437365381 -0.0013974205731894032 0.0011430655266546333
leaf_weight=22 21 33 24
leaf_count=22 21 33 24
internal_value=0 0.000573878 0.0020195
internal_weight=0 78 45
internal_count=100 78 45
is_linear=0
shrinkage=0.1


Tree=54
num_leaves=4
num_cat=0
split_feature=0 0 0
split_gain=0.00945794 0.0180424 0.00265084
threshold=1.3645301424682941 4.0301239091505439 2.6973270258094186
decision_type=2 2 2
left_child=-1 2 -2
right_child=1 -3 -4
leaf_value=-0.0018311935265294531 0.0027190202854052632 -0.0011262678256672291 0.0011301176533812568
leaf_weight=22 21 36 21
leaf_count=22 21 36 21
internal_value=0 0.00051649 0.00192457
internal_weight=0 78 42
internal_count=100 78 42
is_linear=0
shrinkage=0.1


Tree=55
num_leaves=4
num_cat=0
split_feature=0 0 0
split_gain=0.00949837 0.0205387 0.00240116
threshold=2.1261283615203657 4.9821216829656327 3.6493247996245075
decision_type=2 2 2
left_child=-1 2 -2
right_child=1 -3 -4
leaf_value=0.0013578663871157916 -0.0012212992112229891 0.0018828224390745165 -0.0026855020429052061
leaf_weight=34 24 21 21
leaf_count=34 24 21 21
internal_value=0 -0.000699507 -0.00190459
internal_weight=0 66 45
internal_count=100 66 45
is_linear=0
shrinkage=0.1


Tree=56
num_leaves=4
num_cat=0
split_feature=0 0 0
split_gain=0.00897531 0.0159593 0.00189536
threshold=1.3645301424682941 4.2205234639135618 2.6973270258094186
decision_type=2 2 2
left_child=-1 2 -2
right_child=1 -3 -4
leaf_value=-0.0017838597213002769 0.0024218674341942199 -0.0011672130503663511 0.0011209894980614384
leaf_weight=22 21 33 24
leaf_count=22 21 33 24
internal_value=0 0.00050314 0.00172807
internal_weight=0 78 45
internal_count=100 78 45
is_linear=0
shrinkage=0.1


Tree=57
num_leaves=4
num_cat=0
split_feature=0 0 0
split_gain=0.00872076 0.0179367 0.00145107
threshold=4.9821216829656327 2.1261283615203657 3.6493247996245075
decision_type=2 2 2
left_child=1 -1 -3
right_child=-2 2 -4
leaf_value=0.0012520282673101654 0.0018112612444730032 -0.0012600511622925601 -0.0023982962881702753
leaf_weight=34 21 24 21
leaf_count=34 21 24 21
internal_value=0 -0.000481475 -0.00179123
internal_weight=0 79 45
internal_count=100 79 45
is_linear=0
shrinkage=0.1


Tree=58
num_leaves=4
num_cat=0
split_feature=0 0 0
split_gain=0.00844812 0.0140397 0.00108568
threshold=1.3645301424682941 4.2205234639135618 2.6973270258094186
decision_type=2 2 2
left_child=-1 2 -2
right_child=1 -3 -4
leaf_value=-0.0017306771997193046 0.0021621383615725099 -0.0010785434846625184 0.0011775799037422987
leaf_weight=22 21 33 24
leaf_count=22 21 33 24
internal_value=0 0.00048814 0.00163704
internal_weight=0 78 45
internal_count=100 78 45
is_linear=0
shrinkage=0.1


Tree=59
num_leaves=4
num_cat=0
split_feature=0 0 0
split_gain=0.00802946 0.0157518 0.000825615
threshold=4.9821216829656327 2.1261283615203657 3.6493247996245075
decision_type=2 2 2
left_child=1 -1 -3
right_child=-2 2 -4
leaf_value=0.0011624998714336577 0.001737989272390093 -0.0012887249545504651 -0.0021473032222794636
leaf_weight=34 21 24 21
leaf_count=34 21 24 21
internal_value=0 -0.000461997 -0.00168939
internal_weight=0 79 45
internal_count=100 79 45
is_linear=0
shrinkage=0.1


Tree=60
num_leaves=4
num_cat=0
split_feature=0 0 0
split_gain=0.00790253 0.0124499 0.000570709
threshold=1.3645301424682941 4.2205234639135618 2.6973270258094186
decision_type=2 2 2
left_child=-1 2 -2
right_child=1 -3 -4
leaf_value=-0.0016738591906191272 0.0019347271250028696 -0.0010032042169548347 0.0012208910775370896
leaf_weight=22 21 33 24
leaf_count=22 21 33 24
internal_value=0 0.000472114 0.00155401
internal_weight=0 78 45
internal_count=100 78 45
is_linear=0
shrinkage=0.1


Tree=61
num_leaves=4
num_cat=0
split_feature=0 0 0
split_gain=0.00736488 0.0139495 0.000428947
threshold=4.9821216829656327 2.1261283615203657 3.6493247996245075
decision_type=2 2 2
left_child=1 -1 -3
right_child=-2 2 -4
leaf_value=0.0010862735620535472 0.0016645111143589022 -0.001308710482165528 -0.0019275708489918282
leaf_weight=34 21 24 21
leaf_count=34 21 24 21
internal_value=0 -0.000442465 -0.00159751
internal_weight=0 79 45
internal_count=100 79 45
is_linear=0
shrinkage=0.1


Tree=62
num_leaves=4
num_cat=0
split_feature=0 0 0
split_gain=0.00735745 0.0111194 0.000260623
threshold=1.3645301424682941 4.2205234639135618 2.6973270258094186
decision_type=2 2 2
left_child=-1 2 -2
right_child=1 -3 -4
leaf_value=-0.0016151005465706641 0.0017352691474592404 -0.00093871386625599411 0.0012528802927893898
leaf_weight=22 21 33 24
leaf_count=22 21 33 24
internal_value=0 0.000455541 0.001478
internal_weight=0 78 45
internal_count=100 78 45
is_linear=0
shrinkage=0.1


Tree=63
num_leaves=4
num_cat=0
split_feature=0 0 0
split_gain=0.0067366 0.0124473 0.00019164
threshold=4.9821216829656327 2.1261283615203657 3.6493247996245075
decision_type=2 2 2
left_child=1 -1 -3
right_child=-2 2 -4
leaf_value=0.0010209084269316756 0.001591931354431879 -0.001321216985040034 -0.0017348678250397956
leaf_weight=34 21 24 21
leaf_count=34 21 24 21
internal_value=0 -0.000423171 -0.00151425
internal_weight=0 79 45
internal_count=100 79 45
is_linear=0
shrinkage=0.1


Tree=64
num_leaves=4
num_cat=0
split_feature=0 0 0
split_gain=0.00682605 0.00999438 9.08459e-05
threshold=1.3645301424682941 4.2205234639135618 2.6973270258094186
decision_type=2 2 2
left_child=-1 2 -2
right_child=1 -3 -4
leaf_value=-0.0015556811778382822 0.0015600282188859725 -0.0008830609286881307 0.0012752258412850402
leaf_weight=22 21 33 24
leaf_count=22 21 33 24
internal_value=0 0.000438782 0.00140813
internal_weight=0 78 45
internal_count=100 78 45
is_linear=0
shrinkage=0.1


Tree=65
num_leaves=4
num_cat=0
split_feature=0 0 0
split_gain=0.00615001 0.0111825 0.00011056
threshold=4.9821216829656327 2.1261283615203657 3.45892524486149
decision_type=2 2 2
left_child=1 -1 -3
right_child=-2 2 -4
leaf_value=0.00096441942321903577 0.0015210440825848353 -0.0016060598715696307 -0.0012918720487505198
leaf_weight=34 21 21 24
leaf_count=34 21 21 24
internal_value=0 -0.000404328 -0.00143849
internal_weight=0 79 45
internal_count=100 79 45
is_linear=0
shrinkage=0.1


Tree=66
num_leaves=4
num_cat=0
split_feature=0 0 0
split_gain=0.00631704 0.00917757 1.75411e-05
threshold=1.3645301424682941 4.2205234639135618 2.6973270258094186
decision_type=2 2 2
left_child=-1 2 -2
right_child=1 -3 -4
leaf_value=-0.0014965556815943937 0.001417746725270436 -0.00084457211478641554 0.0012925998734620711
leaf_weight=22 21 33 24
leaf_count=22 21 33 24
internal_value=0 0.000422105 0.001351
internal_weight=0 78 45
internal_count=100 78 45
is_linear=0
shrinkage=0.1


Tree=67
num_leaves=4
num_cat=0
split_feature=0 0 0
split_gain=0.00561514 0.0101048 0.00017474
threshold=4.9821216829656327 2.1261283615203657 3.45892524486149
decision_type=2 2 2
left_child=1 -1 -3
right_child=-2 2 -4
leaf_value=0.00091477476663010958 0.0014533973520710357 -0.001580077372047873 -0.0011850861560863755
leaf_weight=34 21 21 24
leaf_count=34 21 21 24
internal_value=0 -0.000386346 -0.00136942
internal_weight=0 79 45
internal_count=100 79 45
is_linear=0
shrinkage=0.1


Tree=68
num_leaves=4
num_cat=0
split_feature=0 0 0
split_gain=0.00583545 0.00844686 2.45025e-05
threshold=1.3645301424682941 4.2205234639135618 2.8877265805724366
decision_type=2 2 2
left_child=-1 2 -2
right_child=1 -3 -4
leaf_value=-0.0014383779796348379 0.0012278224108740689 -0.00080950931843483094 0.0013757318568726382
leaf_weight=22 24 33 21
leaf_count=22 24 33 21
internal_value=0 0.000405696 0.00129685
internal_weight=0 78 45
internal_count=100 78 45
is_linear=0
shrinkage=0.1


Tree=69
num_leaves=4
num_cat=0
split_feature=0 0 0
split_gain=0.00512863 0.00921131 0.000233197
threshold=4.9821216829656327 2.1261283615203657 3.45892524486149
decision_type=2 2 2
left_child=1 -1 -3
right_child=-2 2 -4
leaf_value=0.00087303384481107488 0.0013890078557389123 -0.0015511908235826665 -0.0010948886823219559
leaf_weight=34 21 21 24
leaf_count=34 21 21 24
internal_value=0 -0.00036923 -0.00130783
internal_weight=0 79 45
internal_count=100 79 45
is_linear=0
shrinkage=0.1


Tree=70
num_leaves=4
num_cat=0
split_feature=0 0 0
split_gain=0.00538574 0.00778849 5.83525e-05
threshold=1.3645301424682941 4.2205234639135618 2.8877265805724366
decision_type=2 2 2
left_child=-1 2 -2
right_child=1 -3 -4
leaf_value=-0.0013818434439599515 0.0011389480428382135 -0.00077713572166182782 0.0013672032570909887
leaf_weight=22 24 33 21
leaf_count=22 24 33 21
internal_value=0 0.000389751 0.00124547
internal_weight=0 78 45
internal_count=100 78 45
is_linear=0
shrinkage=0.1


Tree=71
num_leaves=4
num_cat=0
split_feature=0 0 0
split_gain=0.00468674 0.00842289 0.000285454
threshold=4.9821216829656327 2.1261283615203657 3.45892524486149
decision_type=2 2 2
left_child=1 -1 -3
right_child=-2 2 -4
leaf_value=0.00083494569613214815 0.0013278205657289142 -0.0015197489089110779 -0.0010149031198428324
leaf_weight=34 21 21 24
leaf_count=34 21 21 24
internal_value=0 -0.000352965 -0.0012505
internal_weight=0 79 45
internal_count=100 79 45
is_linear=0
shrinkage=0.1


Tree=72
num_leaves=4
num_cat=0
split_feature=0 0 0
split_gain=0.00496787 0.00719234 9.70166e-05
threshold=1.3645301424682941 4.2205234639135618 2.8877265805724366
decision_type=2 2 2
left_child=-1 2 -2
right_child=1 -3 -4
leaf_value=-0.0013271533587778158 0.0010592934559099376 -0.00074701425478313909 0.0013536095818770784
leaf_weight=22 24 33 21
leaf_count=22 24 33 21
internal_value=0 0.000374325 0.00119664
internal_weight=0 78 45
internal_count=100 78 45
is_linear=0
shrinkage=0.1


Tree=73
num_leaves=4
num_cat=0
split_feature=0 0 0
split_gain=0.0042857 0.00772271 0.000329713
threshold=4.9821216829656327 2.1261283615203657 3.45892524486149
decision_type=2 2 2
left_child=1 -1 -3
right_child=-2 2 -4
leaf_value=0.00079993921989465462 0.0012697406290542513 -0.001486316935292312 -0.00094374264978493248
leaf_weight=34 21 21 24
leaf_count=34 21 21 24
internal_value=0 -0.000337526 -0.00119694
internal_weight=0 79 45
internal_count=100 79 45
is_linear=0
shrinkage=0.1


Tree=74
num_leaves=4
num_cat=0
split_feature=0 0 0
split_gain=0.00458101 0.00665023 0.000135787
threshold=1.3645301424682941 4.2205234639135618 2.8877265805724366
decision_type=2 2 2
left_child=-1 2 -2
right_child=1 -3 -4
leaf_value=-0.001274432423947887 0.00098768299988781418 -0.000718796659599651 0.0013358759826847487
leaf_weight=22 24 33 21
leaf_count=22 24 33 21
internal_value=0 0.000359455 0.00115017
internal_weight=0 78 45
internal_count=100 78 45
is_linear=0
shrinkage=0.1


Tree=75
num_leaves=4
num_cat=0
split_feature=0 0 0
split_gain=0.00392186 0.00709723 0.000365363
threshold=4.9821216829656327 2.1261283615203657 3.45892524486149
decision_type=2 2 2
left_child=1 -1 -3
right_child=-2 2 -4
leaf_value=0.00076754895614131408 0.0012146458916720889 -0.0014513761004699129 -0.00088022239118193597
leaf_weight=34 21 21 24
leaf_count=34 21 21 24
internal_value=0 -0.000322881 -0.00114676
internal_weight=0 79 45
internal_count=100 79 45
is_linear=0
shrinkage=0.1


Tree=76
num_leaves=4
num_cat=0
split_feature=0 0 0
split_gain=0.00422385 0.00615542 0.000171825
threshold=1.3645301424682941 4.2205234639135618 2.8877265805724366
decision_type=2 2 2
left_child=-1 2 -2
right_child=1 -3 -4
leaf_value=-0.0012237429153174164 0.00092310598217106108 -0.00069220469079234387 0.0013147886687268815
leaf_weight=22 24 33 21
leaf_count=22 24 33 21
internal_value=0 0.000345158 0.00110589
internal_weight=0 78 45
internal_count=100 78 45
is_linear=0
shrinkage=0.1


Tree=77
num_leaves=4
num_cat=0
split_feature=0 0 0
split_gain=0.00359174 0.00653553 0.000392528
threshold=4.9821216829656327 2.1261283615203657 3.45892524486149
decision_type=2 2 2
left_child=1 -1 -3
right_child=-2 2 -4
leaf_value=0.00073739777675227219 0.0011624018706026533 -0.0014153353969699571 -0.00082332936969275279
leaf_weight=34 21 21 24
leaf_count=34 21 21 24
internal_value=0 -0.000308993 -0.0010996
internal_weight=0 79 45
internal_count=100 79 45
is_linear=0
shrinkage=0.1


Tree=78
num_leaves=4
num_cat=0
split_feature=0 0 0
split_gain=0.00389479 0.00570236 0.000203561
threshold=1.3645301424682941 4.2205234639135618 2.8877265805724366
decision_type=2 2 2
left_child=-1 2 -2
right_child=1 -3 -4
leaf_value=-0.0011751087043773045 0.00086469229815217354 -0.00066701585257595241 0.0012910144780540751
leaf_weight=22 24 33 21
leaf_count=22 24 33 21
internal_value=0 0.000331441 0.00106364
internal_weight=0 78 45
internal_count=100 78 45
is_linear=0
shrinkage=0.1


Tree=79
num_leaves=4
num_cat=0
split_feature=0 0 0
split_gain=0.00329212 0.00602873 0.000411774
threshold=4.9821216829656327 2.1261283615203657 3.45892524486149
decision_type=2 2 2
left_child=1 -1 -3
right_child=-2 2 -4
leaf_value=0.00070917552186395324 0.0011128625610754602 -0.0013785420595446513 -0.00077219629019964486
leaf_weight=34 21 21 24
leaf_count=34 21 21 24
internal_value=0 -0.000295824 -0.00105516
internal_weight=0 79 45
internal_count=100 79 45
is_linear=0
shrinkage=0.1


Tree=80
num_leaves=4
num_cat=0
split_feature=0 0 0
split_gain=0.00359206 0.00528641 0.000235595
threshold=1.3645301424682941 4.2205234639135618 2.6973270258094186
decision_type=2 2 2
left_child=-1 2 -2
right_child=1 -3 -4
leaf_value=-0.0011285153640942141 0.0007786818585979443 -0.00064305296224175087 0.0012373237676608067
leaf_weight=22 21 33 24
leaf_count=22 21 33 24
internal_value=0 0.000318299 0.00102329
internal_weight=0 78 45
internal_count=100 78 45
is_linear=0
shrinkage=0.1


Tree=81
num_leaves=4
num_cat=0
split_feature=0 0 0
split_gain=0.00302003 0.00558297 0.000430631
threshold=4.9821216829656327 2.1261283615203657 3.45892524486149
decision_type=2 2 2
left_child=1 -1 -3
right_child=-2 2 -4
leaf_value=0.00068379627328420828 0.0010658820470174156 -0.0013447641206550459 -0.0007246902047578867
leaf_weight=34 21 21 24
leaf_count=34 21 21 24
internal_value=0 -0.000283336 -0.00101406
internal_weight=0 79 45
internal_count=100 79 45
is_linear=0
shrinkage=0.1


Tree=82
num_leaves=4
num_cat=0
split_feature=0 0 0
split_gain=0.00331453 0.00490455 0.000277421
threshold=1.3645301424682941 4.2205234639135618 2.6973270258094186
decision_type=2 2 2
left_child=-1 2 -2
right_child=1 -3 -4
leaf_value=-0.0010840438898991455 0.00071937235923195703 -0.00062022418856169247 0.0012170641741249711
leaf_weight=22 21 33 24
leaf_count=22 21 33 24
internal_value=0 0.000305756 0.000984808
internal_weight=0 78 45
internal_count=100 78 45
is_linear=0
shrinkage=0.1


Tree=83
num_leaves=4
num_cat=0
split_feature=0 0 0
split_gain=0.00277276 0.00525464 0.00141225
threshold=4.9821216829656327 1.9357288067573475 3.2685256900984725
decision_type=2 2 2
left_child=1 -1 -3
right_child=-2 2 -4
leaf_value=0.00074335111064776304 0.0010213157960346766 -0.0015419520753701885 -0.00044853770674240808
leaf_weight=31 21 21 27
leaf_count=31 21 21 27
internal_value=0 -0.000271489 -0.000926906
internal_weight=0 79 48
internal_count=100 79 48
is_linear=0
shrinkage=0.1


Tree=84
num_leaves=4
num_cat=0
split_feature=0 0 0
split_gain=0.00310946 0.00466446 0.000255395
threshold=1.3645301424682941 4.2205234639135618 2.6973270258094186
decision_type=2 2 2
left_child=-1 2 -2
right_child=1 -3 -4
leaf_value=-0.001049974315207113 0.00070368880600047605 -0.00060688386191472873 0.0011812145685932288
leaf_weight=22 21 33 24
leaf_count=22 21 33 24
internal_value=0 0.000296147 0.000958369
internal_weight=0 78 45
internal_count=100 78 45
is_linear=0
shrinkage=0.1


Tree=85
num_leaves=4
num_cat=0
split_feature=0 0 0
split_gain=0.0025523 0.00493824 0.00040835
threshold=4.9821216829656327 2.1261283615203657 3.45892524486149
decision_type=2 2 2
left_child=1 -1 -3
right_child=-2 2 -4
leaf_value=0.00064910405126283877 0.00097987267765260884 -0.0012697455778141462 -0.00066592597092191388
leaf_weight=34 21 21 24
leaf_count=34 21 21 24
internal_value=0 -0.000260473 -0.000947708
internal_weight=0 79 45
internal_count=100 79 45
is_linear=0
shrinkage=0.1


Tree=86
num_leaves=4
num_cat=0
split_feature=0 0 0
split_gain=0.00287656 0.00432127 0.000290434
threshold=1.3645301424682941 4.2205234639135618 2.6973270258094186
decision_type=2 2 2
left_child=-1 2 -2
right_child=1 -3 -4
leaf_value=-0.0010098869446665049 0.00065064591180998834 -0.00058433583401369324 0.0011598766470948855
leaf_weight=22 21 33 24
leaf_count=22 21 33 24
internal_value=0 0.00028484 0.000922236
internal_weight=0 78 45
internal_count=100 78 45
is_linear=0
shrinkage=0.1


Tree=87
num_leaves=4
num_cat=0
split_feature=0 0 0
split_gain=0.00235041 0.00471117 0.00132329
threshold=4.9821216829656327 1.9357288067573475 3.2685256900984725
decision_type=2 2 2
left_child=1 -1 -3
right_child=-2 2 -4
leaf_value=0.00071096949038967016 0.00094031901764018197 -0.001465917454749745 -0.00040749975186945116
leaf_weight=31 21 21 27
leaf_count=31 21 21 27
internal_value=0 -0.000249958 -0.000870557
internal_weight=0 79 48
internal_count=100 79 48
is_linear=0
shrinkage=0.1


Tree=88
num_leaves=4
num_cat=0
split_feature=0 0 0
split_gain=0.0027088 0.00410679 0.000263943
threshold=1.3645301424682941 4.2205234639135618 2.6973270258094186
decision_type=2 2 2
left_child=-1 2 -2
right_child=1 -3 -4
leaf_value=-0.00097999521531164655 0.000638877921543705 -0.00057092213184770308 0.0011243295860670819
leaf_weight=22 21 33 24
leaf_count=22 21 33 24
internal_value=0 0.000276409 0.000897785
internal_weight=0 78 45
internal_count=100 78 45
is_linear=0
shrinkage=0.1


Tree=89
num_leaves=4
num_cat=0
split_feature=0 0 0
split_gain=0.00219413 0.0033265 0.000213794
threshold=1.3645301424682941 4.2205234639135618 2.6973270258094186
decision_type=2 2 2
left_child=-1 2 -2
right_child=1 -3 -4
leaf_value=-0.00088199634866958313 0.0005749900984699794 -0.00051382977487237171 0.0010118966238223948
leaf_weight=22 21 33 24
leaf_count=22 21 33 24
internal_value=0 0.000248768 0.000808007
internal_weight=0 78 45
internal_count=100 78 45
is_linear=0
shrinkage=0.1


Tree=90
num_leaves=4
num_cat=0
split_feature=0 0 0
split_gain=0.00243882 0.00499066 0.00128508
threshold=1.9357288067573475 4.9821216829656327 3.2685256900984725
decision_type=2 2 2
left_child=-1 2 -2
right_child=1 -3 -4
leaf_value=0.00073677264153957376 -0.001480242127126985 0.00095476310345388594 -0.00043721786491072708
leaf_weight=31 21 21 27
leaf_count=31 21 21 27
internal_value=0 -0.000331014 -0.000893541
internal_weight=0 69 48
internal_count=100 69 48
is_linear=0
shrinkage=0.1


Tree=91
num_leaves=4
num_cat=0
split_feature=0 0 0
split_gain=0.00212247 0.00323449 0.00020044
threshold=1.3645301424682941 4.2205234639135618 2.6973270258094186
decision_type=2 2 2
left_child=-1 2 -2
right_child=1 -3 -4
leaf_value=-0.00086747353727167301 0.00057050041117084524 -0.00050730609306783394 0.0009935421723639593
leaf_weight=22 21 33 24
leaf_count=22 21 33 24
internal_value=0 0.000244672 0.000796123
internal_weight=0 78 45
internal_count=100 78 45
is_linear=0
shrinkage=0.1


Tree=92
num_leaves=4
num_cat=0
split_feature=0 0 0
split_gain=0.00225266 0.00455332 0.00113737
threshold=1.9357288067573475 4.9821216829656327 3.2685256900984725
decision_type=2 2 2
left_child=-1 2 -2
right_child=1 -3 -4
leaf_value=0.00070809444953357024 -0.0014073983989614394 0.0009100174265248436 -0.00042614589027060128
leaf_weight=31 21 21 27
leaf_count=31 21 21 27
internal_value=0 -0.00031813 -0.000855444
internal_weight=0 69 48
internal_count=100 69 48
is_linear=0
shrinkage=0.1


Tree=93
num_leaves=4
num_cat=0
split_feature=0 0 0
split_gain=0.00204519 0.00312521 0.000188339
threshold=1.3645301424682941 4.2205234639135618 2.6973270258094186
decision_type=2 2 2
left_child=-1 2 -2
right_child=1 -3 -4
leaf_value=-0.00085153562778776345 0.00056352615439599118 -0.00049898892951508362 0.00097359950498988239
leaf_weight=22 21 33 24
leaf_count=22 21 33 24
internal_value=0 0.000240177 0.000782232
internal_weight=0 78 45
internal_count=100 78 45
is_linear=0
shrinkage=0.1


Tree=94
num_leaves=4
num_cat=0
split_feature=0 0 0
split_gain=0.00208575 0.00416798 0.00101102
threshold=1.9357288067573475 4.9821216829656327 3.2685256900984725
decision_type=2 2 2
left_child=-1 2 -2
right_child=1 -3 -4
leaf_value=0.00068135692347441948 -0.0013405856733221472 0.00086891453358389076 -0.00041544288159693009
leaf_weight=31 21 21 27
leaf_count=31 21 21 27
internal_value=0 -0.000306117 -0.000820193
internal_weight=0 69 48
internal_count=100 69 48
is_linear=0
shrinkage=0.1


Tree=95
num_leaves=4
num_cat=0
split_feature=0 0 0
split_gain=0.00196426 0.00300371 0.000177323
threshold=1.3645301424682941 4.2205234639135618 2.6973270258094186
decision_type=2 2 2
left_child=-1 2 -2
right_child=1 -3 -4
leaf_value=-0.00083451799371025775 0.00055457748738782747 -0.00048927802444350993 0.00095247671997640288
leaf_weight=22 21 33 24
leaf_count=22 21 33 24
internal_value=0 0.000235377 0.00076679
internal_weight=0 78 45
internal_count=100 78 45
is_linear=0
shrinkage=0.1


Tree=96
num_leaves=4
num_cat=0
split_feature=0 0 0
split_gain=0.00193542 0.00382624 0.000902265
threshold=1.9357288067573475 4.9821216829656327 3.2685256900984725
decision_type=2 2 2
left_child=-1 2 -2
right_child=1 -3 -4
leaf_value=0.00065634447570529688 -0.0012790376966309157 0.00083095036624442975 -0.00040506828528897909
leaf_weight=31 21 21 27
leaf_count=31 21 21 27
internal_value=0 -0.000294879 -0.00078743
internal_weight=0 69 48
internal_count=100 69 48
is_linear=0
shrinkage=0.1


Tree=97
num_leaves=4
num_cat=0
split_feature=0 0 0
split_gain=0.00188128 0.00287413 0.000167249
threshold=1.3645301424682941 4.2205234639135618 2.6973270258094186
decision_type=2 2 2
left_child=-1 2 -2
right_child=1 -3 -4
leaf_value=-0.00081670148806138479 0.00054407855163195304 -0.00047849945558206829 0.00093050976332354678
leaf_weight=22 21 33 24
leaf_count=22 21 33 24
internal_value=0 0.000230351 0.000750175
internal_weight=0 78 45
internal_count=100 78 45
is_linear=0
shrinkage=0.1


Tree=98
num_leaves=4
num_cat=0
split_feature=0 0 0
split_gain=0.00179947 0.00352133 0.000808112
threshold=1.9357288067573475 4.9821216829656327 3.2685256900984725
decision_type=2 2 2
left_child=-1 2 -2
right_child=1 -3 -4
leaf_value=0.0006328728083791512 -0.0012221030519521307 0.0007957055455162413 -0.00039498979259170244
leaf_weight=31 21 21 27
leaf_count=31 21 21 27
internal_value=0 -0.000284334 -0.000756852
internal_weight=0 69 48
internal_count=100 69 48
is_linear=0
shrinkage=0.1


Tree=99
num_leaves=4
num_cat=0
split_feature=0 0 0
split_gain=0.00179754 0.00278825 0.000925124
threshold=1.3645301424682941 4.4109230186765798 3.0781261353354545
decision_type=2 2 2
left_child=-1 2 -2
right_child=1 -3 -4
leaf_value=-0.00079831755296750511 0.00031066234697829241 -0.00053110627147058651 0.0011956336234496641
leaf_weight=22 27 30 21
leaf_count=22 27 30 21
internal_value=0 0.000225167 0.000697837
internal_weight=0 78 48
internal_count=100 78 48
is_linear=0
shrinkage=0.1


Tree=100
num_leaves=4
num_cat=0
split_feature=0 0 0
split_gain=0.00173452 0.00351422 0.000241588
threshold=2.1261283615203657 4.9821216829656327 3.45892524486149
decision_type=2 2 2
left_child=-1 2 -2
right_child=1 -3 -4
leaf_value=0.00058025917481726913 -0.0010450999684897917 0.00076924620107525878 -0.00058066106309221754
leaf_weight=34 21 21 24
leaf_count=34 21 21 24
internal_value=0 -0.000298921 -0.000797399
internal_weight=0 66 45
internal_count=100 66 45
is_linear=0
shrinkage=0.1


Tree=101
num_leaves=4
num_cat=0
split_feature=0 0 0
split_gain=0.00170069 0.00266911 0.000257583
threshold=1.3645301424682941 4.0301239091505439 2.6973270258094186
decision_type=2 2 2
left_child=-1 2 -2
right_child=1 -3 -4
leaf_value=-0.00077651140534064995 0.00051294814191004702 -0.00041282652639185679 0.0010082431946925464
leaf_weight=22 21 36 21
leaf_count=22 21 36 21
internal_value=0 0.000219016 0.000760596
internal_weight=0 78 42
internal_count=100 78 42
is_linear=0
shrinkage=0.1


Tree=102
num_leaves=4
num_cat=0
split_feature=0 0 0
split_gain=0.00161422 0.00303631 0.000679935
threshold=1.9357288067573475 4.9821216829656327 3.2685256900984725
decision_type=2 2 2
left_child=-1 2 -2
right_child=1 -3 -4
leaf_value=0.0005994106960227533 -0.0011348326679407842 0.00073360349273397817 -0.0003761456872679345
leaf_weight=31 21 21 27
leaf_count=31 21 21 27
internal_value=0 -0.000269301 -0.000708071
internal_weight=0 69 48
internal_count=100 69 48
is_linear=0
shrinkage=0.1


Tree=103
num_leaves=4
num_cat=0
split_feature=0 0 0
split_gain=0.001624 0.00257821 0.000814538
threshold=1.3645301424682941 4.4109230186765798 3.0781261353354545
decision_type=2 2 2
left_child=-1 2 -2
right_child=1 -3 -4
leaf_value=-0.00075880217958580363 0.0003052416585247826 -0.00051320888722936314 0.0011356366533575404
leaf_weight=22 27 30 21
leaf_count=22 27 30 21
internal_value=0 0.000214021 0.000668539
internal_weight=0 78 48
internal_count=100 78 48
is_linear=0
shrinkage=0.1


Tree=104
num_leaves=4
num_cat=0
split_feature=0 0 0
split_gain=0.00160433 0.00326776 0.000252426
threshold=2.3165279162833836 4.9821216829656327 3.6493247996245075
decision_type=2 2 2
left_child=-1 2 -2
right_child=1 -3 -4
leaf_value=0.00052265653424468401 -0.00106137360313109 0.00071156425845055353 -0.00057106185219405847
leaf_weight=37 21 21 21
leaf_count=37 21 21 21
internal_value=0 -0.000306957 -0.000816218
internal_weight=0 63 42
internal_count=100 63 42
is_linear=0
shrinkage=0.1


Tree=105
num_leaves=4
num_cat=0
split_feature=0 0 0
split_gain=0.00152449 0.00240605 0.000280175
threshold=1.3645301424682941 4.0301239091505439 2.6973270258094186
decision_type=2 2 2
left_child=-1 2 -2
right_child=1 -3 -4
leaf_value=-0.00073518699712374 0.00046328002520437754 -0.00039253827785109435 0.00097983899149334144
leaf_weight=22 21 36 21
leaf_count=22 21 36 21
internal_value=0 0.000207361 0.00072156
internal_weight=0 78 42
internal_count=100 78 42
is_linear=0
shrinkage=0.1


Tree=106
num_leaves=4
num_cat=0
split_feature=0 0 0
split_gain=0.0014644 0.00264562 0.000613128
threshold=1.9357288067573475 4.9821216829656327 3.2685256900984725
decision_type=2 2 2
left_child=-1 2 -2
right_child=1 -3 -4
leaf_value=0.00057091743369857152 -0.0010713232470498909 0.00067966136903989882 -0.00035087195757552294
leaf_weight=31 21 21 27
leaf_count=31 21 21 27
internal_value=0 -0.000256499 -0.000666069
internal_weight=0 69 48
internal_count=100 69 48
is_linear=0
shrinkage=0.1


Tree=107
num_leaves=4
num_cat=0
split_feature=0 0 0
split_gain=0.00145712 0.00235535 0.000754794
threshold=1.3645301424682941 4.4109230186765798 3.0781261353354545
decision_type=2 2 2
left_child=-1 2 -2
right_child=1 -3 -4
leaf_value=-0.00071875997395678005 0.00028743713369799986 -0.00049236205716927841 0.0010867987379675644
leaf_weight=22 27 30 21
leaf_count=22 27 30 21
internal_value=0 0.000202727 0.000637158
internal_weight=0 78 48
internal_count=100 78 48
is_linear=0
shrinkage=0.1


Tree=108
num_leaves=4
num_cat=0
split_feature=0 0 0
split_gain=0.00144454 0.00285607 0.000257368
threshold=2.3165279162833836 4.9821216829656327 3.6493247996245075
decision_type=2 2 2
left_child=-1 2 -2
right_child=1 -3 -4
leaf_value=0.00049594630222968966 -0.0010149153636857158 0.00066093132786807559 -0.00051982699321039645
leaf_weight=37 21 21 21
leaf_count=37 21 21 21
internal_value=0 -0.00029127 -0.000767371
internal_weight=0 63 42
internal_count=100 63 42
is_linear=0
shrinkage=0.1


Tree=109
num_leaves=4
num_cat=0
split_feature=0 0 0
split_gain=0.00136818 0.00218995 0.000709619
threshold=1.3645301424682941 4.4109230186765798 3.0781261353354545
decision_type=2 2 2
left_child=-1 2 -2
right_child=1 -3 -4
leaf_value=-0.00069647943601012239 0.00027624813029197636 -0.00047379608421276015 0.0010513196781955362
leaf_weight=22 27 30 21
leaf_count=22 27 30 21
internal_value=0 0.000196443 0.000615342
internal_weight=0 78 48
internal_count=100 78 48
is_linear=0
shrinkage=0.1


Tree=110
num_leaves=4
num_cat=0
split_feature=0 0 0
split_gain=0.00135068 0.0023834 0.000456406
threshold=1.9357288067573475 4.9821216829656327 3.2685256900984725
decision_type=2 2 2
left_child=-1 2 -2
right_child=1 -3 -4
leaf_value=0.00054830194811426826 -0.00098472723981276873 0.00064221775780121495 -0.00036313602597349225
leaf_weight=31 21 21 27
leaf_count=31 21 21 27
internal_value=0 -0.000246339 -0.000635082
internal_weight=0 69 48
internal_count=100 69 48
is_linear=0
shrinkage=0.1


Tree=111
num_leaves=4
num_cat=0
split_feature=0 0 0
split_gain=0.00131059 0.00213367 0.000268425
threshold=1.3645301424682941 4.0301239091505439 2.6973270258094186
decision_type=2 2 2
left_child=-1 2 -2
right_child=1 -3 -4
leaf_value=-0.00068166172131896025 0.00042367837436142427 -0.0003726607803805059 0.00092929016044806872
leaf_weight=22 21 36 21
leaf_count=22 21 36 21
internal_value=0 0.000192263 0.000676484
internal_weight=0 78 42
internal_count=100 78 42
is_linear=0
shrinkage=0.1


Tree=112
num_leaves=4
num_cat=0
split_feature=0 0 0
split_gain=0.00129707 0.00250221 0.000263344
threshold=2.3165279162833836 4.9821216829656327 3.6493247996245075
decision_type=2 2 2
left_child=-1 2 -2
right_child=1 -3 -4
leaf_value=0.00046994974647925514 -0.00097203600841263931 0.00061526216921352209 -0.00047123313462569584
leaf_weight=37 21 21 21
leaf_count=37 21 21 21
internal_value=0 -0.000276002 -0.000721635
internal_weight=0 63 42
internal_count=100 63 42
is_linear=0
shrinkage=0.1


Tree=113
num_leaves=4
num_cat=0
split_feature=0 0 0
split_gain=0.00123044 0.00198704 0.000655187
threshold=1.3645301424682941 4.4109230186765798 3.0781261353354545
decision_type=2 2 2
left_child=-1 2 -2
right_child=1 -3 -4
leaf_value=-0.00066049028695984316 0.00025948471027529901 -0.00045214236869166297 0.0010042370190993617
leaf_weight=22 27 30 21
leaf_count=22 27 30 21
internal_value=0 0.000186292 0.000585314
internal_weight=0 78 48
internal_count=100 78 48
is_linear=0
shrinkage=0.1


Tree=114
num_leaves=4
num_cat=0
split_feature=0 0 0
split_gain=0.0012237 0.00209681 0.000410955
threshold=1.9357288067573475 4.9821216829656327 3.2685256900984725
decision_type=2 2 2
left_child=-1 2 -2
right_child=1 -3 -4
leaf_value=0.00052189226863124684 -0.00093087525539366266 0.00059895046676198649 -0.00034104632882021922
leaf_weight=31 21 21 27
leaf_count=31 21 21 27
internal_value=0 -0.000234473 -0.000599096
internal_weight=0 69 48
internal_count=100 69 48
is_linear=0
shrinkage=0.1


Tree=115
num_leaves=4
num_cat=0
split_feature=0 0 0
split_gain=0.00117934 0.00190519 0.000282939
threshold=1.3645301424682941 4.0301239091505439 2.6973270258094186
decision_type=2 2 2
left_child=-1 2 -2
right_child=1 -3 -4
leaf_value=-0.00064663005654107437 0.00038039280279051691 -0.0003514372421907158 0.00089949400696371284
leaf_weight=22 21 36 21
leaf_count=22 21 36 21
internal_value=0 0.000182383 0.000639943
internal_weight=0 78 42
internal_count=100 78 42
is_linear=0
shrinkage=0.1


Tree=116
num_leaves=4
num_cat=0
split_feature=0 0 0
split_gain=0.00116878 0.00220256 0.00026563
threshold=2.3165279162833836 4.9821216829656327 3.6493247996245075
decision_type=2 2 2
left_child=-1 2 -2
right_child=1 -3 -4
leaf_value=0.00044610383605735529 -0.00093158155546656674 0.00057419936749197192 -0.00042860981532915807
leaf_weight=37 21 21 21
leaf_count=37 21 21 21
internal_value=0 -0.000261997 -0.000680096
internal_weight=0 63 42
internal_count=100 63 42
is_linear=0
shrinkage=0.1


Tree=117
num_leaves=4
num_cat=0
split_feature=0 0 0
split_gain=0.00110733 0.0017994 0.000597666
threshold=1.3645301424682941 4.4109230186765798 3.0781261353354545
decision_type=2 2 2
left_child=-1 2 -2
right_child=1 -3 -4
leaf_value=-0.00062657808884978303 0.00024524338379571284 -0.0004308153013698757 0.00095655251019966924
leaf_weight=22 27 30 21
leaf_count=22 27 30 21
internal_value=0 0.000176727 0.000556441
internal_weight=0 78 48
internal_count=100 78 48
is_linear=0
shrinkage=0.1


Tree=118
num_leaves=4
num_cat=0
split_feature=0 0 0
split_gain=0.00111103 0.00185208 0.000365427
threshold=1.9357288067573475 4.9821216829656327 3.2685256900984725
decision_type=2 2 2
left_child=-1 2 -2
right_child=1 -3 -4
leaf_value=0.00049728656698378826 -0.00087896442994297964 0.00055986114201091587 -0.0003227663878567034
leaf_weight=31 21 21 27
leaf_count=31 21 21 27
internal_value=0 -0.000223418 -0.000566103
internal_weight=0 69 48
internal_count=100 69 48
is_linear=0
shrinkage=0.1


Tree=119
num_leaves=4
num_cat=0
split_feature=0 0 0
split_gain=0.0010621 0.00170004 0.0002923
threshold=1.3645301424682941 4.0301239091505439 2.6973270258094186
decision_type=2 2 2
left_child=-1 2 -2
right_child=1 -3 -4
leaf_value=-0.00061364769935607917 0.00034149542029592256 -0.00033118105261059508 0.00086911372796055818
leaf_weight=22 21 36 21
leaf_count=22 21 36 21
internal_value=0 0.00017308 0.000605305
internal_weight=0 78 42
internal_count=100 78 42
is_linear=0
shrinkage=0.1


Tree=120
num_leaves=4
num_cat=0
split_feature=0 0 0
split_gain=0.00105602 0.00194621 0.000265046
threshold=2.3165279162833836 4.9821216829656327 3.6493247996245075
decision_type=2 2 2
left_child=-1 2 -2
right_child=1 -3 -4
leaf_value=0.00042403859677850401 -0.00089326388025212861 0.00053699226340367682 -0.00039084485176447617
leaf_weight=37 21 21 21
leaf_count=37 21 21 21
internal_value=0 -0.000249039 -0.000642054
internal_weight=0 63 42
internal_count=100 63 42
is_linear=0
shrinkage=0.1


Tree=121
num_leaves=4
num_cat=0
split_feature=0 0 0
split_gain=0.000997483 0.00162708 0.000539979
threshold=1.3645301424682941 4.4109230186765798 3.0781261353354545
decision_type=2 2 2
left_child=-1 2 -2
right_child=1 -3 -4
leaf_value=-0.00059468729252165013 0.00023300899278924422 -0.00040998710862671342 0.0009091190471302807
leaf_weight=22 27 30 21
leaf_count=22 27 30 21
internal_value=0 0.000167732 0.000528807
internal_weight=0 78 48
internal_count=100 78 48
is_linear=0
shrinkage=0.1


Tree=122
num_leaves=4
num_cat=0
split_feature=0 0 0
split_gain=0.00101038 0.00164125 0.000321489
threshold=1.9357288067573475 4.9821216829656327 3.2685256900984725
decision_type=2 2 2
left_child=-1 2 -2
right_child=1 -3 -4
leaf_value=0.00047422719578589165 -0.00082910012431620147 0.00052429241616101492 -0.00030741046195746299
leaf_weight=31 21 21 27
leaf_count=31 21 21 27
internal_value=0 -0.000213059 -0.00053565
internal_weight=0 69 48
internal_count=100 69 48
is_linear=0
shrinkage=0.1


Tree=123
num_leaves=4
num_cat=0
split_feature=0 0 0
split_gain=0.000957482 0.00153318 0.000435556
threshold=1.3645301424682941 4.4109230186765798 3.0781261353354545
decision_type=2 2 2
left_child=-1 2 -2
right_child=1 -3 -4
leaf_value=-0.00058264120227911258 0.0002491738759326162 -0.00039646708057262004 0.00085640089046570389
leaf_weight=22 27 30 21
leaf_count=22 27 30 21
internal_value=0 0.000164335 0.000514836
internal_weight=0 78 48
internal_count=100 78 48
is_linear=0
shrinkage=0.1


Tree=124
num_leaves=4
num_cat=0
split_feature=0 0 0
split_gain=0.000967143 0.00177111 0.000214337
threshold=2.3165279162833836 4.9821216829656327 3.6493247996245075
decision_type=2 2 2
left_child=-1 2 -2
right_child=1 -3 -4
leaf_value=0.00040580271932019578 -0.00083915128904793945 0.00051150988521320487 -0.00038734378287613041
leaf_weight=37 21 21 21
leaf_count=37 21 21 21
internal_value=0 -0.000238328 -0.000613248
internal_weight=0 63 42
internal_count=100 63 42
is_linear=0
shrinkage=0.1


Tree=125
num_leaves=4
num_cat=0
split_feature=0 0 0
split_gain=0.000900245 0.00145274 0.000335175
threshold=1.3645301424682941 4.0301239091505439 2.6973270258094186
decision_type=2 2 2
left_child=-1 2 -2
right_child=1 -3 -4
leaf_value=-0.00056495831601999029 0.00027640401940083224 -0.00030679717617911392 0.00084139422868334123
leaf_weight=22 21 36 21
leaf_count=22 21 36 21
internal_value=0 0.000159347 0.000558899
internal_weight=0 78 42
internal_count=100 78 42
is_linear=0
shrinkage=0.1


Tree=126
num_leaves=4
num_cat=0
split_feature=0 0 0
split_gain=0.000919545 0.00145517 0.000284972
threshold=1.9357288067573475 4.9821216829656327 3.2685256900984725
decision_type=2 2 2
left_child=-1 2 -2
right_child=1 -3 -4
leaf_value=0.00045240799025181804 -0.0007832914125174284 0.00049103852361440656 -0.00029212365447569432
leaf_weight=31 21 21 27
leaf_count=31 21 21 27
internal_value=0 -0.000203256 -0.00050701
internal_weight=0 69 48
internal_count=100 69 48
is_linear=0
shrinkage=0.1


Tree=127
num_leaves=4
num_cat=0
split_feature=0 0 0
split_gain=0.000864731 0.0013803 0.000394367
threshold=1.3645301424682941 4.4109230186765798 3.0781261353354545
decision_type=2 2 2
left_child=-1 2 -2
right_child=1 -3 -4
leaf_value=-0.00055370263077995994 0.00023595089248071115 -0.00037593478351482189 0.00081375349538921865
leaf_weight=22 27 30 21
leaf_count=22 27 30 21
internal_value=0 0.000156172 0.00048874
internal_weight=0 78 48
internal_count=100 78 48
is_linear=0
shrinkage=0.1


Tree=128
num_leaves=4
num_cat=0
split_feature=0 0 0
split_gain=0.000873985 0.00157046 0.000217743
threshold=2.3165279162833836 4.9821216829656327 3.6493247996245075
decision_type=2 2 2
left_child=-1 2 -2
right_child=1 -3 -4
leaf_value=0.00038576350559958738 -0.00080729534494734941 0.00047952745198493916 -0.0003519115386076183
leaf_weight=37 21 21 21
leaf_count=37 21 21 21
internal_value=0 -0.00022656 -0.000579603
internal_weight=0 63 42
internal_count=100 63 42
is_linear=0
shrinkage=0.1


Tree=129
num_leaves=4
num_cat=0
split_feature=0 0 0
split_gain=0.000813073 0.00129182 0.000334379
threshold=1.3645301424682941 4.0301239091505439 2.6973270258094186
decision_type=2 2 2
left_child=-1 2 -2
right_child=1 -3 -4
leaf_value=-0.00053690899671478699 0.0002460500785327029 -0.00028813369167942759 0.00081036902653674288
leaf_weight=22 21 36 21
leaf_count=22 21 36 21
internal_value=0 0.000151436 0.00052821
internal_weight=0 78 42
internal_count=100 78 42
is_linear=0
shrinkage=0.1


Tree=130
num_leaves=4
num_cat=0
split_feature=0 0 0
split_gain=0.00083844 0.00129304 0.000249552
threshold=1.9357288067573475 4.9821216829656327 3.2685256900984725
decision_type=2 2 2
left_child=-1 2 -2
right_child=1 -3 -4
leaf_value=0.00043199593351492965 -0.00073895967077641268 0.00046038825863174032 -0.0002793286060093831
leaf_weight=31 21 21 27
leaf_count=31 21 21 27
internal_value=0 -0.000194085 -0.000480417
internal_weight=0 69 48
internal_count=100 69 48
is_linear=0
shrinkage=0.1


Tree=131
num_leaves=4
num_cat=0
split_feature=0 0 0
split_gain=0.000781609 0.00124256 0.000353971
threshold=1.3645301424682941 4.4109230186765798 3.0781261353354545
decision_type=2 2 2
left_child=-1 2 -2
right_child=1 -3 -4
leaf_value=-0.0005264179611747915 0.00022452300914597734 -0.00035638477653264999 0.00077193360799962356
leaf_weight=22 27 30 21
leaf_count=22 27 30 21
internal_value=0 0.000148477 0.000464015
internal_weight=0 78 48
internal_count=100 78 48
is_linear=0
shrinkage=0.1


Tree=132
num_leaves=4
num_cat=0
split_feature=0 0 0
split_gain=0.000791564 0.00139553 0.000218746
threshold=2.3165279162833836 4.9821216829656327 3.6493247996245075
decision_type=2 2 2
left_child=-1 2 -2
right_child=1 -3 -4
leaf_value=0.00036712373871154881 -0.00077662840818188024 0.00044998869832072944 -0.00032019681682521925
leaf_weight=37 21 21 21
leaf_count=37 21 21 21
internal_value=0 -0.000215612 -0.000548413
internal_weight=0 63 42
internal_count=100 63 42
is_linear=0
shrinkage=0.1


Tree=133
num_leaves=4
num_cat=0
split_feature=0 0 0
split_gain=0.000735021 0.00115441 0.000331975
threshold=1.3645301424682941 4.4109230186765798 3.0781261353354545
decision_type=2 2 2
left_child=-1 2 -2
right_child=1 -3 -4
leaf_value=-0.00051048861139199955 0.0002161917677666578 -0.00034263976539174721 0.00074632134416051919
leaf_weight=22 27 30 21
leaf_count=22 27 30 21
internal_value=0 0.000143984 0.000448123
internal_weight=0 78 48
internal_count=100 78 48
is_linear=0
shrinkage=0.1


Tree=134
num_leaves=4
num_cat=0
split_feature=0 0 0
split_gain=0.000765864 0.00117825 0.000181882
threshold=1.9357288067573475 4.9821216829656327 3.2685256900984725
decision_type=2 2 2
left_child=-1 2 -2
right_child=1 -3 -4
leaf_value=0.00041287617247191171 -0.00067954439104401642 0.00043925387962233457 -0.00028714926878887196
leaf_weight=31 21 21 27
leaf_count=31 21 21 27
internal_value=0 -0.000185495 -0.000458822
internal_weight=0 69 48
internal_count=100 69 48
is_linear=0
shrinkage=0.1


Tree=135
num_leaves=4
num_cat=0
split_feature=0 0 0
split_gain=0.000707179 0.00112051 0.000315193
threshold=1.3645301424682941 4.0301239091505439 2.6973270258094186
decision_type=2 2 2
left_child=-1 2 -2
right_child=1 -3 -4
leaf_value=-0.00050072653049772437 0.00021818847550700109 -0.00026815578538743365 0.00076607866434469114
leaf_weight=22 21 36 21
leaf_count=22 21 36 21
internal_value=0 0.000141231 0.000492134
internal_weight=0 78 42
internal_count=100 78 42
is_linear=0
shrinkage=0.1


Tree=136
num_leaves=4
num_cat=0
split_feature=0 0 0
split_gain=0.000721679 0.00109476 0.000169949
threshold=1.9357288067573475 4.9821216829656327 3.2685256900984725
decision_type=2 2 2
left_child=-1 2 -2
right_child=1 -3 -4
leaf_value=0.00040078869750422822 -0.0006568898175222178 0.00042214319996890568 -0.00027758477285883768
leaf_weight=31 21 21 27
leaf_count=31 21 21 27
internal_value=0 -0.000180065 -0.000443531
internal_weight=0 69 48
internal_count=100 69 48
is_linear=0
shrinkage=0.1


Tree=137
num_leaves=4
num_cat=0
split_feature=0 0 0
split_gain=0.000679234 0.00104653 0.000260468
threshold=1.3645301424682941 4.4109230186765798 3.0781261353354545
decision_type=2 2 2
left_child=-1 2 -2
right_child=1 -3 -4
leaf_value=-0.00049073326994072302 0.00022255184594541789 -0.00032491550703222556 0.00069212857890220013
leaf_weight=22 27 30 21
leaf_count=22 27 30 21
internal_value=0 0.000138412 0.000427992
internal_weight=0 78 48
internal_count=100 78 48
is_linear=0
shrinkage=0.1


Tree=138
num_leaves=4
num_cat=0
split_feature=0 0 0
split_gain=0.000705469 0.00119517 0.000209817
threshold=2.3165279162833836 4.9821216829656327 3.6493247996245075
decision_type=2 2 2
left_child=-1 2 -2
right_child=1 -3 -4
leaf_value=0.00034658373648149745 -0.00073504348817680573 0.00041242100387102085 -0.0002880253041872666
leaf_weight=37 21 21 21
leaf_count=37 21 21 21
internal_value=0 -0.000203549 -0.000511534
internal_weight=0 63 42
internal_count=100 63 42
is_linear=0
shrinkage=0.1


Tree=139
num_leaves=4
num_cat=0
split_feature=0 0 0
split_gain=0.000639914 0.000992338 0.000314976
threshold=1.3645301424682941 4.0301239091505439 2.6973270258094186
decision_type=2 2 2
left_child=-1 2 -2
right_child=1 -3 -4
leaf_value=-0.0004763179289346392 0.00019071956464488592 -0.00025091582485603996 0.00073842120002068226
leaf_weight=22 21 36 21
leaf_count=22 21 36 21
internal_value=0 0.000134346 0.00046457
internal_weight=0 78 42
internal_count=100 78 42
is_linear=0
shrinkage=0.1


Tree=140
num_leaves=4
num_cat=0
split_feature=0 0 0
split_gain=0.000657948 0.000974609 0.000148723
threshold=1.9357288067573475 4.9821216829656327 3.2685256900984725
decision_type=2 2 2
left_child=-1 2 -2
right_child=1 -3 -4
leaf_value=0.000382683354039346 -0.0006201084182109861 0.00039627066857758023 -0.00026528034337658298
leaf_weight=31 21 21 27
leaf_count=31 21 21 27
internal_value=0 -0.00017193 -0.000420518
internal_weight=0 69 48
internal_count=100 69 48
is_linear=0
shrinkage=0.1


Tree=141
num_leaves=4
num_cat=0
split_feature=0 0 0
split_gain=0.000615002 0.000939716 0.000234807
threshold=1.3645301424682941 4.4109230186765798 3.0781261353354545
decision_type=2 2 2
left_child=-1 2 -2
right_child=1 -3 -4
leaf_value=-0.00046695419163866474 0.00021105197741201631 -0.00030734187380100295 0.00065689781748958583
leaf_weight=22 27 30 21
leaf_count=22 27 30 21
internal_value=0 0.000131705 0.00040611
internal_weight=0 78 48
internal_count=100 78 48
is_linear=0
shrinkage=0.1


Tree=142
num_leaves=4
num_cat=0
split_feature=0 0 0
split_gain=0.000638475 0.00106339 0.000210586
threshold=2.3165279162833836 4.9821216829656327 3.6493247996245075
decision_type=2 2 2
left_child=-1 2 -2
right_child=1 -3 -4
leaf_value=0.00032971702088173985 -0.00070807259818095542 0.00038737767775143896 -0.0002602351421955973
leaf_weight=37 21 21 21
leaf_count=37 21 21 21
internal_value=0 -0.000193643 -0.000484154
internal_weight=0 63 42
internal_count=100 63 42
is_linear=0
shrinkage=0.1


Tree=143
num_leaves=4
num_cat=0
split_feature=0 0 0
split_gain=0.000579385 0.000880052 0.000312012
threshold=1.3645301424682941 4.0301239091505439 2.6973270258094186
decision_type=2 2 2
left_child=-1 2 -2
right_child=1 -3 -4
leaf_value=-0.00045323084023865789 0.00016625593416392804 -0.00023497643503813176 0.00071137463673949248
leaf_weight=22 21 36 21
leaf_count=22 21 36 21
internal_value=0 0.000127834 0.000438815
internal_weight=0 78 42
internal_count=100 78 42
is_linear=0
shrinkage=0.1


Tree=144
num_leaves=4
num_cat=0
split_feature=0 0 0
split_gain=0.000601149 0.000868824 0.000128261
threshold=1.9357288067573475 4.9821216829656327 3.2685256900984725
decision_type=2 2 2
left_child=-1 2 -2
right_child=1 -3 -4
leaf_value=0.00036579250252895783 -0.00058440374864620118 0.000372137093827838 -0.0002548877014002452
leaf_weight=31 21 21 27
leaf_count=31 21 21 27
internal_value=0 -0.000164342 -0.000399051
internal_weight=0 69 48
internal_count=100 69 48
is_linear=0
shrinkage=0.1


Tree=145
num_leaves=4
num_cat=0
split_feature=0 0 0
split_gain=0.000557245 0.000844421 0.000209759
threshold=1.3645301424682941 4.4109230186765798 3.0781261353354545
decision_type=2 2 2
left_child=-1 2 -2
right_child=1 -3 -4
leaf_value=-0.00044448686424981463 0.00020112686583565343 -0.00029082233086228374 0.0006225218358200177
leaf_weight=22 27 30 21
leaf_count=22 27 30 21
internal_value=0 0.000125368 0.000385487
internal_weight=0 78 48
internal_count=100 78 48
is_linear=0
shrinkage=0.1


Tree=146
num_leaves=4
num_cat=0
split_feature=0 0 0
split_gain=0.000579272 0.000947523 0.000209426
threshold=2.3165279162833836 4.9821216829656327 3.6493247996245075
decision_type=2 2 2
left_child=-1 2 -2
right_child=1 -3 -4
leaf_value=0.00031405859375120823 -0.00068197481866393776 0.00036400627522241501 -0.00023537272105126511
leaf_weight=37 21 21 21
leaf_count=37 21 21 21
internal_value=0 -0.000184447 -0.000458674
internal_weight=0 63 42
internal_count=100 63 42
is_linear=0
shrinkage=0.1


Tree=147
num_leaves=4
num_cat=0
split_feature=0 0 0
split_gain=0.000525023 0.000787226 0.000197669
threshold=1.3645301424682941 4.4109230186765798 3.0781261353354545
decision_type=2 2 2
left_child=-1 2 -2
right_child=1 -3 -4
leaf_value=-0.00043144452978264203 0.00019387641481848227 -0.00028015904516602558 0.00060294708444936466
leaf_weight=22 27 30 21
leaf_count=22 27 30 21
internal_value=0 0.000121689 0.000372845
internal_weight=0 78 48
internal_count=100 78 48
is_linear=0
shrinkage=0.1


Tree=148
num_leaves=4
num_cat=0
split_feature=0 0 0
split_gain=0.000562325 0.000869581 0.000780336
threshold=1.74532925199433 3.0781261353354545 4.4109230186765798
decision_type=2 2 2
left_child=-1 -2 -3
right_child=1 2 -4
leaf_value=0.00038026015141180589 -0.00068946096081552765 0.00054265233172502909 -0.00025214366226767503
leaf_weight=28 21 21 30
leaf_count=28 21 21 30
internal_value=0 -0.000147879 7.51253e-05
internal_weight=0 72 51
internal_count=100 72 51
is_linear=0
shrinkage=0.1


Tree=149
num_leaves=4
num_cat=0
split_feature=0 0 0
split_gain=0.000512638 0.00066387 0.000216538
threshold=1.3645301424682941 4.0301239091505439 2.6973270258094186
decision_type=2 2 2
left_child=-1 2 -2
right_child=1 -3 -4
leaf_value=-0.0004263254475187172 0.00016328256710299426 -0.00019486812881142318 0.00061740415791670489
leaf_weight=22 21 36 21
leaf_count=22 21 36 21
internal_value=0 0.000120246 0.000390343
internal_weight=0 78 42
internal_count=100 78 42
is_linear=0
shrinkage=0.1


Tree=150
num_leaves=4
num_cat=0
split_feature=0 0 0
split_gain=0.000554141 0.00106231 0.000189759
threshold=2.3165279162833836 4.9821216829656327 3.6493247996245075
decision_type=2 2 2
left_child=-1 2 -2
right_child=1 -3 -4
leaf_value=0.00030717055778950453 -0.00068332083589796517 0.00040032193508176579 -0.00025820624515680331
leaf_weight=37 21 21 21
leaf_count=37 21 21 21
internal_value=0 -0.000180402 -0.000470764
internal_weight=0 63 42
internal_count=100 63 42
is_linear=0
shrinkage=0.1


Tree=151
num_leaves=4
num_cat=0
split_feature=0 0 0
split_gain=0.000484383 0.000621367 0.0002293
threshold=1.3645301424682941 4.0301239091505439 2.6973270258094186
decision_type=2 2 2
left_child=-1 2 -2
right_child=1 -3 -4
leaf_value=-0.00041441033509644596 0.00014453698781185918 -0.00018797481607180089 0.00061184969908070004
leaf_weight=22 21 36 21
leaf_count=22 21 36 21
internal_value=0 0.000116885 0.000378193
internal_weight=0 78 42
internal_count=100 78 42
is_linear=0
shrinkage=0.1


Tree=152
num_leaves=4
num_cat=0
split_feature=0 0 0
split_gain=0.000535209 0.00081204 0.000304333
threshold=1.74532925199433 4.9821216829656327 3.0781261353354545
decision_type=2 2 2
left_child=-1 2 -2
right_child=1 -3 -4
leaf_value=0.00037097859063318803 -0.00065174112207300617 0.00037908713288960005 -0.00015538938421135148
leaf_weight=28 21 21 30
leaf_count=28 21 21 30
internal_value=0 -0.00014427 -0.00035977
internal_weight=0 72 51
internal_count=100 72 51
is_linear=0
shrinkage=0.1


Tree=153
num_leaves=4
num_cat=0
split_feature=0 0 0
split_gain=0.000474284 0.000603626 0.000180269
threshold=1.3645301424682941 4.0301239091505439 2.6973270258094186
decision_type=2 2 2
left_child=-1 2 -2
right_child=1 -3 -4
leaf_value=-0.00041006733240051701 0.00016603687489848761 -0.00018481640355376942 0.00058038515825977637
leaf_weight=22 21 36 21
leaf_count=22 21 36 21
internal_value=0 0.00011566 0.000373211
internal_weight=0 78 42
internal_count=100 78 42
is_linear=0
shrinkage=0.1


Tree=154
num_leaves=4
num_cat=0
split_feature=0 0 0
split_gain=0.000530916 0.000905798 0.000204055
threshold=2.3165279162833836 4.9821216829656327 3.6493247996245075
decision_type=2 2 2
left_child=-1 2 -2
right_child=1 -3 -4
leaf_value=0.00030066478884199988 -0.00066512007476939332 0.00035966098574655397 -0.00022428262399487375
leaf_weight=37 21 21 21
leaf_count=37 21 21 21
internal_value=0 -0.000176581 -0.000444701
internal_weight=0 63 42
internal_count=100 63 42
is_linear=0
shrinkage=0.1


Tree=155
num_leaves=4
num_cat=0
split_feature=0 0 0
split_gain=0.000449314 0.000574663 0.000121227
threshold=1.3645301424682941 4.4109230186765798 2.6973270258094186
decision_type=2 2 2
left_child=-1 2 -2
right_child=1 -3 -4
leaf_value=-0.0003991269252517007 0.00014696050036166396 -0.00023076189662485076 0.00046731368854159008
leaf_weight=22 21 30 27
leaf_count=22 21 30 27
internal_value=0 0.000112574 0.000327159
internal_weight=0 78 48
internal_count=100 78 48
is_linear=0
shrinkage=0.1


Tree=156
num_leaves=4
num_cat=0
split_feature=0 0 0
split_gain=0.000505924 0.000703244 0.000265922
threshold=1.74532925199433 4.9821216829656327 3.0781261353354545
decision_type=2 2 2
left_child=-1 2 -2
right_child=1 -3 -4
leaf_value=0.00036068622555051537 -0.00061373692560231412 0.0003467700222418422 -0.00014976461388869212
leaf_weight=28 21 21 30
leaf_count=28 21 21 30
internal_value=0 -0.000140267 -0.000340812
internal_weight=0 72 51
internal_count=100 72 51
is_linear=0
shrinkage=0.1


Tree=157
num_leaves=4
num_cat=0
split_feature=0 0 0
split_gain=0.000447401 0.000708304 0.00016053
threshold=2.3165279162833836 4.9821216829656327 3.6493247996245075
decision_type=2 2 2
left_child=-1 2 -2
right_child=1 -3 -4
leaf_value=0.00027600558462074478 -0.00059469733110052497 0.00031209386264284458 -0.00020369171286888774
leaf_weight=37 21 21 21
leaf_count=37 21 21 21
internal_value=0 -0.000162098 -0.000399195
internal_weight=0 63 42
internal_count=100 63 42
is_linear=0
shrinkage=0.1


Tree=158
num_leaves=4
num_cat=0
split_feature=0 0 0
split_gain=0.000504393 0.000640524 0.000124683
threshold=1.3645301424682941 4.4109230186765798 2.6973270258094186
decision_type=2 2 2
left_child=-1 2 -2
right_child=1 -3 -4
leaf_value=-0.00042288288982077074 0.00016307419088358683 -0.00024320206877746385 0.0004879609748496916
leaf_weight=22 21 30 27
leaf_count=22 21 30 27
internal_value=0 0.000119275 0.000345823
internal_weight=0 78 48
internal_count=100 78 48
is_linear=0
shrinkage=0.1


Tree=159
num_leaves=4
num_cat=0
split_feature=0 0 0
split_gain=0.000418488 0.000672284 0.000146837
threshold=2.3165279162833836 4.9821216829656327 3.6493247996245075
decision_type=2 2 2
left_child=-1 2 -2
right_child=1 -3 -4
leaf_value=0.00026693814465574716 -0.00057474122482485007 0.00030520431076486908 -0.00020078307757752817
leaf_weight=37 21 21 21
leaf_count=37 21 21 21
internal_value=0 -0.000156773 -0.000387762
internal_weight=0 63 42
internal_count=100 63 42
is_linear=0
shrinkage=0.1


Tree=160
num_leaves=4
num_cat=0
split_feature=0 0 0
split_gain=0.000467879 0.000611439 0.000222118
threshold=1.3645301424682941 4.0301239091505439 2.6973270258094186
decision_type=2 2 2
left_child=-1 2 -2
right_child=1 -3 -4
leaf_value=-0.00040728926489298994 0.00014412099207263617 -0.00018753816297652925 0.00060405639676554572
leaf_weight=22 21 36 21
leaf_count=22 21 36 21
internal_value=0 0.000114876 0.000374089
internal_weight=0 78 42
internal_count=100 78 42
is_linear=0
shrinkage=0.1


Tree=161
num_leaves=4
num_cat=0
split_feature=0 0 0
split_gain=0.000420858 0.000558466 0.000516477
threshold=1.74532925199433 3.0781261353354545 4.4109230186765798
decision_type=2 2 2
left_child=-1 -2 -3
right_child=1 2 -4
leaf_value=0.00032896909064480235 -0.0005619502864733693 0.00043113802523640473 -0.00021546909236349167
leaf_weight=28 21 21 30
leaf_count=28 21 21 30
internal_value=0 -0.000127932 5.07809e-05
internal_weight=0 72 51
internal_count=100 72 51
is_linear=0
shrinkage=0.1


Tree=162
num_leaves=4
num_cat=0
split_feature=0 0 0
split_gain=0.000450058 0.000489852 0.000142552
threshold=1.3645301424682941 4.0301239091505439 2.6973270258094186
decision_type=2 2 2
left_child=-1 2 -2
right_child=1 -3 -4
leaf_value=-0.00039945721456950364 0.00016044904810509511 -0.00015801397724620378 0.00052891087169492886
leaf_weight=22 21 36 21
leaf_count=22 21 36 21
internal_value=0 0.000112667 0.00034468
internal_weight=0 78 42
internal_count=100 78 42
is_linear=0
shrinkage=0.1


Tree=163
num_leaves=4
num_cat=0
split_feature=0 0 0
split_gain=0.000411313 0.000744659 0.000159268
threshold=2.3165279162833836 4.9821216829656327 3.6493247996245075
decision_type=2 2 2
left_child=-1 2 -2
right_child=1 -3 -4
leaf_value=0.00026464006844656288 -0.00059326117084960322 0.00033078604333457493 -0.00020379502232009103
leaf_weight=37 21 21 21
leaf_count=37 21 21 21
internal_value=0 -0.000155423 -0.000398528
internal_weight=0 63 42
internal_count=100 63 42
is_linear=0
shrinkage=0.1


Tree=164
num_leaves=4
num_cat=0
split_feature=0 0 0
split_gain=0.000420191 0.00045852 0.000153033
threshold=1.3645301424682941 4.0301239091505439 2.6973270258094186
decision_type=2 2 2
left_child=-1 2 -2
right_child=1 -3 -4
leaf_value=-0.00038597516038201072 0.00014245157640072563 -0.00015301677623129865 0.00052421831697713401
leaf_weight=22 21 36 21
leaf_count=22 21 36 21
internal_value=0 0.000108865 0.000333335
internal_weight=0 78 42
internal_count=100 78 42
is_linear=0
shrinkage=0.1


Tree=165
num_leaves=4
num_cat=0
split_feature=0 0 0
split_gain=0.000410333 0.000572225 0.000185091
threshold=1.74532925199433 4.9821216829656327 3.0781261353354545
decision_type=2 2 2
left_child=-1 2 -2
right_child=1 -3 -4
leaf_value=0.00032482951480363099 -0.00053492140723392372 0.00031300925073169528 -0.00014783590071601796
leaf_weight=28 21 21 30
leaf_count=28 21 21 30
internal_value=0 -0.000126323 -0.000307224
internal_weight=0 72 51
internal_count=100 72 51
is_linear=0
shrinkage=0.1


Tree=166
num_leaves=4
num_cat=0
split_feature=0 0 0
split_gain=0.000406983 0.00045194 7.34908e-05
threshold=1.3645301424682941 4.4109230186765798 2.6973270258094186
decision_type=2 2 2
left_child=-1 2 -2
right_child=1 -3 -4
leaf_value=-0.00037986024028875616 0.00015713430142828399 -0.00019733588560484351 0.00040656257344245982
leaf_weight=22 21 30 27
leaf_count=22 21 30 27
internal_value=0 0.00010714 0.000297438
internal_weight=0 78 48
internal_count=100 78 48
is_linear=0
shrinkage=0.1


Tree=167
num_leaves=4
num_cat=0
split_feature=0 0 0
split_gain=0.000397006 0.000649661 0.00015533
threshold=2.3165279162833836 4.9821216829656327 3.6493247996245075
decision_type=2 2 2
left_child=-1 2 -2
right_child=1 -3 -4
leaf_value=0.00025999677977902263 -0.0005720762718175095 0.00030144212235297478 -0.00018745478453292025
leaf_weight=37 21 21 21
leaf_count=37 21 21 21
internal_value=0 -0.000152696 -0.000379766
internal_weight=0 63 42
internal_count=100 63 42
is_linear=0
shrinkage=0.1


Tree=168
num_leaves=4
num_cat=0
split_feature=0 0 0
split_gain=0.000381703 0.000430245 0.000139126
threshold=1.3645301424682941 4.0301239091505439 2.6973270258094186
decision_type=2 2 2
left_child=-1 2 -2
right_child=1 -3 -4
leaf_value=-0.00036787376315756281 0.00013919464600760313 -0.00014991920858543989 0.00050320186308540761
leaf_weight=22 21 36 21
leaf_count=22 21 36 21
internal_value=0 0.000103759 0.000321198
internal_weight=0 78 42
internal_count=100 78 42
is_linear=0
shrinkage=0.1


Tree=169
num_leaves=4
num_cat=0
split_feature=0 0 0
split_gain=0.000395111 0.000498967 0.000163734
threshold=1.74532925199433 4.9821216829656327 3.0781261353354545
decision_type=2 2 2
left_child=-1 2 -2
right_child=1 -3 -4
leaf_value=0.00031874727324715686 -0.00050704153919858602 0.00028628916257903689 -0.00014297162318446983
leaf_weight=28 21 21 30
leaf_count=28 21 21 30
internal_value=0 -0.000123958 -0.000292883
internal_weight=0 72 51
internal_count=100 72 51
is_linear=0
shrinkage=0.1


Tree=170
num_leaves=4
num_cat=0
split_feature=0 0 0
split_gain=0.000371578 0.000427742 7.06871e-05
threshold=1.3645301424682941 4.4109230186765798 2.8877265805724366
decision_type=2 2 2
left_child=-1 2 -2
right_child=1 -3 -4
leaf_value=-0.00036296178163452584 0.00040885926185486214 -0.000193838847335428 0.00016615386772779556
leaf_weight=22 24 30 24
leaf_count=22 24 30 24
internal_value=0 0.000102374 0.000287507
internal_weight=0 78 48
internal_count=100 78 48
is_linear=0
shrinkage=0.1


Tree=171
num_leaves=4
num_cat=0
split_feature=0 0 0
split_gain=0.000365641 0.000465593 0.000159442
threshold=1.74532925199433 4.9821216829656327 3.0781261353354545
decision_type=2 2 2
left_child=-1 2 -2
right_child=1 -3 -4
leaf_value=0.00030663014123482365 -0.00049375607077741912 0.00027704434025855294 -0.00013449006129424864
leaf_weight=28 21 21 30
leaf_count=28 21 21 30
internal_value=0 -0.000119245 -0.000282423
internal_weight=0 72 51
internal_count=100 72 51
is_linear=0
shrinkage=0.1


Tree=172
num_leaves=4
num_cat=0
split_feature=0 0 0
split_gain=0.000360134 0.000411681 7.78472e-05
threshold=1.3645301424682941 4.4109230186765798 2.6973270258094186
decision_type=2 2 2
left_child=-1 2 -2
right_child=1 -3 -4
leaf_value=-0.00035732899877158081 0.00013800685271798146 -0.00018981345696374776 0.00039472151520722373
leaf_weight=22 21 30 27
leaf_count=22 21 30 27
internal_value=0 0.000100785 0.000282409
internal_weight=0 78 48
internal_count=100 78 48
is_linear=0
shrinkage=0.1


Tree=173
num_leaves=4
num_cat=0
split_feature=0 0 0
split_gain=0.000360931 0.000539676 0.000155332
threshold=2.3165279162833836 4.9821216829656327 3.6493247996245075
decision_type=2 2 2
left_child=-1 2 -2
right_child=1 -3 -4
leaf_value=0.00024790285608252961 -0.00054486349988673328 0.0002683213468463648 -0.0001602396199901012
leaf_weight=37 21 21 21
leaf_count=37 21 21 21
internal_value=0 -0.000145594 -0.000352552
internal_weight=0 63 42
internal_count=100 63 42
is_linear=0
shrinkage=0.1


Tree=174
num_leaves=4
num_cat=0
split_feature=0 0 0
split_gain=0.000338414 0.000389071 8.64802e-05
threshold=1.3645301424682941 4.4109230186765798 2.6973270258094186
decision_type=2 2 2
left_child=-1 2 -2
right_child=1 -3 -4
leaf_value=-0.00034638575532219628 0.00012206636214007934 -0.00018480706959962846 0.00039264123274565299
leaf_weight=22 21 30 27
leaf_count=22 21 30 27
internal_value=0 9.76987e-05 0.000274265
internal_weight=0 78 48
internal_count=100 78 48
is_linear=0
shrinkage=0.1


Tree=175
num_leaves=4
num_cat=0
split_feature=0 0 0
split_gain=0.000352094 0.000421337 0.000132564
threshold=1.74532925199433 4.9821216829656327 3.0781261353354545
decision_type=2 2 2
left_child=-1 2 -2
right_child=1 -3 -4
leaf_value=0.00030089602805674078 -0.00046494259510100594 0.00025997019949413485 -0.00013735513455837161
leaf_weight=28 21 21 30
leaf_count=28 21 21 30
internal_value=0 -0.000117015 -0.000272244
internal_weight=0 72 51
internal_count=100 72 51
is_linear=0
shrinkage=0.1


Tree=176
num_leaves=4
num_cat=0
split_feature=0 0 0
split_gain=0.000329585 0.000383752 0.000117552
threshold=1.3645301424682941 4.0301239091505439 2.6973270258094186
decision_type=2 2 2
left_child=-1 2 -2
right_child=1 -3 -4
leaf_value=-0.00034183737906542694 0.00013447290818606103 -0.0001431650066580106 0.00046906795864093257
leaf_weight=22 21 36 21
leaf_count=22 21 36 21
internal_value=0 9.64156e-05 0.00030177
internal_weight=0 78 42
internal_count=100 78 42
is_linear=0
shrinkage=0.1


Tree=177
num_leaves=4
num_cat=0
split_feature=0 0 0
split_gain=0.000344439 0.000480389 0.000150529
threshold=2.3165279162833836 4.9821216829656327 3.6493247996245075
decision_type=2 2 2
left_child=-1 2 -2
right_child=1 -3 -4
leaf_value=0.00024217317648534038 -0.00052680271383862768 0.00024828982672521043 -0.00014817228809642119
leaf_weight=37 21 21 21
leaf_count=37 21 21 21
internal_value=0 -0.000142228 -0.000337488
internal_weight=0 63 42
internal_count=100 63 42
is_linear=0
shrinkage=0.1


Tree=178
num_leaves=4
num_cat=0
split_feature=0 0 0
split_gain=0.000310645 0.000362337 7.87287e-05
threshold=1.3645301424682941 4.4109230186765798 2.6973270258094186
decision_type=2 2 2
left_child=-1 2 -2
right_child=1 -3 -4
leaf_value=-0.00033186998387629341 0.00011877903570642784 -0.00017902275857826076 0.00037694298613738888
leaf_weight=22 21 30 27
leaf_count=22 21 30 27
internal_value=0 9.36043e-05 0.000263996
internal_weight=0 78 48
internal_count=100 78 48
is_linear=0
shrinkage=0.1


Tree=179
num_leaves=4
num_cat=0
split_feature=0 0 0
split_gain=0.00033636 0.000375172 0.000115843
threshold=1.74532925199433 4.9821216829656327 3.0781261353354545
decision_type=2 2 2
left_child=-1 2 -2
right_child=1 -3 -4
leaf_value=0.00029409578003521477 -0.00044098534188898546 0.00024136233453949296 -0.00013475399454667544
leaf_weight=28 21 21 30
leaf_count=28 21 21 30
internal_value=0 -0.000114371 -0.000260849
internal_weight=0 72 51
internal_count=100 72 51
is_linear=0
shrinkage=0.1


Tree=180
num_leaves=4
num_cat=0
split_feature=0 0 0
split_gain=0.000303614 0.000352218 0.000106552
threshold=1.3645301424682941 4.0301239091505439 2.6973270258094186
decision_type=2 2 2
left_child=-1 2 -2
right_child=1 -3 -4
leaf_value=-0.00032809308984062886 0.00012999729619228416 -0.00013698677891322102 0.00044855397914250804
leaf_weight=22 21 36 21
leaf_count=22 21 36 21
internal_value=0 9.25391e-05 0.000289276
internal_weight=0 78 42
internal_count=100 78 42
is_linear=0
shrinkage=0.1


Tree=181
num_leaves=4
num_cat=0
split_feature=0 0 0
split_gain=0.000325946 0.000433248 0.000141966
threshold=2.3165279162833836 3.6493247996245075 4.9821216829656327
decision_type=2 2 2
left_child=-1 -2 -3
right_child=1 2 -4
leaf_value=0.0002355818671325373 -0.0005092200642961654 -0.00013677792559887858 0.00023092502462012429
leaf_weight=37 21 21 21
leaf_count=37 21 21 21
internal_value=0 -0.000138358 4.70735e-05
internal_weight=0 63 42
internal_count=100 63 42
is_linear=0
shrinkage=0.1


Tree=182
num_leaves=4
num_cat=0
split_feature=0 0 0
split_gain=0.000286734 0.000335317 7.88624e-05
threshold=1.3645301424682941 4.4109230186765798 2.8877265805724366
decision_type=2 2 2
left_child=-1 2 -2
right_child=1 -3 -4
leaf_value=-0.00031884228810667996 0.0003820239105455888 -0.00017233534793679913 0.00012566738065136935
leaf_weight=22 24 30 24
leaf_count=22 24 30 24
internal_value=0 8.99299e-05 0.000253846
internal_weight=0 78 48
internal_count=100 78 48
is_linear=0
shrinkage=0.1


Tree=183
num_leaves=4
num_cat=0
split_feature=0 0 0
split_gain=0.000307043 0.000331402 0.000125621
threshold=1.74532925199433 4.9821216829656327 3.0781261353354545
decision_type=2 2 2
left_child=-1 2 -2
right_child=1 -3 -4
leaf_value=0.00028098741812365398 -0.00043452639310132896 0.00022506625169799443 -0.00011563254534848965
leaf_weight=28 21 21 30
leaf_count=28 21 21 30
internal_value=0 -0.000109273 -0.000246942
internal_weight=0 72 51
internal_count=100 72 51
is_linear=0
shrinkage=0.1


Tree=184
num_leaves=4
num_cat=0
split_feature=0 0 0
split_gain=0.000279966 0.000320112 8.34317e-05
threshold=1.3645301424682941 4.4109230186765798 2.6973270258094186
decision_type=2 2 2
left_child=-1 2 -2
right_child=1 -3 -4
leaf_value=-0.00031505691056901762 9.9526467688736462e-05 -0.00016738773013154665 0.0003652895109384931
leaf_weight=22 21 30 27
leaf_count=22 21 30 27
internal_value=0 8.88621e-05 0.000249018
internal_weight=0 78 48
internal_count=100 78 48
is_linear=0
shrinkage=0.1


Tree=185
num_leaves=4
num_cat=0
split_feature=0 0 0
split_gain=0.00029519 0.000315931 9.9635e-05
threshold=1.74532925199433 4.9821216829656327 3.0781261353354545
decision_type=2 2 2
left_child=-1 2 -2
right_child=1 -3 -4
leaf_value=0.0002755103433238609 -0.00040861958349567087 0.00021929865082105003 -0.00012461793046289436
leaf_weight=28 21 21 30
leaf_count=28 21 21 30
internal_value=0 -0.000107143 -0.00024156
internal_weight=0 72 51
internal_count=100 72 51
is_linear=0
shrinkage=0.1


Tree=186
num_leaves=4
num_cat=0
split_feature=0 0 0
split_gain=0.000272982 0.000307869 0.000108586
threshold=1.3645301424682941 4.0301239091505439 2.6973270258094186
decision_type=2 2 2
left_child=-1 2 -2
right_child=1 -3 -4
leaf_value=-0.00031110224398699679 0.0001108892489269021 -0.00012684321700362489 0.00043247211267173825
leaf_weight=22 21 36 21
leaf_count=22 21 36 21
internal_value=0 8.77466e-05 0.000271681
internal_weight=0 78 42
internal_count=100 78 42
is_linear=0
shrinkage=0.1


Tree=187
num_leaves=4
num_cat=0
split_feature=0 0 0
split_gain=0.000290987 0.000398417 0.000111535
threshold=2.3165279162833836 3.6493247996245075 4.9821216829656327
decision_type=2 2 2
left_child=-1 -2 -3
right_child=1 2 -4
leaf_value=0.0002225904747516521 -0.00048637008488488695 -0.00011586628139152059 0.0002100533273603235
leaf_weight=37 21 21 21
leaf_count=37 21 21 21
internal_value=0 -0.000130728 4.70935e-05
internal_weight=0 63 42
internal_count=100 63 42
is_linear=0
shrinkage=0.1


Tree=188
num_leaves=4
num_cat=0
split_feature=0 0 0
split_gain=0.00025767 0.000295147 8.11875e-05
threshold=1.3645301424682941 4.4109230186765798 2.8877265805724366
decision_type=2 2 2
left_child=-1 2 -2
right_child=1 -3 -4
leaf_value=-0.00030225096270442009 0.00036908860298960161 -0.00016080491555233798 0.00010898039017774863
leaf_weight=22 24 30 24
leaf_count=22 24 30 24
internal_value=0 8.52501e-05 0.000239034
internal_weight=0 78 48
internal_count=100 78 48
is_linear=0
shrinkage=0.1


Tree=189
num_leaves=4
num_cat=0
split_feature=0 0 0
split_gain=0.000270233 0.00028059 0.000107818
threshold=1.74532925199433 4.9821216829656327 3.0781261353354545
decision_type=2 2 2
left_child=-1 2 -2
right_child=1 -3 -4
leaf_value=0.00026360664383641316 -0.00040297466940024781 0.00020512799688038373 -0.00010754030556806054
leaf_weight=28 21 21 30
leaf_count=28 21 21 30
internal_value=0 -0.000102514 -0.00022919
internal_weight=0 72 51
internal_count=100 72 51
is_linear=0
shrinkage=0.1


Tree=190
num_leaves=4
num_cat=0
split_feature=0 0 0
split_gain=0.000251122 0.00028084 8.62894e-05
threshold=1.3645301424682941 4.4109230186765798 2.6973270258094186
decision_type=2 2 2
left_child=-1 2 -2
right_child=1 -3 -4
leaf_value=-0.0002983861348845742 8.2140657052929924e-05 -0.00015585707811017831 0.00035241684597201166
leaf_weight=22 21 30 27
leaf_count=22 21 30 27
internal_value=0 8.41602e-05 0.000234171
internal_weight=0 78 48
internal_count=100 78 48
is_linear=0
shrinkage=0.1


Tree=191
num_leaves=4
num_cat=0
split_feature=0 0 0
split_gain=0.00026073 0.00026842 8.46879e-05
threshold=1.74532925199433 4.9821216829656327 3.0781261353354545
decision_type=2 2 2
left_child=-1 2 -2
right_child=1 -3 -4
leaf_value=0.000258930423296988 -0.00037861345003225975 0.00020020121176327977 -0.00011677972642549625
leaf_weight=28 21 21 30
leaf_count=28 21 21 30
internal_value=0 -0.000100695 -0.000224594
internal_weight=0 72 51
internal_count=100 72 51
is_linear=0
shrinkage=0.1


Tree=192
num_leaves=4
num_cat=0
split_feature=0 0 0
split_gain=0.000244525 0.00027783 0.000170816
threshold=1.3645301424682941 2.8877265805724366 4.9821216829656327
decision_type=2 2 2
left_child=-1 -2 -3
right_child=1 2 -4
leaf_value=-0.00029444033280014994 0.00036614288546843454 -0.0001846524753614865 0.00018018046837477457
leaf_weight=22 24 33 21
leaf_count=22 24 33 21
internal_value=0 8.30473e-05 -4.2773e-05
internal_weight=0 78 54
internal_count=100 78 54
is_linear=0
shrinkage=0.1


Tree=193
num_leaves=4
num_cat=0
split_feature=0 0 0
split_gain=0.000239813 0.000220838 0.000219735
threshold=1.74532925199433 3.0781261353354545 4.4109230186765798
decision_type=2 2 2
left_child=-1 -2 -3
right_child=1 2 -4
leaf_value=0.00024832669712070908 -0.00036949792854665291 0.00026390346001356929 -0.00015785525979784628
leaf_weight=28 21 21 30
leaf_count=28 21 21 30
internal_value=0 -9.65714e-05 1.58101e-05
internal_weight=0 72 51
internal_count=100 72 51
is_linear=0
shrinkage=0.1


Tree=194
num_leaves=4
num_cat=0
split_feature=0 0 0
split_gain=0.000236927 0.000251385 0.000160155
threshold=1.3645301424682941 2.8877265805724366 4.9821216829656327
decision_type=2 2 2
left_child=-1 -2 -3
right_child=1 2 -4
leaf_value=-0.00028982971879568971 0.00035103279030105722 -0.00017531680588779802 0.00017794827886280561
leaf_weight=22 24 33 21
leaf_count=22 24 33 21
internal_value=0 8.17467e-05 -3.79359e-05
internal_weight=0 78 54
internal_count=100 78 54
is_linear=0
shrinkage=0.1


Tree=195
num_leaves=4
num_cat=0
split_feature=0 0 0
split_gain=0.000221661 0.000211806 0.000201931
threshold=1.74532925199433 3.0781261353354545 4.4109230186765798
decision_type=2 2 2
left_child=-1 -2 -3
right_child=1 2 -4
leaf_value=0.0002387436106801033 -0.0003601321168909116 0.00025504480138243665 -0.00014926647961450122
leaf_weight=28 21 21 30
leaf_count=28 21 21 30
internal_value=0 -9.28448e-05 1.72146e-05
internal_weight=0 72 51
internal_count=100 72 51
is_linear=0
shrinkage=0.1


Tree=196
num_leaves=4
num_cat=0
split_feature=0 0 0
split_gain=0.000228648 0.000232386 0.000136161
threshold=1.3645301424682941 4.0301239091505439 2.6973270258094186
decision_type=2 2 2
left_child=-1 2 -2
right_child=1 -3 -4
leaf_value=-0.00028472112661058257 6.0055034035550698e-05 -0.00010613066422390854 0.00042016244704081189
leaf_weight=22 21 36 21
leaf_count=22 21 36 21
internal_value=0 8.03059e-05 0.000240109
internal_weight=0 78 42
internal_count=100 78 42
is_linear=0
shrinkage=0.1


Tree=197
num_leaves=4
num_cat=0
split_feature=0 0 0
split_gain=0.000230872 0.000362044 7.38778e-05
threshold=2.3165279162833836 3.6493247996245075 4.9821216829656327
decision_type=2 2 2
left_child=-1 -2 -3
right_child=1 2 -4
leaf_value=0.00019826914586529537 -0.00045546368041652301 -7.9560785698482679e-05 0.00018569344122494971
leaf_weight=37 21 21 21
leaf_count=37 21 21 21
internal_value=0 -0.000116444 5.30663e-05
internal_weight=0 63 42
internal_count=100 63 42
is_linear=0
shrinkage=0.1


Tree=198
num_leaves=4
num_cat=0
split_feature=0 0 0
split_gain=0.000214973 0.000226496 7.92095e-05
threshold=1.3645301424682941 4.6013225734395968 2.6973270258094186
decision_type=2 2 2
left_child=-1 2 -2
right_child=1 -3 -4
leaf_value=-0.00027607594701376832 5.2900678877319613e-05 -0.00015633225578952719 0.00030612388315300146
leaf_weight=22 21 27 30
leaf_count=22 21 27 30
internal_value=0 7.78674e-05 0.000201856
internal_weight=0 78 51
internal_count=100 78 51
is_linear=0
shrinkage=0.1


Tree=199
num_leaves=4
num_cat=0
split_feature=0 0 0
split_gain=0.000218114 0.00032279 7.7547e-05
threshold=2.3165279162833836 3.6493247996245075 4.9821216829656327
decision_type=2 2 2
left_child=-1 -2 -3
