{"learner":{"attributes":{"best_iteration":"499","best_ntree_limit":"500","scikit_learn":"{\"n_estimators\": 500, \"objective\": \"reg:squarederror\", \"max_depth\": 10, \"max_leaves\": null, \"max_bin\": null, \"grow_policy\": null, \"learning_rate\": 0.15, \"verbosity\": null, \"booster\": null, \"tree_method\": null, \"gamma\": null, \"min_child_weight\": null, \"max_delta_step\": null, \"subsample\": null, \"sampling_method\": null, \"colsample_bytree\": 0.1, \"colsample_bylevel\": null, \"colsample_bynode\": null, \"reg_alpha\": null, \"reg_lambda\": null, \"scale_pos_weight\": null, \"base_score\": null, \"missing\": NaN, \"num_parallel_tree\": null, \"random_state\": null, \"n_jobs\": null, \"monotone_constraints\": null, \"interaction_constraints\": null, \"importance_type\": null, \"gpu_id\": null, \"validate_parameters\": null, \"predictor\": null, \"enable_categorical\": false, \"feature_types\": null, \"max_cat_to_onehot\": null, \"max_cat_threshold\": null, \"eval_metric\": null, \"early_stopping_rounds\": null, \"callbacks\": null, \"_estimator_type\": \"regressor\"}"},"feature_names":[],"feature_types":[],"gradient_booster":{"model":{"gbtree_model_param":{"num_parallel_tree":"1","num_trees":"500","size_leaf_vector":"0"},"tree_info":[0,0,0,0,0,0,0,0,0,0,0,0,0,0,0,0,0,0,0,0,0,0,0,0,0,0,0,0,0,0,0,0,0,0,0,0,0,0,0,0,0,0,0,0,0,0,0,0,0,0,0,0,0,0,0,0,0,0,0,0,0,0,0,0,0,0,0,0,0,0,0,0,0,0,0,0,0,0,0,0,0,0,0,0,0,0,0,0,0,0,0,0,0,0,0,0,0,0,0,0,0,0,0,0,0,0,0,0,0,0,0,0,0,0,0,0,0,0,0,0,0,0,0,0,0,0,0,0,0,0,0,0,0,0,0,0,0,0,0,0,0,0,0,0,0,0,0,0,0,0,0,0,0,0,0,0,0,0,0,0,0,0,0,0,0,0,0,0,0,0,0,0,0,0,0,0,0,0,0,0,0,0,0,0,0,0,0,0,0,0,0,0,0,0,0,0,0,0,0,0,0,0,0,0,0,0,0,0,0,0,0,0,0,0,0,0,0,0,0,0,0,0,0,0,0,0,0,0,0,0,0,0,0,0,0,0,0,0,0,0,0,0,0,0,0,0,0,0,0,0,0,0,0,0,0,0,0,0,0,0,0,0,0,0,0,0,0,0,0,0,0,0,0,0,0,0,0,0,0,0,0,0,0,0,0,0,0,0,0,0,0,0,0,0,0,0,0,0,0,0,0,0,0,0,0,0,0,0,0,0,0,0,0,0,0,0,0,0,0,0,0,0,0,0,0,0,0,0,0,0,0,0,0,0,0,0,0,0,0,0,0,0,0,0,0,0,0,0,0,0,0,0,0,0,0,0,0,0,0,0,0,0,0,0,0,0,0,0,0,0,0,0,0,0,0,0,0,0,0,0,0,0,0,0,0,0,0,0,0,0,0,0,0,0,0,0,0,0,0,0,0,0,0,0,0,0,0,0,0,0,0,0,0,0,0,0,0,0,0,0,0,0,0,0,0,0,0,0,0,0,0,0,0,0,0,0,0,0,0,0,0,0,0,0,0,0,0,0,0,0,0,0,0,0,0,0,0,0,0,0,0,0,0,0,0,0,0,0,0,0,0,0,0,0,0,0,0,0,0,0,0,0,0,0,0,0,0,0,0,0,0,0,0,0,0,0,0,0,0,0],"trees":[{"base_weights":[-4.950495E-1,1.2764773E-1,-1.1080399E0,-2.5067705E-1,2.0386344E-1,-1.1749073E0,-6.0176396E-1,-3.115974E-1,-9.6627295E-2,3.166013E-1,-1.998317E-1,-6.287224E-1,-1.2612472E0,7.5435355E-2,3.5558045E-1,-5.7029076E-2,-2.855286E-1,8.9458525E-3,1.0644364E-1,3.9547503E-1,1.3673861E-1,6.838709E-3,-7.47057E-2,-6.9016367E-3,2.0320415E-2,1.5067436E-1,3.3529937E-2,-2.0886734E-2,-8.568311E-2],"categories":[],"categories_nodes":[],"categories_segments":[],"categories_sizes":[],"default_left":[1,1,1,1,1,1,0,0,0,1,1,0,0,1,1,1,0,1,0,0,1,0,1,0,0,0,0,0,0],"id":0,"left_children":[1,3,5,7,9,11,-1,-1,-1,13,15,-1,-1,17,19,21,-1,23,-1,-1,25,-1,27,-1,-1,-1,-1,-1,-1],"loss_changes":[3.8693886E1,1.5216529E0,1.0195045E0,5.4354012E-2,2.0202713E0,1.2819557E0,0E0,0E0,0E0,2.9279184E-1,1.0609394E-1,0E0,0E0,1.14181265E-2,1.9911098E-1,6.1557256E-3,0E0,6.810189E-4,0E0,0E0,3.5776347E-3,0E0,5.7353266E-4,0E0,0E0,0E0,0E0,0E0,0E0],"parents":[2147483647,0,0,1,1,2,2,3,3,4,4,5,5,9,9,10,10,13,13,14,14,15,15,17,17,20,20,22,22],"right_children":[2,4,6,8,10,12,-1,-1,-1,14,16,-1,-1,18,20,22,-1,24,-1,-1,26,-1,28,-1,-1,-1,-1,-1,-1],"split_conditions":[3.1415927E0,4.7599888E-1,5.870653E0,2.8559935E-1,2.570394E0,3.5858583E0,-9.0264596E-2,-4.673961E-2,-1.4494095E-2,7.933315E-1,2.82426E0,-9.430837E-2,-1.8918708E-1,6.029319E-1,2.2530613E0,2.6338606E0,-4.282929E-2,5.394654E-1,1.5966548E-2,5.932126E-2,2.5069275E0,1.0258064E-3,2.6973271E0,-1.0352456E-3,3.0480626E-3,2.2601154E-2,5.0294907E-3,-3.1330104E-3,-1.2852467E-2],"split_indices":[0,0,0,0,0,0,0,0,0,0,0,0,0,0,0,0,0,0,0,0,0,0,0,0,0,0,0,0,0],"split_type":[0,0,0,0,0,0,0,0,0,0,0,0,0,0,0,0,0,0,0,0,0,0,0,0,0,0,0,0,0],"sum_hessian":[1E2,5E1,5E1,8E0,4.2E1,4.3E1,7E0,5E0,3E0,3.3E1,9E0,7E0,3.6E1,5E0,2.8E1,4E0,5E0,2E0,3E0,2.3E1,5E0,1E0,3E0,1E0,1E0,4E0,1E0,1E0,2E0],"tree_param":{"num_deleted":"0","num_feature":"1","num_nodes":"29","size_leaf_vector":"0"}},{"base_weights":[-4.246322E-1,1.18897595E-1,-9.3909097E-1,-1.9916813E-1,1.9357467E-1,-4.6296135E-1,-9.911305E-1,-2.5847983E-1,-4.5580618E-2,2.876702E-1,-1.2688853E-1,-1.077625E0,-5.719877E-1,-5.651815E-2,-6.384015E-3,9.845636E-2,3.1906328E-1,-1.0035098E-2,-2.031183E-1,1.8796384E-2,1.1062908E-1,3.5069546E-1,1.499013E-1,2.4894E-2,-4.1619163E-2,3.1015188E-2,6.325811E-3],"categories":[],"categories_nodes":[],"categories_segments":[],"categories_sizes":[],"default_left":[1,1,1,1,1,0,1,0,1,1,1,0,0,0,0,1,1,1,0,0,0,0,0,1,0,0,0],"id":1,"left_children":[1,3,5,7,9,-1,11,-1,13,15,17,-1,-1,-1,-1,19,21,23,-1,-1,-1,-1,-1,25,-1,-1,-1],"loss_changes":[2.835365E1,1.2261646E0,8.295746E-1,7.9313695E-2,1.2728224E0,0E0,1.0512772E0,0E0,1.3540434E-3,1.5866637E-1,8.7038785E-2,0E0,0E0,0E0,0E0,3.7386417E-3,9.190631E-2,6.5520816E-3,0E0,0E0,0E0,0E0,0E0,1.4478178E-4,0E0,0E0,0E0],"parents":[2147483647,0,0,1,1,2,2,3,3,4,4,6,6,8,8,9,9,10,10,15,15,16,16,17,17,23,23],"right_children":[2,4,6,8,10,-1,12,-1,14,16,18,-1,-1,-1,-1,20,22,24,-1,-1,-1,-1,-1,26,-1,-1,-1],"split_conditions":[3.0781262E0,5.394654E-1,3.4589252E0,3.4906584E-1,2.5069275E0,-6.94442E-2,5.74372E0,-3.8771976E-2,4.7599888E-1,8.56798E-1,2.7607934E0,-1.6164376E-1,-8.579816E-2,-8.477722E-3,-9.576023E-4,6.029319E-1,2.1895947E0,2.6338606E0,-3.0467745E-2,2.8194578E-3,1.6594363E-2,5.260432E-2,2.2485197E-2,2.570394E0,-6.2428745E-3,4.6522785E-3,9.488717E-4],"split_indices":[0,0,0,0,0,0,0,0,0,0,0,0,0,0,0,0,0,0,0,0,0,0,0,0,0,0,0],"split_type":[0,0,0,0,0,0,0,0,0,0,0,0,0,0,0,0,0,0,0,0,0,0,0,0,0,0,0],"sum_hessian":[1E2,4.9E1,5.1E1,9E0,4E1,6E0,4.5E1,6E0,3E0,3.1E1,9E0,3.6E1,9E0,2E0,1E0,5E0,2.6E1,4E0,5E0,1E0,4E0,2.1E1,5E0,2E0,2E0,1E0,1E0],"tree_param":{"num_deleted":"0","num_feature":"1","num_nodes":"27","size_leaf_vector":"0"}},{"base_weights":[-3.6392447E-1,1.0136669E-1,-8.043213E-1,-1.7411363E-1,1.6608466E-1,-4.84123E-1,-8.6903226E-1,-2.4033774E-1,-5.9821982E-2,2.5309873E-1,-9.423538E-2,-9.716056E-1,-5.316317E-1,-7.182487E-2,-5.905211E-3,9.796602E-2,2.864119E-1,2.1951193E-2,-1.637636E-1,3.170677E-2,1.18128374E-1,3.1128722E-1,1.557589E-1,4.3483596E-2,-6.898274E-3,-6.487793E-2,-1.9034228E-1,5.851388E-3,-1.6198799E-2],"categories":[],"categories_nodes":[],"categories_segments":[],"categories_sizes":[],"default_left":[1,1,1,1,1,0,1,0,1,1,1,0,0,0,0,1,1,1,1,0,0,0,0,0,1,0,0,0,0],"id":2,"left_children":[1,3,5,7,9,-1,11,-1,13,15,17,-1,-1,-1,-1,19,21,23,25,-1,-1,-1,-1,-1,27,-1,-1,-1,-1],"loss_changes":[2.077772E1,9.203439E-1,6.567383E-1,6.1311156E-2,9.5256245E-1,0E0,9.370117E-1,0E0,2.8116442E-3,1.3214815E-1,9.24555E-2,0E0,0E0,0E0,0E0,5.6061223E-3,3.276515E-2,3.4059538E-3,6.048739E-3,0E0,0E0,0E0,0E0,0E0,4.5052113E-4,0E0,0E0,0E0,0E0],"parents":[2147483647,0,0,1,1,2,2,3,3,4,4,6,6,8,8,9,9,10,10,15,15,16,16,17,17,18,18,24,24],"right_children":[2,4,6,8,10,-1,12,-1,14,16,18,-1,-1,-1,-1,20,22,24,26,-1,-1,-1,-1,-1,28,-1,-1,-1,-1],"split_conditions":[3.0781262E0,5.394654E-1,3.7127914E0,2.8559935E-1,2.443461E0,-7.2618455E-2,5.616787E0,-3.6050662E-2,4.7599888E-1,9.202645E-1,2.6973271E0,-1.4574085E-1,-7.9744756E-2,-1.0773731E-2,-8.8578166E-4,6.663984E-1,2.1261284E0,2.570394E0,2.82426E0,4.7560157E-3,1.7719258E-2,4.6693087E-2,2.3363836E-2,6.5225395E-3,2.6338606E0,-9.7316895E-3,-2.8551342E-2,8.7770825E-4,-2.42982E-3],"split_indices":[0,0,0,0,0,0,0,0,0,0,0,0,0,0,0,0,0,0,0,0,0,0,0,0,0,0,0,0,0],"split_type":[0,0,0,0,0,0,0,0,0,0,0,0,0,0,0,0,0,0,0,0,0,0,0,0,0,0,0,0,0],"sum_hessian":[1E2,4.9E1,5.1E1,9E0,4E1,1E1,4.1E1,5E0,4E0,3E1,1E1,3E1,1.1E1,3E0,1E0,6E0,2.4E1,4E0,6E0,2E0,4E0,1.9E1,5E0,2E0,2E0,2E0,4E0,1E0,1E0],"tree_param":{"num_deleted":"0","num_feature":"1","num_nodes":"29","size_leaf_vector":"0"}},{"base_weights":[-3.1217337E-1,7.193955E-2,-7.054074E-1,1.24703206E-1,-1.6213812E-1,-7.426442E-1,-3.08563E-1,-1.361508E-1,2.0787565E-1,-6.431146E-2,-2.1663733E-1,-4.7386426E-1,-8.058995E-1,-1.9795713E-1,-2.239179E-2,2.287361E-1,4.5309924E-2,-1.4983892E-2,-7.2897375E-2,-2.2689667E-1,-8.373884E-2,-4.3683857E-2,6.3642063E-3,1.0447329E-1,2.5661018E-1,5.3931147E-2,5.412519E-3,-5.4623187E-3,1.5008628E-2,2.7795494E-2,1.12620346E-1,2.7640066E-1,1.5447034E-1],"categories":[],"categories_nodes":[],"categories_segments":[],"categories_sizes":[],"default_left":[1,1,1,1,1,1,0,1,1,1,0,0,0,1,1,1,1,0,0,0,0,0,1,1,1,0,0,0,0,0,0,0,0],"id":3,"left_children":[1,3,5,7,9,11,-1,13,15,17,-1,-1,-1,19,21,23,25,-1,-1,-1,-1,-1,27,29,31,-1,-1,-1,-1,-1,-1,-1,-1],"loss_changes":[1.530642E1,6.624604E-1,5.097065E-1,9.6122485E-1,3.9382458E-2,3.8319397E-1,0E0,7.2908685E-2,1.01545334E-1,1.0253266E-3,0E0,0E0,0E0,4.1379333E-3,3.3393858E-3,7.36388E-2,1.4279187E-3,0E0,0E0,0E0,0E0,0E0,3.886823E-4,1.2425482E-3,3.7964582E-3,0E0,0E0,0E0,0E0,0E0,0E0,0E0,0E0],"parents":[2147483647,0,0,1,1,2,2,3,3,4,4,5,5,7,7,8,8,9,9,13,13,14,14,15,15,16,16,22,22,23,23,24,24],"right_children":[2,4,6,8,10,12,-1,14,16,18,-1,-1,-1,20,22,24,26,-1,-1,-1,-1,-1,28,30,32,-1,-1,-1,-1,-1,-1,-1,-1],"split_conditions":[3.205059E0,2.6338606E0,5.9975863E0,6.029319E-1,2.8877265E0,3.8397243E0,-4.6284452E-2,3.4906584E-1,2.3799944E0,2.6973271E0,-3.24956E-2,-7.107964E-2,-1.2088493E-1,2.2213282E-1,4.7599888E-1,9.8373103E-1,2.570394E0,-2.247584E-3,-1.0934606E-2,-3.40345E-2,-1.2560827E-2,-6.552579E-3,5.394654E-1,6.663984E-1,2.062662E0,8.089673E-3,8.118779E-4,-8.1934786E-4,2.2512944E-3,4.1693244E-3,1.6893053E-2,4.14601E-2,2.3170551E-2],"split_indices":[0,0,0,0,0,0,0,0,0,0,0,0,0,0,0,0,0,0,0,0,0,0,0,0,0,0,0,0,0,0,0,0,0],"split_type":[0,0,0,0,0,0,0,0,0,0,0,0,0,0,0,0,0,0,0,0,0,0,0,0,0,0,0,0,0,0,0,0,0],"sum_hessian":[1E2,5.1E1,4.9E1,4.2E1,9E0,4.4E1,5E0,1E1,3.2E1,4E0,5E0,1E1,3.4E1,6E0,4E0,2.8E1,4E0,1E0,3E0,4E0,2E0,2E0,2E0,6E0,2.2E1,3E0,1E0,1E0,1E0,1E0,5E0,1.7E1,5E0],"tree_param":{"num_deleted":"0","num_feature":"1","num_nodes":"33","size_leaf_vector":"0"}},{"base_weights":[-2.67734E-1,6.109479E-2,-6.0436124E-1,1.0699491E-1,-1.423852E-1,-6.5534633E-1,-3.6401898E-1,-1.352492E-1,1.7509627E-1,-5.7301186E-2,-1.8955767E-1,-4.2091855E-1,-7.297528E-1,-3.8063008E-1,-9.8954014E-2,-1.996691E-1,-5.9024435E-2,1.9172682E-1,4.0293753E-2,-1.38601065E-2,-6.469643E-2,-7.853358E-2,-1.3337423E-2,9.112124E-2,2.2416878E-1,4.78639E-2,5.0065815E-3,2.6395878E-2,1.05843365E-1,2.2907808E-1,6.0536742E-2],"categories":[],"categories_nodes":[],"categories_segments":[],"categories_sizes":[],"default_left":[1,1,1,1,1,1,1,1,1,1,0,0,0,0,0,0,1,1,1,0,0,0,0,1,1,0,0,0,0,0,0],"id":4,"left_children":[1,3,5,7,9,11,13,15,17,19,-1,-1,-1,-1,-1,-1,21,23,25,-1,-1,-1,-1,27,29,-1,-1,-1,-1,-1,-1],"loss_changes":[1.121689E1,5.0090176E-1,3.7413216E-1,7.330591E-1,2.9274374E-2,3.9055252E-1,1.0768414E-2,3.7318558E-2,6.849718E-2,7.095877E-4,0E0,0E0,0E0,0E0,0E0,0E0,4.300453E-3,7.748878E-2,1.0960111E-3,0E0,0E0,0E0,0E0,5.7822317E-3,3.8052797E-3,0E0,0E0,0E0,0E0,0E0,0E0],"parents":[2147483647,0,0,1,1,2,2,3,3,4,4,5,5,6,6,7,7,8,8,9,9,16,16,17,17,18,18,23,23,24,24],"right_children":[2,4,6,8,10,12,14,16,18,20,-1,-1,-1,-1,-1,-1,22,24,26,-1,-1,-1,-1,28,30,-1,-1,-1,-1,-1,-1],"split_conditions":[3.205059E0,2.6338606E0,5.680253E0,5.394654E-1,2.8877265E0,3.9031909E0,6.2514524E0,2.2213282E-1,2.3799944E0,2.6973271E0,-2.8433653E-2,-6.3137785E-2,-1.09462924E-1,-5.7094514E-2,-1.4843103E-2,-2.9950365E-2,4.125324E-1,1.0471976E0,2.570394E0,-2.079016E-3,-9.704465E-3,-1.1780038E-2,-2.0006136E-3,6.663984E-1,2.3165278E0,7.1795853E-3,7.5098727E-4,3.959382E-3,1.5876506E-2,3.4361713E-2,9.0805115E-3],"split_indices":[0,0,0,0,0,0,0,0,0,0,0,0,0,0,0,0,0,0,0,0,0,0,0,0,0,0,0,0,0,0,0],"split_type":[0,0,0,0,0,0,0,0,0,0,0,0,0,0,0,0,0,0,0,0,0,0,0,0,0,0,0,0,0,0,0],"sum_hessian":[1E2,5.1E1,4.9E1,4.2E1,9E0,3.9E1,1E1,9E0,3.3E1,4E0,5E0,1.1E1,2.8E1,9E0,1E0,4E0,5E0,2.9E1,4E0,1E0,3E0,3E0,2E0,8E0,2.1E1,3E0,1E0,2E0,6E0,2E1,1E0],"tree_param":{"num_deleted":"0","num_feature":"1","num_nodes":"31","size_leaf_vector":"0"}},{"base_weights":[-2.301212E-1,6.911623E-2,-5.0243276E-1,-1.1933492E-1,1.14501104E-1,-2.2294964E-1,-5.333678E-1,-1.7570879E-1,-5.2467555E-2,1.62431E-1,-4.553169E-2,-5.965224E-1,-3.418948E-1,-6.9698565E-2,-1.200369E-2,7.28929E-2,1.8550909E-1,1.4097655E-2,-8.76342E-2,-4.0995538E-1,-6.5717715E-1,-3.6660206E-1,-1.2910078E-1,2.3756305E-2,8.5312374E-2,2.0581813E-1,1.0678452E-1,2.403237E-2,-1.2820601E-2,-2.4801701E-2,-9.5240355E-2,2.8955758E-2,4.631102E-3],"categories":[],"categories_nodes":[],"categories_segments":[],"categories_sizes":[],"default_left":[1,1,1,1,1,0,1,0,1,1,1,1,1,0,0,1,1,1,1,0,0,0,0,0,0,0,0,1,0,0,0,0,0],"id":5,"left_children":[1,3,5,7,9,-1,11,-1,13,15,17,19,21,-1,-1,23,25,27,29,-1,-1,-1,-1,-1,-1,-1,-1,31,-1,-1,-1,-1,-1],"loss_changes":[8.264793E0,4.327528E-1,3.393154E-1,2.84767E-2,3.1421E-1,0E0,3.643942E-1,0E0,3.3467598E-3,5.0535023E-2,2.6340883E-2,1.1533737E-1,2.6277184E-2,0E0,0E0,2.8552972E-3,1.6393542E-2,1.6452353E-3,5.05358E-4,0E0,0E0,0E0,0E0,0E0,0E0,0E0,0E0,2.479828E-4,0E0,0E0,0E0,0E0,0E0],"parents":[2147483647,0,0,1,1,2,2,3,3,4,4,6,6,8,8,9,9,10,10,11,11,12,12,15,15,16,16,17,17,18,18,27,27],"right_children":[2,4,6,8,10,-1,12,-1,14,16,18,20,22,-1,-1,24,26,28,30,-1,-1,-1,-1,-1,-1,-1,-1,32,-1,-1,-1,-1,-1],"split_conditions":[3.0146596E0,5.394654E-1,3.3954587E0,2.2213282E-1,2.443461E0,-3.344245E-2,5.489854E0,-2.6356319E-2,4.125324E-1,9.8373103E-1,2.6973271E0,4.0301237E0,6.1879854E0,-1.0454785E-2,-1.8005535E-3,6.663984E-1,2.062662E0,2.6338606E0,2.7607934E0,-6.149331E-2,-9.8576576E-2,-5.499031E-2,-1.9365119E-2,3.5634458E-3,1.2796856E-2,3.0872721E-2,1.601768E-2,2.570394E0,-1.9230903E-3,-3.7202553E-3,-1.4286053E-2,4.343364E-3,6.9466536E-4],"split_indices":[0,0,0,0,0,0,0,0,0,0,0,0,0,0,0,0,0,0,0,0,0,0,0,0,0,0,0,0,0,0,0,0,0],"split_type":[0,0,0,0,0,0,0,0,0,0,0,0,0,0,0,0,0,0,0,0,0,0,0,0,0,0,0,0,0,0,0,0,0],"sum_hessian":[1E2,4.8E1,5.2E1,9E0,3.9E1,6E0,4.6E1,4E0,5E0,3E1,9E0,3.3E1,1.3E1,3E0,2E0,7E0,2.3E1,4E0,5E0,1E1,2.3E1,1.1E1,2E0,2E0,5E0,1.7E1,6E0,3E0,1E0,1E0,4E0,2E0,1E0],"tree_param":{"num_deleted":"0","num_feature":"1","num_nodes":"33","size_leaf_vector":"0"}},{"base_weights":[-1.9815865E-1,5.8947723E-2,-4.3212193E-1,-1.16294935E-1,9.597787E-2,-2.2526471E-1,-4.6389067E-1,-1.6856834E-1,-6.2063515E-2,1.328467E-1,-4.9872044E-2,-5.26551E-1,-3.0346662E-1,-6.9255054E-2,-1.3052911E-2,2.0955782E-2,1.4755732E-1,4.02309E-3,-7.749013E-2,-3.4498122E-1,-5.6513464E-1,-3.3258426E-1,-1.4024694E-1,-3.1520575E-3,2.7770758E-2,1.5650837E-1,5.2486196E-2,1.3270159E-2,-1.1859059E-2,-2.2941574E-2,-8.381152E-2,8.856948E-2,1.7246155E-1,1.8867816E-1,1.0317648E-1],"categories":[],"categories_nodes":[],"categories_segments":[],"categories_sizes":[],"default_left":[1,1,1,1,1,0,1,0,1,1,1,1,1,0,0,1,1,1,1,0,0,0,0,0,0,1,0,0,0,0,0,0,1,0,0],"id":6,"left_children":[1,3,5,7,9,-1,11,-1,13,15,17,19,21,-1,-1,23,25,27,29,-1,-1,-1,-1,-1,-1,31,-1,-1,-1,-1,-1,-1,33,-1,-1],"loss_changes":[6.100971E0,3.291356E-1,2.4379635E-1,1.50518045E-2,2.270953E-1,0E0,2.9255962E-1,0E0,1.210792E-3,5.1225245E-2,1.3708074E-2,2.2212982E-2,2.4644732E-2,0E0,0E0,9.090067E-4,1.6464114E-2,7.44825E-4,1.4616922E-4,0E0,0E0,0E0,0E0,0E0,0E0,1.2905061E-2,0E0,0E0,0E0,0E0,0E0,0E0,3.004253E-3,0E0,0E0],"parents":[2147483647,0,0,1,1,2,2,3,3,4,4,6,6,8,8,9,9,10,10,11,11,12,12,15,15,16,16,17,17,18,18,25,25,32,32],"right_children":[2,4,6,8,10,-1,12,-1,14,16,18,20,22,-1,-1,24,26,28,30,-1,-1,-1,-1,-1,-1,32,-1,-1,-1,-1,-1,-1,34,-1,-1],"split_conditions":[3.0146596E0,4.7599888E-1,3.5223918E0,1.586663E-1,2.5069275E0,-3.378971E-2,5.4263873E0,-2.5285253E-2,4.125324E-1,7.2986495E-1,2.6973271E0,3.9666574E0,6.1245193E0,-1.0388259E-2,-1.9579367E-3,5.394654E-1,2.3165278E0,2.6338606E0,2.7607934E0,-5.1747184E-2,-8.47702E-2,-4.9887642E-2,-2.1037042E-2,-4.7280864E-4,4.165614E-3,1.1106641E0,7.87293E-3,1.990524E-3,-1.778859E-3,-3.4412362E-3,-1.2571729E-2,1.3285422E-2,1.9991953E0,2.8301725E-2,1.5476473E-2],"split_indices":[0,0,0,0,0,0,0,0,0,0,0,0,0,0,0,0,0,0,0,0,0,0,0,0,0,0,0,0,0,0,0,0,0,0,0],"split_type":[0,0,0,0,0,0,0,0,0,0,0,0,0,0,0,0,0,0,0,0,0,0,0,0,0,0,0,0,0,0,0,0,0,0,0],"sum_hessian":[1E2,4.8E1,5.2E1,8E0,4E1,8E0,4.4E1,3E0,5E0,3.2E1,8E0,3E1,1.4E1,4E0,1E0,4E0,2.8E1,3E0,5E0,7E0,2.3E1,1.1E1,3E0,1E0,3E0,2.5E1,3E0,2E0,1E0,1E0,4E0,6E0,1.9E1,1.4E1,5E0],"tree_param":{"num_deleted":"0","num_feature":"1","num_nodes":"35","size_leaf_vector":"0"}},{"base_weights":[-1.7067282E-1,3.426011E-2,-3.8885185E-1,6.7523755E-2,-9.888507E-2,-4.1326106E-1,-1.8335937E-1,-9.3311906E-2,1.12842366E-1,-3.8146906E-2,-1.2814303E-1,-2.645003E-1,-4.3970636E-1,-1.4960441E-1,-4.7814492E-2,1.2341958E-1,2.6810622E-2,-1.0969624E-2,-4.2198822E-2,-4.7566283E-1,-3.0224884E-1,-6.094445E-2,-9.993066E-3,6.3886024E-2,1.4589177E-1,3.1869024E-2,3.2885075E-3,-1.2073949E-2,-2.9156506E-3,2.4646565E-2,7.7181995E-2,1.6226321E-1,8.996842E-2],"categories":[],"categories_nodes":[],"categories_segments":[],"categories_sizes":[],"default_left":[1,1,1,1,1,1,0,1,1,1,0,0,1,0,1,1,1,0,0,0,0,0,1,1,1,0,0,0,0,0,0,0,0],"id":7,"left_children":[1,3,5,7,9,11,-1,13,15,17,-1,-1,19,-1,21,23,25,-1,-1,-1,-1,-1,27,29,31,-1,-1,-1,-1,-1,-1,-1,-1],"loss_changes":[4.5292406E0,2.414085E-1,1.7000389E-1,3.2395005E-1,1.4659554E-2,5.2861214E-2,0E0,1.8458374E-2,2.763021E-2,8.7695196E-5,0E0,0E0,2.9218674E-2,0E0,2.8671324E-3,3.0815065E-2,4.901204E-4,0E0,0E0,0E0,0E0,0E0,8.978415E-6,3.3149943E-3,4.6279132E-3,0E0,0E0,0E0,0E0,0E0,0E0,0E0,0E0],"parents":[2147483647,0,0,1,1,2,2,3,3,4,4,5,5,7,7,8,8,9,9,12,12,14,14,15,15,16,16,22,22,23,23,24,24],"right_children":[2,4,6,8,10,12,-1,14,16,18,-1,-1,20,-1,22,24,26,-1,-1,-1,-1,-1,28,30,32,-1,-1,-1,-1,-1,-1,-1,-1],"split_conditions":[3.2685256E0,2.6338606E0,5.934119E0,5.394654E-1,2.8877265E0,3.7762578E0,-2.7503906E-2,1.586663E-1,2.3799944E0,2.6973271E0,-1.9221455E-2,-3.9675046E-2,5.3629208E0,-2.2440663E-2,4.125324E-1,1.1106641E0,2.570394E0,-1.6454436E-3,-6.3298238E-3,-7.134943E-2,-4.5337327E-2,-9.141668E-3,4.7599888E-1,7.2986495E-1,1.9991953E0,4.780354E-3,4.9327617E-4,-1.8110924E-3,-4.373476E-4,3.6969848E-3,1.15773E-2,2.4339484E-2,1.3495264E-2],"split_indices":[0,0,0,0,0,0,0,0,0,0,0,0,0,0,0,0,0,0,0,0,0,0,0,0,0,0,0,0,0,0,0,0,0],"split_type":[0,0,0,0,0,0,0,0,0,0,0,0,0,0,0,0,0,0,0,0,0,0,0,0,0,0,0,0,0,0,0,0,0],"sum_hessian":[1E2,5.2E1,4.8E1,4.2E1,1E1,4.2E1,6E0,9E0,3.3E1,4E0,6E0,8E0,3.4E1,3E0,6E0,2.9E1,4E0,1E0,3E0,2.5E1,9E0,4E0,2E0,9E0,2E1,3E0,1E0,1E0,1E0,3E0,6E0,1.4E1,6E0],"tree_param":{"num_deleted":"0","num_feature":"1","num_nodes":"33","size_leaf_vector":"0"}},{"base_weights":[-1.4691854E-1,2.9071184E-2,-3.3427644E-1,5.7966158E-2,-8.652473E-2,-3.503666E-1,-1.2260957E-1,-8.26982E-2,9.7633146E-2,-4.015537E-2,-1.184733E-1,-2.5671536E-1,-3.8039008E-1,-1.327739E-1,-4.2269487E-2,1.06676936E-1,2.3843754E-2,-1.0146901E-2,-4.4127684E-2,-4.3598124E-1,-2.656044E-1,-5.3631127E-2,-9.243588E-3,5.1892E-2,1.2424E-1,2.828376E-2,3.0418634E-3,-1.1168405E-2,-2.696976E-3,2.1873832E-2,6.325545E-2,1.3867153E-1,8.16509E-2,6.1903E-3,2.5038242E-2],"categories":[],"categories_nodes":[],"categories_segments":[],"categories_sizes":[],"default_left":[1,1,1,1,1,1,0,1,1,1,0,0,1,0,1,1,1,0,0,0,0,0,1,1,1,0,0,0,0,1,0,0,0,0,0],"id":8,"left_children":[1,3,5,7,9,11,-1,13,15,17,-1,-1,19,-1,21,23,25,-1,-1,-1,-1,-1,27,29,31,-1,-1,-1,-1,33,-1,-1,-1,-1,-1],"loss_changes":[3.339997E0,1.8204296E-1,1.23924255E-1,2.4800253E-1,1.15384385E-2,2.8876305E-2,0E0,1.4632687E-2,2.0145863E-2,2.6745908E-4,0E0,0E0,8.8395596E-2,0E0,2.130854E-3,2.2418648E-2,3.7576724E-4,0E0,0E0,0E0,0E0,0E0,7.682189E-6,1.6863532E-3,2.1991134E-3,0E0,0E0,0E0,0E0,4.3522334E-5,0E0,0E0,0E0,0E0,0E0],"parents":[2147483647,0,0,1,1,2,2,3,3,4,4,5,5,7,7,8,8,9,9,12,12,14,14,15,15,16,16,22,22,23,23,24,24,29,29],"right_children":[2,4,6,8,10,12,-1,14,16,18,-1,-1,20,-1,22,24,26,-1,-1,-1,-1,-1,28,30,32,-1,-1,-1,-1,34,-1,-1,-1,-1,-1],"split_conditions":[3.2685256E0,2.6338606E0,6.0610523E0,5.394654E-1,2.951193E0,4.0935907E0,-1.8391436E-2,1.586663E-1,2.3799944E0,2.6973271E0,-1.7770996E-2,-3.8507305E-2,5.2994547E0,-1.9916087E-2,4.125324E-1,1.0471976E0,2.570394E0,-1.5220352E-3,-6.619153E-3,-6.539719E-2,-3.984066E-2,-8.044669E-3,4.7599888E-1,7.2986495E-1,1.9357288E0,4.242564E-3,4.5627952E-4,-1.6752608E-3,-4.0454642E-4,6.029319E-1,9.488318E-3,2.080073E-2,1.2247635E-2,9.28545E-4,3.7557364E-3],"split_indices":[0,0,0,0,0,0,0,0,0,0,0,0,0,0,0,0,0,0,0,0,0,0,0,0,0,0,0,0,0,0,0,0,0,0,0],"split_type":[0,0,0,0,0,0,0,0,0,0,0,0,0,0,0,0,0,0,0,0,0,0,0,0,0,0,0,0,0,0,0,0,0,0,0],"sum_hessian":[1E2,5.2E1,4.8E1,4.2E1,1E1,4.4E1,4E0,9E0,3.3E1,5E0,5E0,1.3E1,3.1E1,3E0,6E0,2.9E1,4E0,1E0,4E0,1.9E1,1.2E1,4E0,2E0,8E0,2.1E1,3E0,1E0,1E0,1E0,3E0,5E0,1.4E1,7E0,1E0,2E0],"tree_param":{"num_deleted":"0","num_feature":"1","num_nodes":"35","size_leaf_vector":"0"}},{"base_weights":[-1.26526E-1,3.6984455E-2,-2.7530873E-1,-8.0887325E-2,6.195669E-2,-1.08102076E-1,-2.9047397E-1,-1.1783685E-1,-4.2773094E-2,8.614156E-2,-3.360526E-2,-3.208182E-1,-1.8409969E-1,-4.7195397E-2,-1.0330781E-2,1.4813179E-2,9.546916E-2,1.7713159E-3,-5.1588763E-2,-2.3121274E-1,-3.6141202E-1,-1.9805351E-1,-7.1569115E-2,-2.4947077E-3,1.9763827E-2,1.01002626E-1,3.5634324E-2,8.61901E-3,-9.385884E-3,-1.4746457E-2,-5.6007933E-2,5.7260394E-3,2.253441E-2,5.9180565E-2,1.1329599E-1,1.2673149E-1,7.215919E-2],"categories":[],"categories_nodes":[],"categories_segments":[],"categories_sizes":[],"default_left":[1,1,1,1,1,0,1,0,1,1,1,1,1,0,0,1,1,1,1,0,0,0,0,0,1,1,0,0,0,0,0,0,0,0,1,0,0],"id":9,"left_children":[1,3,5,7,9,-1,11,-1,13,15,17,19,21,-1,-1,23,25,27,29,-1,-1,-1,-1,-1,31,33,-1,-1,-1,-1,-1,-1,-1,-1,35,-1,-1],"loss_changes":[2.4672632E0,1.4924407E-1,1.0299301E-1,7.634472E-3,9.765209E-2,0E0,9.587383E-2,0E0,3.732536E-4,2.054143E-2,5.817133E-3,4.73845E-2,6.23852E-3,0E0,0E0,4.7773134E-4,6.0025454E-3,3.865014E-4,1.5095808E-4,0E0,0E0,0E0,0E0,0E0,2.6538386E-5,6.6625774E-3,0E0,0E0,0E0,0E0,0E0,0E0,0E0,0E0,1.3563335E-3,0E0,0E0],"parents":[2147483647,0,0,1,1,2,2,3,3,4,4,6,6,8,8,9,9,10,10,11,11,12,12,15,15,16,16,17,17,18,18,24,24,25,25,34,34],"right_children":[2,4,6,8,10,-1,12,-1,14,16,18,20,22,-1,-1,24,26,28,30,-1,-1,-1,-1,-1,32,34,-1,-1,-1,-1,-1,-1,-1,-1,36,-1,-1],"split_conditions":[3.0146596E0,4.7599888E-1,3.3319921E0,1.586663E-1,2.5069275E0,-1.6215311E-2,5.55332E0,-1.7675528E-2,4.125324E-1,7.2986495E-1,2.6973271E0,4.157057E0,6.1879854E0,-7.07931E-3,-1.5496173E-3,5.394654E-1,2.3165278E0,2.6338606E0,2.7607934E0,-3.4681913E-2,-5.4211807E-2,-2.9708028E-2,-1.0735367E-2,-3.7420617E-4,6.029319E-1,1.1741306E0,5.345149E-3,1.2928516E-3,-1.4078827E-3,-2.2119686E-3,-8.40119E-3,8.5890596E-4,3.3801615E-3,8.8770855E-3,1.9357288E0,1.9009724E-2,1.0823879E-2],"split_indices":[0,0,0,0,0,0,0,0,0,0,0,0,0,0,0,0,0,0,0,0,0,0,0,0,0,0,0,0,0,0,0,0,0,0,0,0,0],"split_type":[0,0,0,0,0,0,0,0,0,0,0,0,0,0,0,0,0,0,0,0,0,0,0,0,0,0,0,0,0,0,0,0,0,0,0,0,0],"sum_hessian":[1E2,4.8E1,5.2E1,8E0,4E1,5E0,4.7E1,3E0,5E0,3.2E1,8E0,3.5E1,1.2E1,4E0,1E0,4E0,2.8E1,3E0,5E0,1.3E1,2.2E1,1E1,2E0,1E0,3E0,2.5E1,3E0,2E0,1E0,1E0,4E0,1E0,2E0,7E0,1.8E1,1.2E1,6E0],"tree_param":{"num_deleted":"0","num_feature":"1","num_nodes":"37","size_leaf_vector":"0"}},{"base_weights":[-1.0888041E-1,3.4547083E-2,-2.343552E-1,-7.167695E-2,5.7583813E-2,-1.0551639E-1,-2.5129893E-1,-1.04580194E-1,-3.7795287E-2,7.6234214E-2,-1.51269175E-2,-2.7155575E-1,-1.3559724E-1,-4.1531958E-2,-9.555966E-3,3.9843805E-2,9.339853E-2,1.1991978E-2,-3.0685028E-2,-1.971344E-1,-2.937522E-1,1.992653E-3,4.721477E-2,1.0918407E-1,6.021958E-2,1.4544427E-2,2.1673143E-3,-8.681938E-3,-3.3349257E-2,-3.2726756E-1,-2.0069784E-1,-2.3076087E-3,5.296588E-3,2.0280957E-2,5.1413104E-2],"categories":[],"categories_nodes":[],"categories_segments":[],"categories_sizes":[],"default_left":[1,1,1,1,1,0,1,0,1,1,1,1,0,0,0,1,1,1,1,0,1,1,1,0,0,0,0,0,0,0,0,0,0,0,0],"id":10,"left_children":[1,3,5,7,9,-1,11,-1,13,15,17,19,-1,-1,-1,21,23,25,27,-1,29,31,33,-1,-1,-1,-1,-1,-1,-1,-1,-1,-1,-1,-1],"loss_changes":[1.8257464E0,1.21586025E-1,9.136629E-2,6.080713E-3,5.5396557E-2,0E0,7.333374E-2,0E0,2.3624953E-4,1.6266376E-2,4.1652434E-3,6.515026E-3,0E0,0E0,0E0,3.2539107E-3,4.423678E-3,6.878545E-5,6.219139E-5,0E0,2.1643162E-2,5.4845812E-5,8.8064E-5,0E0,0E0,0E0,0E0,0E0,0E0,0E0,0E0,0E0,0E0,0E0,0E0],"parents":[2147483647,0,0,1,1,2,2,3,3,4,4,6,6,8,8,9,9,10,10,11,11,15,15,16,16,17,17,18,18,20,20,21,21,22,22],"right_children":[2,4,6,8,10,-1,12,-1,14,16,18,20,-1,-1,-1,22,24,26,28,-1,30,32,34,-1,-1,-1,-1,-1,-1,-1,-1,-1,-1,-1,-1],"split_conditions":[2.951193E0,4.7599888E-1,3.3954587E0,1.586663E-1,2.443461E0,-1.5827458E-2,5.807186E0,-1.568703E-2,4.125324E-1,1.1741306E0,2.6338606E0,4.0935907E0,-2.0339588E-2,-6.229794E-3,-1.4333948E-3,6.029319E-1,1.9357288E0,2.570394E0,2.6973271E0,-2.9570162E-2,5.2359877E0,5.394654E-1,7.2986495E-1,1.6377611E-2,9.032937E-3,2.181664E-3,3.2509715E-4,-1.3022907E-3,-5.0023887E-3,-4.9090136E-2,-3.0104676E-2,-3.461413E-4,7.9448824E-4,3.0421438E-3,7.711966E-3],"split_indices":[0,0,0,0,0,0,0,0,0,0,0,0,0,0,0,0,0,0,0,0,0,0,0,0,0,0,0,0,0,0,0,0,0,0,0],"split_type":[0,0,0,0,0,0,0,0,0,0,0,0,0,0,0,0,0,0,0,0,0,0,0,0,0,0,0,0,0,0,0,0,0,0,0],"sum_hessian":[1E2,4.7E1,5.3E1,8E0,3.9E1,7E0,4.6E1,3E0,5E0,3.1E1,8E0,3.8E1,8E0,4E0,1E0,1.1E1,2E1,3E0,5E0,1.1E1,2.7E1,2E0,9E0,1.2E1,8E0,2E0,1E0,1E0,4E0,1.8E1,9E0,1E0,1E0,2E0,7E0],"tree_param":{"num_deleted":"0","num_feature":"1","num_nodes":"35","size_leaf_vector":"0"}},{"base_weights":[-9.38896E-2,2.95622E-2,-2.0188583E-1,-6.351987E-2,4.976661E-2,-1.1463606E-1,-2.215396E-1,-1.0358671E-1,-3.7274104E-2,6.5943226E-2,-1.3279868E-2,-2.557038E-1,-1.4790599E-1,-4.3663844E-2,-1.4199833E-2,2.114726E-2,7.54674E-2,1.0819882E-2,-2.7133057E-2,-1.8155424E-1,-2.8127182E-1,-1.6296174E-1,-6.1998274E-2,1.843214E-3,2.8500235E-2,8.044429E-2,3.8475595E-2,1.3089995E-2,2.0047724E-3,-8.030787E-3,-2.9347355E-2,-2.1345317E-3,4.899353E-3,4.708342E-2,9.001191E-2],"categories":[],"categories_nodes":[],"categories_segments":[],"categories_sizes":[],"default_left":[1,1,1,1,1,0,1,0,1,1,1,1,1,0,0,1,1,1,1,0,0,0,0,1,0,1,0,0,0,0,0,0,0,0,0],"id":11,"left_children":[1,3,5,7,9,-1,11,-1,13,15,17,19,21,-1,-1,23,25,27,29,-1,-1,-1,-1,31,-1,33,-1,-1,-1,-1,-1,-1,-1,-1,-1],"loss_changes":[1.3525333E0,9.343326E-2,6.720209E-2,5.6031607E-3,4.167086E-2,0E0,7.0352316E-2,0E0,4.1205157E-4,1.2056708E-2,3.298302E-3,2.0178556E-3,1.05911195E-2,0E0,0E0,9.410635E-4,1.6915649E-3,5.3802738E-5,1.8106308E-5,0E0,0E0,0E0,0E0,4.6927453E-5,0E0,2.783969E-3,0E0,0E0,0E0,0E0,0E0,0E0,0E0,0E0,0E0],"parents":[2147483647,0,0,1,1,2,2,3,3,4,4,6,6,8,8,9,9,10,10,11,11,12,12,15,15,16,16,17,17,18,18,23,23,25,25],"right_children":[2,4,6,8,10,-1,12,-1,14,16,18,20,22,-1,-1,24,26,28,30,-1,-1,-1,-1,32,-1,34,-1,-1,-1,-1,-1,-1,-1,-1,-1],"split_conditions":[2.951193E0,4.7599888E-1,3.649325E0,9.519978E-2,2.443461E0,-1.7195411E-2,5.3629208E0,-1.5538007E-2,3.4906584E-1,8.56798E-1,2.6338606E0,4.220524E0,6.1245193E0,-6.5495768E-3,-2.129975E-3,6.029319E-1,2.1895947E0,2.570394E0,2.6973271E0,-2.7233137E-2,-4.2190775E-2,-2.4444262E-2,-9.299741E-3,5.394654E-1,4.2750356E-3,1.2375971E0,5.7713394E-3,1.9634992E-3,3.0071588E-4,-1.2046181E-3,-4.4021034E-3,-3.2017977E-4,7.34903E-4,7.062513E-3,1.3501787E-2],"split_indices":[0,0,0,0,0,0,0,0,0,0,0,0,0,0,0,0,0,0,0,0,0,0,0,0,0,0,0,0,0,0,0,0,0,0,0],"split_type":[0,0,0,0,0,0,0,0,0,0,0,0,0,0,0,0,0,0,0,0,0,0,0,0,0,0,0,0,0,0,0,0,0,0,0],"sum_hessian":[1E2,4.7E1,5.3E1,8E0,3.9E1,1.1E1,4.2E1,2E0,6E0,3.1E1,8E0,2.7E1,1.5E1,4E0,2E0,6E0,2.5E1,3E0,5E0,9E0,1.8E1,1.2E1,3E0,2E0,4E0,2.1E1,4E0,2E0,1E0,1E0,4E0,1E0,1E0,6E0,1.5E1],"tree_param":{"num_deleted":"0","num_feature":"1","num_nodes":"35","size_leaf_vector":"0"}},{"base_weights":[-8.096356E-2,1.5584821E-2,-1.8374112E-1,-5.6682732E-2,2.9692002E-2,-1.9285381E-1,-6.49787E-2,-9.3228035E-2,-3.2922927E-2,5.4706607E-2,-4.3657042E-2,-1.1469646E-1,-2.019371E-1,-3.8424186E-2,-1.2779851E-2,1.0264677E-2,6.0290042E-2,-1.1140215E-2,-5.8522932E-2,-2.235522E-1,-1.4737067E-1,-1.9744486E-3,1.381807E-2,6.456932E-2,1.6332418E-2,1.8544197E-3,-1.4852479E-2,-1.6126658E-1,-2.5240156E-1,4.0711284E-2,7.24721E-2,8.699818E-2,4.6665557E-2],"categories":[],"categories_nodes":[],"categories_segments":[],"categories_sizes":[],"default_left":[1,1,1,1,1,1,0,0,1,1,1,0,1,0,0,1,1,1,0,1,0,0,0,1,0,0,0,0,0,0,1,0,0],"id":12,"left_children":[1,3,5,7,9,11,-1,-1,13,15,17,-1,19,-1,-1,21,23,25,-1,27,-1,-1,-1,29,-1,-1,-1,-1,-1,-1,31,-1,-1],"loss_changes":[1.0050873E0,5.5716068E-2,4.0498614E-2,4.745446E-3,8.495421E-2,8.785129E-3,0E0,0E0,2.8463034E-4,7.8178495E-3,5.1487405E-3,0E0,1.3053894E-2,0E0,0E0,2.4473527E-4,4.588634E-3,2.6874035E-4,0E0,6.0153008E-3,0E0,0E0,0E0,2.1402836E-3,0E0,0E0,0E0,0E0,0E0,0E0,3.062673E-3,0E0,0E0],"parents":[2147483647,0,0,1,1,2,2,3,3,4,4,5,5,8,8,9,9,10,10,12,12,15,15,16,16,17,17,19,19,23,23,30,30],"right_children":[2,4,6,8,10,12,-1,-1,14,16,18,-1,20,-1,-1,22,24,26,-1,28,-1,-1,-1,30,-1,-1,-1,-1,-1,-1,32,-1,-1],"split_conditions":[3.2685256E0,4.7599888E-1,6.0610523E0,9.519978E-2,2.570394E0,3.649325E0,-9.746805E-3,-1.3984206E-2,3.4906584E-1,7.2986495E-1,2.82426E0,-1.720447E-2,5.2359877E0,-5.763628E-3,-1.9169778E-3,5.394654E-1,2.3799944E0,2.6338606E0,-8.77844E-3,4.28399E0,-2.21056E-2,-2.961673E-4,2.0727105E-3,1.2375971E0,2.4498627E-3,2.7816297E-4,-2.227872E-3,-2.4189988E-2,-3.7860237E-2,6.106693E-3,1.8722622E0,1.3049727E-2,6.999834E-3],"split_indices":[0,0,0,0,0,0,0,0,0,0,0,0,0,0,0,0,0,0,0,0,0,0,0,0,0,0,0,0,0,0,0,0,0],"split_type":[0,0,0,0,0,0,0,0,0,0,0,0,0,0,0,0,0,0,0,0,0,0,0,0,0,0,0,0,0,0,0,0,0],"sum_hessian":[1E2,5.2E1,4.8E1,8E0,4.4E1,4.4E1,4E0,2E0,6E0,3.3E1,1.1E1,6E0,3.8E1,4E0,2E0,4E0,2.9E1,4E0,7E0,2.5E1,1.3E1,1E0,3E0,2.6E1,3E0,1E0,3E0,1E1,1.5E1,8E0,1.8E1,1E1,8E0],"tree_param":{"num_deleted":"0","num_feature":"1","num_nodes":"33","size_leaf_vector":"0"}},{"base_weights":[-6.9939E-2,1.3209169E-2,-1.5844746E-1,-5.5207018E-2,2.482048E-2,-1.6849886E-1,-7.406775E-2,-8.3905235E-2,-3.165674E-2,4.4477854E-2,-4.176915E-2,-1.0863709E-1,-1.7907764E-1,5.2949837E-3,5.0626867E-2,-1.6423088E-2,-5.390646E-2,-1.9884266E-1,-1.3033354E-1,-5.761435E-3,1.2263551E-2,5.6646615E-2,1.6103476E-2,-1.3433112E-1,-2.1867076E-1,3.4955442E-3,1.4021039E-2,3.528313E-2,6.418133E-2,1.8638039E-2,1.7153323E-3,7.51348E-2,4.1097634E-2],"categories":[],"categories_nodes":[],"categories_segments":[],"categories_sizes":[],"default_left":[1,1,1,1,1,1,0,0,0,1,1,0,1,1,1,0,0,1,0,0,1,1,1,0,0,0,0,0,1,0,0,0,0],"id":13,"left_children":[1,3,5,7,9,11,-1,-1,-1,13,15,-1,17,19,21,-1,-1,23,-1,-1,25,27,29,-1,-1,-1,-1,-1,31,-1,-1,-1,-1],"loss_changes":[7.4538386E-1,4.3473553E-2,2.9078245E-2,2.7506407E-3,6.207075E-2,7.7757835E-3,0E0,0E0,0E0,8.405626E-3,2.498651E-3,0E0,7.8041553E-3,5.3294003E-4,5.530283E-3,0E0,0E0,4.595518E-5,0E0,0E0,1.26274535E-5,1.9206405E-3,1.868353E-4,0E0,0E0,0E0,0E0,0E0,1.463376E-3,0E0,0E0,0E0,0E0],"parents":[2147483647,0,0,1,1,2,2,3,3,4,4,5,5,9,9,10,10,12,12,13,13,14,14,17,17,20,20,21,21,22,22,28,28],"right_children":[2,4,6,8,10,12,-1,-1,-1,14,16,-1,18,20,22,-1,-1,24,-1,-1,26,28,30,-1,-1,-1,-1,-1,32,-1,-1,-1,-1],"split_conditions":[3.2685256E0,4.125324E-1,5.934119E0,9.519978E-2,2.6338606E0,3.7762578E0,-1.1110162E-2,-1.2585786E-2,-4.748511E-3,7.2986495E-1,2.8877265E0,-1.6295563E-2,5.1725216E0,5.394654E-1,2.3165278E0,-2.4634632E-3,-8.085969E-3,4.220524E0,-1.9550033E-2,-8.6421525E-4,6.029319E-1,1.2375971E0,2.570394E0,-2.0149669E-2,-3.2800615E-2,5.2433164E-4,2.103156E-3,5.2924696E-3,1.8722622E0,2.795706E-3,2.5729986E-4,1.127022E-2,6.1646453E-3],"split_indices":[0,0,0,0,0,0,0,0,0,0,0,0,0,0,0,0,0,0,0,0,0,0,0,0,0,0,0,0,0,0,0,0,0],"split_type":[0,0,0,0,0,0,0,0,0,0,0,0,0,0,0,0,0,0,0,0,0,0,0,0,0,0,0,0,0,0,0,0,0],"sum_hessian":[1E2,5.2E1,4.8E1,7E0,4.5E1,4.2E1,6E0,2E0,5E0,3.5E1,1E1,8E0,3.4E1,5E0,3E1,4E0,6E0,2.2E1,1.2E1,2E0,3E0,2.5E1,5E0,7E0,1.5E1,1E0,2E0,8E0,1.7E1,4E0,1E0,1E1,7E0],"tree_param":{"num_deleted":"0","num_feature":"1","num_nodes":"33","size_leaf_vector":"0"}},{"base_weights":[-6.0440693E-2,9.916157E-3,-1.3833296E-1,2.3158692E-2,-3.83626E-2,-1.4542083E-1,-4.8293117E-2,-4.0829785E-2,4.1297693E-2,-1.69675E-2,-5.1220886E-2,-1.5761445E-1,-1.1133889E-1,-7.551471E-2,-2.2719217E-2,4.5045175E-2,1.0553265E-2,-5.082816E-3,-1.8327873E-2,-1.16762996E-1,-1.9068171E-1,-3.001447E-2,-7.920347E-3,2.5271654E-2,5.3668354E-2,1.2398243E-2,1.5866756E-3,-9.630959E-3,-1.394257E-3,3.2333732E-3,2.7152145E-2,6.294369E-2,3.533809E-2],"categories":[],"categories_nodes":[],"categories_segments":[],"categories_sizes":[],"default_left":[1,1,1,1,1,1,0,1,1,1,0,1,0,0,1,1,1,0,0,0,0,0,1,1,1,0,0,0,0,0,0,0,0],"id":14,"left_children":[1,3,5,7,9,11,-1,13,15,17,-1,19,-1,-1,21,23,25,-1,-1,-1,-1,-1,27,29,31,-1,-1,-1,-1,-1,-1,-1,-1],"loss_changes":[5.548775E-1,3.5412416E-2,2.3610294E-2,5.1595718E-2,2.432162E-3,7.3701143E-4,0E0,4.5660026E-3,3.4419075E-3,3.8483413E-6,0E0,1.8260777E-2,0E0,0E0,6.2596705E-4,3.759034E-3,6.3043844E-5,0E0,0E0,0E0,0E0,0E0,3.1226344E-5,3.6807777E-4,1.1760779E-3,0E0,0E0,0E0,0E0,0E0,0E0,0E0,0E0],"parents":[2147483647,0,0,1,1,2,2,3,3,4,4,5,5,7,7,8,8,9,9,11,11,14,14,15,15,16,16,22,22,23,23,24,24],"right_children":[2,4,6,8,10,12,-1,14,16,18,-1,20,-1,-1,22,24,26,-1,-1,-1,-1,-1,28,30,32,-1,-1,-1,-1,-1,-1,-1,-1],"split_conditions":[3.3319921E0,2.6338606E0,6.0610523E0,5.394654E-1,2.951193E0,5.1725216E0,-7.243968E-3,9.519978E-2,2.3799944E0,2.6973271E0,-7.6831332E-3,4.28399E0,-1.6700834E-2,-1.1327207E-2,3.4906584E-1,1.1741306E0,2.570394E0,-7.624224E-4,-2.7491811E-3,-1.751445E-2,-2.8602257E-2,-4.5021707E-3,4.7599888E-1,6.029319E-1,1.8722622E0,1.8597365E-3,2.3800136E-4,-1.4446438E-3,-2.0913855E-4,4.85006E-4,4.072822E-3,9.441554E-3,5.3007137E-3],"split_indices":[0,0,0,0,0,0,0,0,0,0,0,0,0,0,0,0,0,0,0,0,0,0,0,0,0,0,0,0,0,0,0,0,0],"split_type":[0,0,0,0,0,0,0,0,0,0,0,0,0,0,0,0,0,0,0,0,0,0,0,0,0,0,0,0,0,0,0,0,0],"sum_hessian":[1E2,5.3E1,4.7E1,4.2E1,1.1E1,4.3E1,4E0,9E0,3.3E1,5E0,6E0,2.9E1,1.4E1,2E0,7E0,2.9E1,4E0,1E0,4E0,1.5E1,1.4E1,4E0,3E0,1E1,1.9E1,3E0,1E0,2E0,1E0,1E0,9E0,1.1E1,8E0],"tree_param":{"num_deleted":"0","num_feature":"1","num_nodes":"33","size_leaf_vector":"0"}},{"base_weights":[-5.2140348E-2,1.5839977E-2,-1.1160175E-1,-4.021744E-2,2.8056897E-2,-4.4635344E-2,-1.1904264E-1,-6.7963235E-2,-2.2581035E-2,3.7132937E-2,-7.330901E-3,-1.2503539E-1,-4.2497944E-2,-2.641273E-2,-8.667867E-3,1.3602834E-2,4.317725E-2,6.01694E-3,-1.5007645E-2,-1.3431159E-1,-9.2583574E-2,1.1341274E-3,1.7570049E-2,4.692917E-2,2.3474654E-2,7.0441365E-3,1.467675E-3,-6.6130557E-3,-1.7551675E-2,-9.843388E-2,-1.567479E-1,-1.2896806E-3,2.9908717E-3,2.786346E-2,5.310994E-2],"categories":[],"categories_nodes":[],"categories_segments":[],"categories_sizes":[],"default_left":[1,1,1,1,1,0,1,0,1,1,1,1,0,0,0,1,1,1,1,1,0,1,0,1,0,0,0,0,0,0,0,0,0,0,0],"id":15,"left_children":[1,3,5,7,9,-1,11,-1,13,15,17,19,-1,-1,-1,21,23,25,27,29,-1,31,-1,33,-1,-1,-1,-1,-1,-1,-1,-1,-1,-1,-1],"loss_changes":[4.1003045E-1,3.4001123E-2,2.1594107E-2,2.8693443E-3,1.3119463E-2,0E0,1.670456E-2,0E0,1.4423509E-4,3.963817E-3,1.0125117E-3,8.1026554E-4,0E0,0E0,0E0,3.7580146E-4,7.4641407E-4,8.353454E-6,1.2066332E-5,1.0329485E-2,0E0,1.7358443E-5,0E0,8.769892E-4,0E0,0E0,0E0,0E0,0E0,0E0,0E0,0E0,0E0,0E0,0E0],"parents":[2147483647,0,0,1,1,2,2,3,3,4,4,6,6,8,8,9,9,10,10,11,11,15,15,16,16,17,17,18,18,19,19,21,21,23,23],"right_children":[2,4,6,8,10,-1,12,-1,14,16,18,20,-1,-1,-1,22,24,26,28,30,-1,32,-1,34,-1,-1,-1,-1,-1,-1,-1,-1,-1,-1,-1],"split_conditions":[2.951193E0,4.7599888E-1,3.3319921E0,9.519978E-2,2.443461E0,-6.6953017E-3,6.0610523E0,-1.0194486E-2,3.4906584E-1,9.202645E-1,2.6338606E0,5.2994547E0,-6.374692E-3,-3.9619096E-3,-1.3001801E-3,6.029319E-1,2.1261284E0,2.570394E0,2.7607934E0,4.220524E0,-1.3887537E-2,5.394654E-1,2.6355074E-3,1.3010637E0,3.5211982E-3,1.0566205E-3,2.2015125E-4,-9.919584E-4,-2.6327514E-3,-1.4765083E-2,-2.3512186E-2,-1.934521E-4,4.4863077E-4,4.179519E-3,7.966491E-3],"split_indices":[0,0,0,0,0,0,0,0,0,0,0,0,0,0,0,0,0,0,0,0,0,0,0,0,0,0,0,0,0,0,0,0,0,0,0],"split_type":[0,0,0,0,0,0,0,0,0,0,0,0,0,0,0,0,0,0,0,0,0,0,0,0,0,0,0,0,0,0,0,0,0,0,0],"sum_hessian":[1E2,4.7E1,5.3E1,8E0,3.9E1,6E0,4.7E1,2E0,6E0,3.1E1,8E0,4.3E1,4E0,4E0,2E0,7E0,2.4E1,3E0,5E0,3.1E1,1.2E1,2E0,5E0,1.9E1,5E0,2E0,1E0,2E0,3E0,1.4E1,1.7E1,1E0,1E0,6E0,1.3E1],"tree_param":{"num_deleted":"0","num_feature":"1","num_nodes":"35","size_leaf_vector":"0"}},{"base_weights":[-4.495773E-2,1.3479669E-2,-9.606954E-2,-3.5902217E-2,2.4253601E-2,-4.9209025E-2,-1.0434811E-1,-6.1166912E-2,-1.9945603E-2,3.1544328E-2,-8.852353E-3,-1.2275869E-1,-7.519695E-2,-2.3243198E-2,-7.801076E-3,1.0080712E-2,3.5940662E-2,3.1149585E-3,-1.3360617E-2,-9.0180464E-2,-1.4839995E-1,-8.1604235E-2,-2.9166747E-2,1.0490617E-3,1.348356E-2,3.9750785E-2,1.9375911E-2,-5.951742E-3,-1.5577119E-2,-1.1929572E-3,2.7665496E-3,2.4349011E-2,4.571246E-2,5.329999E-2,2.6712418E-2],"categories":[],"categories_nodes":[],"categories_segments":[],"categories_sizes":[],"default_left":[1,1,1,1,1,0,1,0,1,1,1,1,1,0,0,1,1,0,1,0,0,0,0,1,0,1,0,0,0,0,0,0,1,0,0],"id":16,"left_children":[1,3,5,7,9,-1,11,-1,13,15,17,19,21,-1,-1,23,25,-1,27,-1,-1,-1,-1,29,-1,31,-1,-1,-1,-1,-1,-1,33,-1,-1],"loss_changes":[3.0296594E-1,2.640854E-2,1.5813738E-2,2.40824E-3,9.933906E-3,0E0,1.4919966E-2,0E0,9.9012395E-5,2.7516112E-3,4.7323224E-4,8.336216E-3,3.5184398E-3,0E0,0E0,2.0098826E-4,9.338595E-4,0E0,5.8197184E-6,0E0,0E0,0E0,0E0,1.4852294E-5,0E0,8.151755E-4,0E0,0E0,0E0,0E0,0E0,0E0,5.9451535E-4,0E0,0E0],"parents":[2147483647,0,0,1,1,2,2,3,3,4,4,6,6,8,8,9,9,10,10,11,11,12,12,15,15,16,16,18,18,23,23,25,25,32,32],"right_children":[2,4,6,8,10,-1,12,-1,14,16,18,20,22,-1,-1,24,26,-1,28,-1,-1,-1,-1,30,-1,32,-1,-1,-1,-1,-1,-1,34,-1,-1],"split_conditions":[2.951193E0,4.7599888E-1,3.5223918E0,9.519978E-2,2.5069275E0,-7.381354E-3,5.1090546E0,-9.175037E-3,3.4906584E-1,8.56798E-1,2.6338606E0,4.347457E0,6.1245193E0,-3.4864799E-3,-1.1701614E-3,6.029319E-1,2.1261284E0,4.672438E-4,2.7607934E0,-1.352707E-2,-2.2259993E-2,-1.2240636E-2,-4.375012E-3,5.394654E-1,2.0225341E-3,1.3010637E0,2.9063867E-3,-8.9276134E-4,-2.336568E-3,-1.7894358E-4,4.1498247E-4,3.652352E-3,1.8087958E0,7.994999E-3,4.0068626E-3],"split_indices":[0,0,0,0,0,0,0,0,0,0,0,0,0,0,0,0,0,0,0,0,0,0,0,0,0,0,0,0,0,0,0,0,0,0,0],"split_type":[0,0,0,0,0,0,0,0,0,0,0,0,0,0,0,0,0,0,0,0,0,0,0,0,0,0,0,0,0,0,0,0,0,0,0],"sum_hessian":[1E2,4.7E1,5.3E1,8E0,3.9E1,9E0,4.4E1,2E0,6E0,3.2E1,7E0,2.5E1,1.9E1,4E0,2E0,6E0,2.6E1,2E0,5E0,1.3E1,1.2E1,1.6E1,3E0,2E0,4E0,2E1,6E0,2E0,3E0,1E0,1E0,7E0,1.3E1,8E0,5E0],"tree_param":{"num_deleted":"0","num_feature":"1","num_nodes":"35","size_leaf_vector":"0"}},{"base_weights":[-3.876415E-2,6.0408995E-3,-8.836225E-2,-3.4953903E-2,1.28902085E-2,-9.545442E-2,-4.7023445E-2,-5.505022E-2,-1.9080095E-2,2.5144327E-2,-2.4946332E-2,-6.6457555E-2,-1.0290479E-1,-5.0708614E-2,-8.77104E-3,2.4089862E-3,2.873361E-2,-9.908718E-3,-3.122655E-2,-1.1659952E-1,-7.264605E-2,-3.6864579E-3,6.378323E-3,3.1718317E-2,6.869459E-3,2.0815838E-2,3.6013123E-2,8.024842E-3,1.1239648E-3,4.6193317E-2,2.3249637E-2],"categories":[],"categories_nodes":[],"categories_segments":[],"categories_sizes":[],"default_left":[1,1,1,1,1,1,1,0,0,1,1,0,1,0,0,1,1,0,0,0,0,0,0,1,1,0,1,0,0,0,0],"id":17,"left_children":[1,3,5,7,9,11,13,-1,-1,15,17,-1,19,-1,-1,21,23,-1,-1,-1,-1,-1,-1,25,27,-1,29,-1,-1,-1,-1],"loss_changes":[2.2498053E-1,1.5613012E-2,9.584129E-3,1.5016776E-3,2.2418972E-2,1.8026829E-3,8.2393177E-4,0E0,0E0,2.868507E-3,8.2385866E-4,0E0,3.9610863E-3,0E0,0E0,1.6868264E-4,1.8051136E-3,0E0,0E0,0E0,0E0,8.478928E-7,0E0,5.14606E-4,2.4171575E-5,0E0,1.264846E-3,0E0,0E0,0E0,0E0],"parents":[2147483647,0,0,1,1,2,2,3,3,4,4,5,5,6,6,9,9,10,10,12,12,15,15,16,16,23,23,24,24,26,26],"right_children":[2,4,6,8,10,12,14,-1,-1,16,18,-1,20,-1,-1,22,24,-1,-1,-1,-1,-1,-1,26,28,-1,30,-1,-1,-1,-1],"split_conditions":[3.3319921E0,4.125324E-1,5.807186E0,9.519978E-2,2.6338606E0,3.9666574E0,6.2514524E0,-8.257533E-3,-2.8620143E-3,7.2986495E-1,2.8877265E0,-9.968634E-3,5.1090546E0,-7.6062926E-3,-1.315656E-3,5.394654E-1,2.3799944E0,-1.4863078E-3,-4.6839826E-3,-1.7489929E-2,-1.0896908E-2,-5.529687E-4,9.5674844E-4,1.3010637E0,2.570394E0,3.1223758E-3,1.8087958E0,1.2037263E-3,1.6859472E-4,6.9289976E-3,3.4874456E-3],"split_indices":[0,0,0,0,0,0,0,0,0,0,0,0,0,0,0,0,0,0,0,0,0,0,0,0,0,0,0,0,0,0,0],"split_type":[0,0,0,0,0,0,0,0,0,0,0,0,0,0,0,0,0,0,0,0,0,0,0,0,0,0,0,0,0,0,0],"sum_hessian":[1E2,5.3E1,4.7E1,7E0,4.6E1,3.9E1,8E0,2E0,5E0,3.5E1,1.1E1,1E1,2.9E1,7E0,1E0,5E0,3E1,4E0,7E0,1.8E1,1.1E1,2E0,3E0,2.6E1,4E0,9E0,1.7E1,3E0,1E0,8E0,9E0],"tree_param":{"num_deleted":"0","num_feature":"1","num_nodes":"31","size_leaf_vector":"0"}},{"base_weights":[-3.3437178E-2,9.072391E-3,-7.210759E-2,-2.8567279E-2,1.711348E-2,-2.8207505E-2,-7.6092854E-2,-4.95452E-2,-1.5495703E-2,2.3817955E-2,-9.371089E-3,-8.108308E-2,-3.5281114E-2,-1.81644E-2,-5.882641E-3,7.668116E-3,2.7122803E-2,-1.2118102E-3,-1.5656149E-2,-5.201496E-2,-8.541056E-2,-3.8456894E-2,-8.113212E-3,8.357863E-4,1.0233891E-2,3.002285E-2,1.4547969E-2,2.346019E-3,-4.3657026E-3,-9.698489E-2,-6.351246E-2,-8.2699955E-4,2.080679E-3,1.8421128E-2,3.450792E-2,1.5592734E-2,4.1396916E-3,-6.850631E-2,-1.1664667E-1,4.003422E-2,2.0467142E-2],"categories":[],"categories_nodes":[],"categories_segments":[],"categories_sizes":[],"default_left":[1,1,1,1,1,0,1,0,1,1,1,1,1,0,0,1,1,1,0,0,1,0,0,1,0,1,1,0,0,1,0,0,0,0,1,0,0,0,0,0,0],"id":18,"left_children":[1,3,5,7,9,-1,11,-1,13,15,17,19,21,-1,-1,23,25,27,-1,-1,29,-1,-1,31,-1,33,35,-1,-1,37,-1,-1,-1,-1,39,-1,-1,-1,-1,-1,-1],"loss_changes":[1.666843E-1,1.5319418E-2,7.1261525E-3,1.7001927E-3,7.503368E-3,0E0,6.915003E-3,0E0,7.27257E-5,1.5533213E-3,4.425618E-4,8.406043E-4,2.919454E-4,0E0,0E0,1.14158145E-4,5.4785423E-4,6.634707E-5,0E0,0E0,2.7112067E-3,0E0,0E0,7.93069E-6,0E0,4.5704842E-4,1.157017E-5,0E0,0E0,3.767699E-3,0E0,0E0,0E0,0E0,2.669245E-4,0E0,0E0,0E0,0E0,0E0,0E0],"parents":[2147483647,0,0,1,1,2,2,3,3,4,4,6,6,8,8,9,9,10,10,11,11,12,12,15,15,16,16,17,17,20,20,23,23,25,25,26,26,29,29,34,34],"right_children":[2,4,6,8,10,-1,12,-1,14,16,18,20,22,-1,-1,24,26,28,-1,-1,30,-1,-1,32,-1,34,36,-1,-1,38,-1,-1,-1,-1,40,-1,-1,-1,-1,-1,-1],"split_conditions":[3.0146596E0,4.7599888E-1,3.3319921E0,9.519978E-2,2.5069275E0,-4.231126E-3,5.934119E0,-7.43178E-3,3.4906584E-1,8.56798E-1,2.7607934E0,3.7762578E0,6.2514524E0,-2.72466E-3,-8.823962E-4,6.029319E-1,2.1261284E0,2.6338606E0,-2.3484225E-3,-7.8022447E-3,5.0455885E0,-5.7685343E-3,-1.2169818E-3,5.394654E-1,1.5350837E-3,1.3010637E0,2.443461E0,3.5190285E-4,-6.548554E-4,4.410923E0,-9.526869E-3,-1.2404994E-4,3.1210185E-4,2.7631694E-3,1.8087958E0,2.3389102E-3,6.2095374E-4,-1.0275947E-2,-1.7497001E-2,6.005133E-3,3.0700713E-3],"split_indices":[0,0,0,0,0,0,0,0,0,0,0,0,0,0,0,0,0,0,0,0,0,0,0,0,0,0,0,0,0,0,0,0,0,0,0,0,0,0,0,0,0],"split_type":[0,0,0,0,0,0,0,0,0,0,0,0,0,0,0,0,0,0,0,0,0,0,0,0,0,0,0,0,0,0,0,0,0,0,0,0,0,0,0,0,0],"sum_hessian":[1E2,4.8E1,5.2E1,8E0,4E1,5E0,4.7E1,2E0,6E0,3.2E1,8E0,4.1E1,6E0,4E0,2E0,6E0,2.6E1,4E0,4E0,7E0,3.4E1,5E0,1E0,2E0,4E0,2E1,6E0,2E0,2E0,2E1,1.4E1,1E0,1E0,7E0,1.3E1,5E0,1E0,1E1,1E1,8E0,5E0],"tree_param":{"num_deleted":"0","num_feature":"1","num_nodes":"41","size_leaf_vector":"0"}},{"base_weights":[-2.8951176E-2,8.520561E-3,-6.172325E-2,-2.5508728E-2,1.5964137E-2,-2.7756313E-2,-6.61916E-2,-4.4590678E-2,-1.3686647E-2,2.115491E-2,-4.2657424E-3,-7.356934E-2,-4.1236788E-2,-1.5984675E-2,-5.2943826E-3,7.829469E-3,2.4572857E-2,3.4981668E-3,-8.730724E-3,-5.5434298E-2,-8.43989E-2,-4.5066275E-2,-1.3449735E-2,7.7310205E-4,1.0052741E-2,2.8057024E-2,1.6540904E-2,4.088422E-3,8.637011E-4,-9.898644E-2,-5.55712E-2,-7.649809E-4,1.924634E-3,1.6781248E-2,3.496249E-2],"categories":[],"categories_nodes":[],"categories_segments":[],"categories_sizes":[],"default_left":[1,1,1,1,1,0,1,0,1,1,1,1,1,0,0,1,1,1,0,0,1,0,0,1,0,1,0,0,0,0,0,0,0,0,0],"id":19,"left_children":[1,3,5,7,9,-1,11,-1,13,15,17,19,21,-1,-1,23,25,27,-1,-1,29,-1,-1,31,-1,33,-1,-1,-1,-1,-1,-1,-1,-1,-1],"loss_changes":[1.245566E-1,1.2565606E-2,6.358668E-3,1.4199982E-3,4.290591E-3,0E0,5.6194216E-3,0E0,5.0370698E-5,1.2650685E-3,3.42533E-4,2.1952093E-3,7.772017E-4,0E0,0E0,1.1773396E-4,2.3552775E-4,2.688852E-6,9.888026E-7,0E0,2.909705E-3,0E0,0E0,6.785763E-6,0E0,6.591184E-4,0E0,0E0,0E0,0E0,0E0,0E0,0E0,0E0,0E0],"parents":[2147483647,0,0,1,1,2,2,3,3,4,4,6,6,8,8,9,9,10,10,11,11,12,12,15,15,16,16,17,17,20,20,23,23,25,25],"right_children":[2,4,6,8,10,-1,12,-1,14,16,18,20,22,-1,-1,24,26,28,-1,-1,30,-1,-1,32,-1,34,-1,-1,-1,-1,-1,-1,-1,-1,-1],"split_conditions":[2.951193E0,4.7599888E-1,3.3954587E0,9.519978E-2,2.443461E0,-4.1634473E-3,5.55332E0,-6.688602E-3,3.4906584E-1,9.202645E-1,2.6338606E0,4.347457E0,6.1879854E0,-2.3977014E-3,-7.9415744E-4,6.029319E-1,1.8722622E0,2.570394E0,-1.3096087E-3,-8.315145E-3,5.0455885E0,-6.7599416E-3,-2.0174603E-3,5.394654E-1,1.5079111E-3,1.3645301E0,2.4811355E-3,6.132633E-4,1.2955518E-4,-1.4847967E-2,-8.33568E-3,-1.1474714E-4,2.886951E-4,2.5171873E-3,5.244374E-3],"split_indices":[0,0,0,0,0,0,0,0,0,0,0,0,0,0,0,0,0,0,0,0,0,0,0,0,0,0,0,0,0,0,0,0,0,0,0],"split_type":[0,0,0,0,0,0,0,0,0,0,0,0,0,0,0,0,0,0,0,0,0,0,0,0,0,0,0,0,0,0,0,0,0,0,0],"sum_hessian":[1E2,4.7E1,5.3E1,8E0,3.9E1,7E0,4.6E1,2E0,6E0,3.1E1,8E0,3.4E1,1.2E1,4E0,2E0,7E0,2.4E1,3E0,5E0,1.5E1,1.9E1,1E1,2E0,2E0,5E0,1.5E1,9E0,2E0,1E0,1.1E1,8E0,1E0,1E0,7E0,8E0],"tree_param":{"num_deleted":"0","num_feature":"1","num_nodes":"35","size_leaf_vector":"0"}},{"base_weights":[-2.5033867E-2,7.2732484E-3,-5.3287715E-2,-2.2780241E-2,1.3853452E-2,-2.976162E-2,-5.8613885E-2,-4.013161E-2,-1.208962E-2,1.8011607E-2,-5.030617E-3,-7.015634E-2,-4.183224E-2,-1.4066508E-2,-4.7649345E-3,2.9081882E-3,1.9994555E-2,1.8637975E-3,-7.639388E-3,-5.098727E-2,-8.507648E-2,-4.5481175E-2,-1.58662E-2,-7.0761144E-4,3.989041E-3,2.1451466E-2,8.7110875E-3,-3.0560691E-3,-9.16703E-3,1.42737245E-2,2.5285045E-2,3.2969933E-2,1.649846E-2],"categories":[],"categories_nodes":[],"categories_segments":[],"categories_sizes":[],"default_left":[1,1,1,1,1,0,1,0,1,1,1,1,1,0,0,1,1,0,1,0,0,0,0,0,0,1,0,0,0,0,1,0,0],"id":20,"left_children":[1,3,5,7,9,-1,11,-1,13,15,17,19,21,-1,-1,23,25,-1,27,-1,-1,-1,-1,-1,-1,29,-1,-1,-1,-1,31,-1,-1],"loss_changes":[9.25804E-2,9.807974E-3,5.0219595E-3,1.1842968E-3,3.231524E-3,0E0,5.3943694E-3,0E0,3.4334487E-5,9.30178E-4,1.5812591E-4,2.5263056E-3,1.1733584E-3,0E0,0E0,2.2363423E-5,2.898667E-4,0E0,1.3994897E-5,0E0,0E0,0E0,0E0,0E0,0E0,3.2699946E-4,0E0,0E0,0E0,0E0,4.6890602E-4,0E0,0E0],"parents":[2147483647,0,0,1,1,2,2,3,3,4,4,6,6,8,8,9,9,10,10,11,11,12,12,15,15,16,16,18,18,25,25,30,30],"right_children":[2,4,6,8,10,-1,12,-1,14,16,18,20,22,-1,-1,24,26,-1,28,-1,-1,-1,-1,-1,-1,30,-1,-1,-1,-1,32,-1,-1],"split_conditions":[2.951193E0,4.7599888E-1,3.649325E0,9.519978E-2,2.5069275E0,-4.464243E-3,5.1090546E0,-6.0197418E-3,3.4906584E-1,7.2986495E-1,2.6338606E0,4.410923E0,6.1245193E0,-2.1099763E-3,-7.147402E-4,5.394654E-1,2.2530613E0,2.7956965E-4,2.7607934E0,-7.648091E-3,-1.2761473E-2,-6.8221767E-3,-2.37993E-3,-1.0614172E-4,5.983561E-4,1.3645301E0,1.3066632E-3,-4.584104E-4,-1.3750546E-3,2.1410587E-3,1.7453293E0,4.94549E-3,2.474769E-3],"split_indices":[0,0,0,0,0,0,0,0,0,0,0,0,0,0,0,0,0,0,0,0,0,0,0,0,0,0,0,0,0,0,0,0,0],"split_type":[0,0,0,0,0,0,0,0,0,0,0,0,0,0,0,0,0,0,0,0,0,0,0,0,0,0,0,0,0,0,0,0,0],"sum_hessian":[1E2,4.7E1,5.3E1,8E0,3.9E1,1.1E1,4.2E1,2E0,6E0,3.2E1,7E0,2.3E1,1.9E1,4E0,2E0,4E0,2.8E1,2E0,5E0,1.2E1,1.1E1,1.6E1,3E0,1E0,3E0,2.4E1,4E0,2E0,3E0,1E1,1.4E1,6E0,8E0],"tree_param":{"num_deleted":"0","num_feature":"1","num_nodes":"33","size_leaf_vector":"0"}},{"base_weights":[-2.160665E-2,3.2054954E-3,-4.9070176E-2,-2.685119E-2,6.820488E-3,-5.4429553E-2,-3.0454192E-2,-4.2944815E-2,-1.5043502E-2,1.31476745E-2,-1.3783979E-2,-4.1016396E-2,-6.310926E-2,-3.2107703E-2,-5.306026E-3,-1.1442713E-3,1.64118E-2,-3.9996654E-3,-1.660101E-2,-7.586197E-2,-4.277035E-2,-4.663044E-3,3.5402626E-3,1.837691E-2,5.161027E-3,-5.5015385E-3,-6.545335E-4,1.1874837E-2,2.1120664E-2,5.929577E-3,6.5913796E-4,2.6527822E-2,1.3366765E-2],"categories":[],"categories_nodes":[],"categories_segments":[],"categories_sizes":[],"default_left":[1,1,1,1,1,1,1,0,0,1,1,0,1,0,0,1,1,0,0,0,0,1,0,1,1,0,0,0,1,0,0,0,0],"id":21,"left_children":[1,3,5,7,9,11,13,-1,-1,15,17,-1,19,-1,-1,21,23,-1,-1,-1,-1,25,-1,27,29,-1,-1,-1,31,-1,-1,-1,-1],"loss_changes":[6.8981625E-2,6.050491E-3,3.1313524E-3,4.941304E-4,6.5692747E-3,1.6026869E-3,3.7021283E-4,0E0,0E0,1.7915065E-3,2.6435405E-4,0E0,1.9428805E-3,0E0,0E0,1.4837888E-4,5.905349E-4,0E0,0E0,0E0,0E0,1.3204633E-5,0E0,2.1303818E-4,1.6851161E-5,0E0,0E0,0E0,3.5816012E-4,0E0,0E0,0E0,0E0],"parents":[2147483647,0,0,1,1,2,2,3,3,4,4,5,5,6,6,9,9,10,10,12,12,15,15,16,16,21,21,23,23,24,24,28,28],"right_children":[2,4,6,8,10,12,14,-1,-1,16,18,-1,20,-1,-1,22,24,-1,-1,-1,-1,26,-1,28,30,-1,-1,-1,32,-1,-1,-1,-1],"split_conditions":[3.3319921E0,2.8559935E-1,5.55332E0,3.173326E-2,2.6338606E0,4.347457E0,6.2514524E0,-6.4417226E-3,-2.2565254E-3,7.2986495E-1,2.82426E0,-6.15246E-3,4.9821215E0,-4.816156E-3,-7.959039E-4,5.394654E-1,2.3165278E0,-5.9994985E-4,-2.4901514E-3,-1.1379296E-2,-6.4155525E-3,4.7599888E-1,5.3103943E-4,1.3010637E0,2.570394E0,-8.252308E-4,-9.818003E-5,1.7812256E-3,1.8087958E0,8.8943663E-4,9.8870696E-5,3.9791735E-3,2.0050148E-3],"split_indices":[0,0,0,0,0,0,0,0,0,0,0,0,0,0,0,0,0,0,0,0,0,0,0,0,0,0,0,0,0,0,0,0,0],"split_type":[0,0,0,0,0,0,0,0,0,0,0,0,0,0,0,0,0,0,0,0,0,0,0,0,0,0,0,0,0,0,0,0,0],"sum_hessian":[1E2,5.3E1,4.7E1,5E0,4.8E1,3.5E1,1.2E1,1E0,4E0,3.7E1,1.1E1,1.6E1,1.9E1,1.1E1,1E0,7E0,3E1,3E0,8E0,1E1,9E0,4E0,3E0,2.5E1,5E0,3E0,1E0,9E0,1.6E1,4E0,1E0,8E0,8E0],"tree_param":{"num_deleted":"0","num_feature":"1","num_nodes":"33","size_leaf_vector":"0"}},{"base_weights":[-1.869225E-2,2.6612098E-3,-4.232547E-2,-2.427322E-2,5.904993E-3,-4.5810975E-2,-2.2131518E-2,-3.9723955E-2,-1.3238283E-2,1.13955615E-2,-1.1973891E-2,-3.3190235E-2,-5.0658356E-2,-2.3670938E-2,-4.908074E-3,-2.108987E-3,1.3993571E-2,-3.5497025E-3,-1.4387542E-2,-6.1061773E-2,-3.6636487E-2,-6.2607974E-3,-2.52637E-2,-4.882619E-3,1.1918917E-3,1.5380972E-2,3.4254075E-3,-6.054491E-4,1.9928217E-3,1.0181646E-2,1.8146321E-2,3.9769113E-3,6.096959E-4,2.5320223E-2,1.1931446E-2],"categories":[],"categories_nodes":[],"categories_segments":[],"categories_sizes":[],"default_left":[1,1,1,1,1,1,1,0,0,1,1,0,1,1,0,1,1,0,0,0,0,0,0,0,1,1,1,0,0,0,1,0,0,0,0],"id":22,"left_children":[1,3,5,7,9,11,13,-1,-1,15,17,-1,19,21,-1,23,25,-1,-1,-1,-1,-1,-1,-1,27,29,31,-1,-1,-1,33,-1,-1,-1,-1],"loss_changes":[5.1082395E-2,4.8612836E-3,2.3646578E-3,4.971104E-4,4.946546E-3,7.657409E-4,1.2244843E-4,0E0,0E0,1.3627396E-3,1.9292522E-4,0E0,1.7015487E-3,6.36708E-5,0E0,6.99075E-5,4.1650748E-4,0E0,0E0,0E0,0E0,0E0,0E0,0E0,6.9647276E-6,2.1782331E-4,5.339669E-6,0E0,0E0,0E0,4.5583677E-4,0E0,0E0,0E0,0E0],"parents":[2147483647,0,0,1,1,2,2,3,3,4,4,5,5,6,6,9,9,10,10,12,12,13,13,15,15,16,16,24,24,25,25,26,26,30,30],"right_children":[2,4,6,8,10,12,14,-1,-1,16,18,-1,20,22,-1,24,26,-1,-1,-1,-1,-1,-1,-1,28,30,32,-1,-1,-1,34,-1,-1,-1,-1],"split_conditions":[3.3319921E0,2.8559935E-1,5.807186E0,3.173326E-2,2.6338606E0,4.157057E0,6.2514524E0,-5.9585935E-3,-1.9857425E-3,6.663984E-1,2.82426E0,-4.9785357E-3,4.9821215E0,5.870653E0,-7.3621114E-4,4.7599888E-1,2.3799944E0,-5.324554E-4,-2.1581315E-3,-9.159266E-3,-5.4954733E-3,-9.3911967E-4,-3.7895553E-3,-7.3239283E-4,5.394654E-1,1.3645301E0,2.570394E0,-9.081737E-5,2.9892326E-4,1.5272469E-3,1.7453293E0,5.9653673E-4,9.145439E-5,3.7980336E-3,1.789717E-3],"split_indices":[0,0,0,0,0,0,0,0,0,0,0,0,0,0,0,0,0,0,0,0,0,0,0,0,0,0,0,0,0,0,0,0,0,0,0],"split_type":[0,0,0,0,0,0,0,0,0,0,0,0,0,0,0,0,0,0,0,0,0,0,0,0,0,0,0,0,0,0,0,0,0,0,0],"sum_hessian":[1E2,5.3E1,4.7E1,5E0,4.8E1,3.9E1,8E0,1E0,4E0,3.7E1,1.1E1,1.3E1,2.6E1,7E0,1E0,6E0,3.1E1,3E0,8E0,1.3E1,1.3E1,1E0,6E0,3E0,3E0,2.7E1,4E0,1E0,2E0,1.1E1,1.6E1,3E0,1E0,6E0,1E1],"tree_param":{"num_deleted":"0","num_feature":"1","num_nodes":"35","size_leaf_vector":"0"}},{"base_weights":[-1.6170133E-2,4.0919045E-3,-3.4597863E-2,-1.9903E-2,7.902891E-3,-1.9043088E-2,-3.777239E-2,-3.6744658E-2,-1.0971948E-2,1.0845229E-2,-4.4176313E-3,-2.0277234E-2,-3.3508092E-3,-4.3545485E-2,-2.4092915E-2,-6.1035156E-5,1.3103802E-2,-5.2610633E-4,-7.42563E-3,-3.1964276E-2,-4.98402E-2,-2.6984354E-2,-9.395367E-3,-2.7175397E-3,2.6107281E-3,1.4379144E-2,7.0414203E-3,1.1186799E-3,-1.9955237E-3,-5.9243668E-2,-3.1855844E-2,-3.2500227E-3,-5.6004524E-4,9.119793E-3,1.7723275E-2,2.2064788E-2,1.0849868E-2],"categories":[],"categories_nodes":[],"categories_segments":[],"categories_sizes":[],"default_left":[1,1,1,1,1,1,1,0,0,1,1,0,0,1,1,1,1,1,0,0,1,0,0,1,0,1,0,0,0,0,0,0,0,0,1,0,0],"id":23,"left_children":[1,3,5,7,9,11,13,-1,-1,15,17,-1,-1,19,21,23,25,27,-1,-1,29,-1,-1,31,-1,33,-1,-1,-1,-1,-1,-1,-1,-1,35,-1,-1],"loss_changes":[3.7853293E-2,4.63806E-3,1.8977821E-3,6.497358E-4,1.6067091E-3,1.4508748E-4,2.3466982E-3,0E0,0E0,8.629407E-4,1.0144466E-4,0E0,0E0,5.210079E-4,3.839275E-4,5.6777615E-5,1.2296718E-4,1.4316738E-5,0E0,0E0,9.877011E-4,0E0,0E0,2.775154E-6,0E0,2.4289032E-4,3.1956006E-8,0E0,0E0,0E0,0E0,0E0,0E0,0E0,1.4853291E-4,0E0,0E0],"parents":[2147483647,0,0,1,1,2,2,3,3,4,4,5,5,6,6,9,9,10,10,13,13,14,14,15,15,16,16,17,17,20,20,23,23,25,25,34,34],"right_children":[2,4,6,8,10,12,14,-1,-1,16,18,-1,-1,20,22,24,26,28,-1,-1,30,-1,-1,32,-1,34,-1,-1,-1,-1,-1,-1,-1,-1,36,-1,-1],"split_conditions":[3.0146596E0,3.4906584E-1,3.649325E0,3.173326E-2,2.5069275E0,3.5858583E0,5.4263873E0,-5.511699E-3,-1.6457922E-3,7.2986495E-1,2.7607934E0,-3.0415852E-3,-5.026214E-4,4.410923E0,6.1245193E0,5.394654E-1,2.1261284E0,2.6338606E0,-1.1138446E-3,-4.7946414E-3,4.9821215E0,-4.047653E-3,-1.409305E-3,4.7599888E-1,3.9160924E-4,1.3645301E0,1.056213E-3,1.6780199E-4,-2.9932856E-4,-8.886551E-3,-4.778377E-3,-4.8750342E-4,-8.400679E-5,1.367969E-3,1.7453293E0,3.3097183E-3,1.6274803E-3],"split_indices":[0,0,0,0,0,0,0,0,0,0,0,0,0,0,0,0,0,0,0,0,0,0,0,0,0,0,0,0,0,0,0,0,0,0,0,0,0],"split_type":[0,0,0,0,0,0,0,0,0,0,0,0,0,0,0,0,0,0,0,0,0,0,0,0,0,0,0,0,0,0,0,0,0,0,0,0,0],"sum_hessian":[1E2,4.8E1,5.2E1,6E0,4.2E1,1E1,4.2E1,1E0,5E0,3.4E1,8E0,9E0,1E0,2.8E1,1.4E1,6E0,2.8E1,4E0,4E0,1.2E1,1.6E1,1.1E1,3E0,3E0,3E0,2.2E1,6E0,2E0,2E0,9E0,7E0,2E0,1E0,1E1,1.2E1,6E0,6E0],"tree_param":{"num_deleted":"0","num_feature":"1","num_nodes":"37","size_leaf_vector":"0"}},{"base_weights":[-1.4028592E-2,1.9019373E-3,-3.1658176E-2,-2.2605415E-2,4.314634E-3,-3.386421E-2,-1.3899368E-2,-3.3988807E-2,-1.1262367E-2,8.212667E-3,-8.713528E-3,-2.6283065E-2,-3.7968066E-2,-1.4937491E-2,-3.8353158E-3,-2.220869E-3,1.05644055E-2,-4.026731E-3,-1.1485992E-2,-5.124575E-2,-2.7296511E-2,-4.26566E-3,8.9033693E-4,1.1937777E-2,3.9541125E-3,-1.0887831E-3,-4.396564E-3,-5.1803887E-4,1.5324751E-3,7.6090447E-3,1.460491E-2,5.365491E-3,1.554206E-3,1.922788E-2,9.386499E-3],"categories":[],"categories_nodes":[],"categories_segments":[],"categories_sizes":[],"default_left":[1,1,1,1,1,1,1,0,0,1,1,0,1,0,0,1,1,1,0,0,0,0,1,1,1,0,0,0,0,0,1,0,0,0,0],"id":24,"left_children":[1,3,5,7,9,11,13,-1,-1,15,17,-1,19,-1,-1,21,23,25,-1,-1,-1,-1,27,29,31,-1,-1,-1,-1,-1,33,-1,-1,-1,-1],"loss_changes":[2.8425923E-2,3.29049E-3,1.4097802E-3,2.6281737E-4,2.610772E-3,3.087893E-4,1.5844009E-5,0E0,0E0,9.80403E-4,1.0967668E-4,0E0,2.143506E-3,0E0,0E0,5.4692002E-5,2.43305E-4,1.732391E-6,0E0,0E0,0E0,0E0,4.4113694E-6,1.8904847E-4,1.5371166E-5,0E0,0E0,0E0,0E0,0E0,1.8138578E-4,0E0,9.53878E-9,0E0,0E0],"parents":[2147483647,0,0,1,1,2,2,3,3,4,4,5,5,6,6,9,9,10,10,12,12,15,15,16,16,17,17,22,22,23,23,24,24,30,30],"right_children":[2,4,6,8,10,12,14,-1,-1,16,18,-1,20,-1,-1,22,24,26,-1,-1,-1,-1,28,30,32,-1,-1,-1,-1,-1,34,-1,-1,-1,-1],"split_conditions":[3.3319921E0,2.2213282E-1,5.934119E0,3.173326E-2,2.6338606E0,4.410923E0,6.2514524E0,-5.0983215E-3,-1.689355E-3,6.663984E-1,2.951193E0,-3.94246E-3,4.9821215E0,-2.2406238E-3,-5.752974E-4,4.7599888E-1,2.2530613E0,2.6973271E0,-1.7228989E-3,-7.6868627E-3,-4.094477E-3,-6.39849E-4,5.394654E-1,1.3645301E0,2.443461E0,-1.6331748E-4,-6.594846E-4,-7.770583E-5,2.2987128E-4,1.1413568E-3,1.7453293E0,8.0482365E-4,2.3313091E-4,2.884182E-3,1.407975E-3],"split_indices":[0,0,0,0,0,0,0,0,0,0,0,0,0,0,0,0,0,0,0,0,0,0,0,0,0,0,0,0,0,0,0,0,0,0,0],"split_type":[0,0,0,0,0,0,0,0,0,0,0,0,0,0,0,0,0,0,0,0,0,0,0,0,0,0,0,0,0,0,0,0,0,0,0],"sum_hessian":[1E2,5.3E1,4.7E1,4E0,4.9E1,4.1E1,6E0,1E0,3E0,3.8E1,1.1E1,1.7E1,2.4E1,5E0,1E0,7E0,3.1E1,5E0,6E0,9E0,1.5E1,4E0,3E0,2.5E1,6E0,1E0,4E0,1E0,2E0,1.1E1,1.4E1,3E0,3E0,6E0,8E0],"tree_param":{"num_deleted":"0","num_feature":"1","num_nodes":"35","size_leaf_vector":"0"}},{"base_weights":[-1.2141033E-2,1.5546109E-3,-2.7295696E-2,-2.0572137E-2,3.7361935E-3,-2.8765092E-2,-8.9058755E-3,-3.1439647E-2,-9.995349E-3,7.1341875E-3,-7.618637E-3,-1.7757483E-2,-3.036768E-2,-1.3400349E-3,9.364311E-3,-3.5598502E-3,-1.000922E-2,-3.529859E-2,-2.2490222E-2,-3.2878767E-3,1.9167364E-3,1.0629148E-2,3.5092745E-3,-1.5216967E-3,-4.1985027E-3,-2.4217198E-2,-4.5066398E-2,-3.7537753E-3,-4.7919154E-4,6.83856E-3,1.2700303E-2,4.402137E-3,8.514126E-4,1.67557E-2,8.134961E-3],"categories":[],"categories_nodes":[],"categories_segments":[],"categories_sizes":[],"default_left":[1,1,1,1,1,1,0,0,0,1,1,0,1,1,1,1,0,1,0,1,0,1,1,0,0,0,0,0,0,0,1,0,0,0,0],"id":25,"left_children":[1,3,5,7,9,11,-1,-1,-1,13,15,-1,17,19,21,23,-1,25,-1,27,-1,29,31,-1,-1,-1,-1,-1,-1,-1,33,-1,-1,-1,-1],"loss_changes":[2.1005275E-2,2.6835133E-3,1.0408685E-3,2.6046648E-4,1.9835352E-3,2.3693591E-4,0E0,0E0,0E0,7.495922E-4,8.080306E-5,0E0,6.433204E-4,6.339507E-5,1.9227504E-4,1.421191E-6,0E0,1.181677E-3,0E0,6.0526E-6,0E0,1.0942062E-4,1.2863697E-5,0E0,0E0,0E0,0E0,0E0,0E0,0E0,1.4140713E-4,0E0,0E0,0E0,0E0],"parents":[2147483647,0,0,1,1,2,2,3,3,4,4,5,5,9,9,10,10,12,12,13,13,14,14,15,15,17,17,19,19,21,21,22,22,30,30],"right_children":[2,4,6,8,10,12,-1,-1,-1,14,16,-1,18,20,22,24,-1,26,-1,28,-1,30,32,-1,-1,-1,-1,-1,-1,-1,34,-1,-1,-1,-1],"split_conditions":[3.3319921E0,2.2213282E-1,6.0610523E0,3.173326E-2,2.6338606E0,3.7762578E0,-1.3358814E-3,-4.7159474E-3,-1.4993023E-3,7.2986495E-1,2.951193E0,-2.6636226E-3,5.0455885E0,5.394654E-1,2.2530613E0,2.7607934E0,-1.501383E-3,4.474389E0,-3.3735335E-3,4.7599888E-1,2.8751045E-4,1.3645301E0,2.5069275E0,-2.2825452E-4,-6.2977546E-4,-3.6325797E-3,-6.7599597E-3,-5.6306634E-4,-7.1878734E-5,1.0257841E-3,1.7453293E0,6.6032057E-4,1.277119E-4,2.513355E-3,1.2202442E-3],"split_indices":[0,0,0,0,0,0,0,0,0,0,0,0,0,0,0,0,0,0,0,0,0,0,0,0,0,0,0,0,0,0,0,0,0,0,0],"split_type":[0,0,0,0,0,0,0,0,0,0,0,0,0,0,0,0,0,0,0,0,0,0,0,0,0,0,0,0,0,0,0,0,0,0,0],"sum_hessian":[1E2,5.3E1,4.7E1,4E0,4.9E1,4.3E1,4E0,1E0,3E0,3.8E1,1.1E1,7E0,3.6E1,8E0,3E1,5E0,6E0,2E1,1.6E1,5E0,3E0,2.4E1,6E0,2E0,3E0,1.1E1,9E0,4E0,1E0,1E1,1.4E1,4E0,2E0,6E0,8E0],"tree_param":{"num_deleted":"0","num_feature":"1","num_nodes":"35","size_leaf_vector":"0"}},{"base_weights":[-1.0529186E-2,1.2589252E-3,-2.3571452E-2,-1.872937E-2,3.2325762E-3,-2.6250757E-2,-1.4338646E-2,-2.9081672E-2,-8.870875E-3,6.197392E-3,-6.6724573E-3,-1.9687489E-2,-3.1720277E-2,-6.186664E-4,-1.54304225E-2,-1.1776454E-3,8.138617E-3,-3.1688735E-3,-8.722321E-3,-4.185015E-2,-2.1469437E-2,-1.7875079E-2,-6.0723405E-3,-2.900526E-3,1.7010868E-3,8.984418E-3,1.9435644E-3,-3.303331E-3,-4.4324994E-4,6.066521E-3,1.0611314E-2,2.2796243E-3,2.9966235E-4,1.5729627E-2,6.854843E-3],"categories":[],"categories_nodes":[],"categories_segments":[],"categories_sizes":[],"default_left":[1,1,1,1,1,1,1,0,0,1,1,0,1,0,1,1,1,0,0,0,0,0,0,1,0,1,1,0,0,0,1,0,0,0,0],"id":26,"left_children":[1,3,5,7,9,11,13,-1,-1,15,17,-1,19,-1,21,23,25,-1,-1,-1,-1,-1,-1,27,-1,29,31,-1,-1,-1,33,-1,-1,-1,-1],"loss_changes":[1.5557788E-2,2.1908397E-3,8.109994E-4,2.5231077E-4,1.509682E-3,6.6783093E-4,1.8518278E-4,0E0,0E0,5.679318E-4,5.8542588E-5,0E0,9.706151E-4,0E0,1.6598403E-4,4.9571456E-5,1.4497153E-4,9.1349284E-7,0E0,0E0,0E0,0E0,0E0,4.4746193E-6,0E0,6.379839E-5,2.0791304E-6,0E0,0E0,0E0,1.9980443E-4,0E0,0E0,0E0,0E0],"parents":[2147483647,0,0,1,1,2,2,3,3,4,4,5,5,6,6,9,9,10,10,12,12,14,14,15,15,16,16,23,23,25,25,26,26,30,30],"right_children":[2,4,6,8,10,12,14,-1,-1,16,18,-1,20,-1,22,24,26,-1,-1,-1,-1,-1,-1,28,-1,30,32,-1,-1,-1,34,-1,-1,-1,-1],"split_conditions":[3.3319921E0,2.2213282E-1,5.55332E0,3.173326E-2,2.6338606E0,4.474389E0,5.616787E0,-4.362251E-3,-1.3306313E-3,7.2986495E-1,2.951193E0,-2.9531235E-3,4.9186554E0,-9.2799964E-5,6.1245193E0,5.394654E-1,2.3799944E0,-4.7533103E-4,-1.3083483E-3,-6.2775225E-3,-3.2204157E-3,-2.6812619E-3,-9.108511E-4,4.7599888E-1,2.5516303E-4,1.4279966E0,2.570394E0,-4.954997E-4,-6.64875E-5,9.0997823E-4,1.7453293E0,3.4194367E-4,4.4949353E-5,2.359444E-3,1.0282265E-3],"split_indices":[0,0,0,0,0,0,0,0,0,0,0,0,0,0,0,0,0,0,0,0,0,0,0,0,0,0,0,0,0,0,0,0,0,0,0],"split_type":[0,0,0,0,0,0,0,0,0,0,0,0,0,0,0,0,0,0,0,0,0,0,0,0,0,0,0,0,0,0,0,0,0,0,0],"sum_hessian":[1E2,5.3E1,4.7E1,4E0,4.9E1,3.5E1,1.2E1,1E0,3E0,3.8E1,1.1E1,1.8E1,1.7E1,1E0,1.1E1,8E0,3E1,5E0,6E0,7E0,1E1,8E0,3E0,5E0,3E0,2.6E1,4E0,4E0,1E0,1.1E1,1.5E1,3E0,1E0,5E0,1E1],"tree_param":{"num_deleted":"0","num_feature":"1","num_nodes":"35","size_leaf_vector":"0"}},{"base_weights":[-9.140256E-3,1.0126943E-3,-2.0371903E-2,-1.7058542E-2,2.799564E-3,-2.280271E-2,-1.2839747E-2,-2.6900547E-2,-7.872904E-3,5.380025E-3,-5.820232E-3,-1.6889801E-2,-2.806992E-2,-1.4038987E-2,-3.7628666E-3,-6.4885616E-4,7.2103185E-3,-1.7236024E-3,-6.994264E-3,-3.6357336E-2,-1.8632997E-2,-2.5591154E-3,1.7732263E-3,8.490318E-3,3.280282E-3,-2.9069365E-3,-4.1000545E-4,5.451013E-3,1.0568823E-2,4.2749443E-3,9.6821785E-4,1.37634175E-2,6.320766E-3],"categories":[],"categories_nodes":[],"categories_segments":[],"categories_sizes":[],"default_left":[1,1,1,1,1,1,1,0,0,1,1,0,1,0,0,1,1,0,0,0,0,1,0,1,1,0,0,0,1,0,0,0,0],"id":27,"left_children":[1,3,5,7,9,11,13,-1,-1,15,17,-1,19,-1,-1,21,23,-1,-1,-1,-1,25,-1,27,29,-1,-1,-1,31,-1,-1,-1,-1],"loss_changes":[1.15380995E-2,1.7914674E-3,5.8606267E-4,2.4024001E-4,1.1434655E-3,6.159637E-4,9.956816E-5,0E0,0E0,4.3502857E-4,4.5659544E-5,0E0,6.5208506E-4,0E0,0E0,5.0805946E-5,1.2306275E-4,0E0,0E0,0E0,0E0,3.2931712E-6,3.4185905E-7,8.136791E-5,1.6558428E-5,0E0,0E0,0E0,7.585448E-5,0E0,7.4675654E-8,0E0,0E0],"parents":[2147483647,0,0,1,1,2,2,3,3,4,4,5,5,6,6,9,9,10,10,12,12,15,15,16,16,21,21,23,23,24,24,28,28],"right_children":[2,4,6,8,10,12,14,-1,-1,16,18,-1,20,-1,-1,22,24,-1,-1,-1,-1,26,-1,28,30,-1,-1,-1,32,-1,-1,-1,-1],"split_conditions":[3.3319921E0,2.2213282E-1,5.489854E0,3.173326E-2,2.6338606E0,4.474389E0,6.1879854E0,-4.035082E-3,-1.1809357E-3,7.933315E-1,2.82426E0,-2.5334703E-3,4.9186554E0,-2.1058482E-3,-5.6443E-4,5.394654E-1,2.1261284E0,-2.5854039E-4,-1.0491397E-3,-5.4536005E-3,-2.7949496E-3,4.7599888E-1,2.6598395E-4,1.4279966E0,2.443461E0,-4.360405E-4,-6.150082E-5,8.17652E-4,1.7453293E0,6.4124167E-4,1.4523268E-4,2.0645128E-3,9.4811496E-4],"split_indices":[0,0,0,0,0,0,0,0,0,0,0,0,0,0,0,0,0,0,0,0,0,0,0,0,0,0,0,0,0,0,0,0,0],"split_type":[0,0,0,0,0,0,0,0,0,0,0,0,0,0,0,0,0,0,0,0,0,0,0,0,0,0,0,0,0,0,0,0,0],"sum_hessian":[1E2,5.3E1,4.7E1,4E0,4.9E1,3.4E1,1.3E1,1E0,3E0,3.8E1,1.1E1,1.8E1,1.6E1,1.1E1,2E0,9E0,2.9E1,3E0,8E0,7E0,9E0,5E0,4E0,2.1E1,8E0,4E0,1E0,1E1,1.1E1,5E0,3E0,5E0,6E0],"tree_param":{"num_deleted":"0","num_feature":"1","num_nodes":"33","size_leaf_vector":"0"}},{"base_weights":[-7.9235835E-3,8.2118635E-4,-1.7596375E-2,-1.5542964E-2,2.4411776E-3,-1.8845905E-2,-7.585427E-3,-2.4883006E-2,-6.987203E-3,4.68546E-3,-5.056171E-3,-9.105357E-3,-1.9916106E-2,-8.135636E-3,-2.1420857E-3,-1.3785884E-3,6.0550515E-3,-2.2937928E-3,-6.701614E-3,-1.2105158E-2,2.9468238E-3,-2.2449892E-2,-1.4703224E-2,-2.558106E-3,4.4045597E-4,6.562915E-3,8.5927546E-4,-8.8029105E-4,-2.780471E-3,-9.194498E-3,-3.8655605E-3,-1.576224E-2,-2.9567618E-2,-3.7924945E-4,8.401076E-4,2.3033023E-3,7.1523213E-3,2.2526272E-4,-4.944582E-3,8.439262E-3,4.74719E-3,5.0611165E-3,1.1576985E-2],"categories":[],"categories_nodes":[],"categories_segments":[],"categories_sizes":[],"default_left":[1,1,1,1,1,1,1,0,0,1,1,1,1,0,0,1,1,1,1,0,0,1,0,0,1,1,0,0,0,0,1,0,0,0,0,0,1,0,0,1,0,0,0],"id":28,"left_children":[1,3,5,7,9,11,13,-1,-1,15,17,19,21,-1,-1,23,25,27,29,-1,-1,31,-1,-1,33,35,-1,-1,-1,-1,37,-1,-1,-1,-1,-1,39,-1,-1,41,-1,-1,-1],"loss_changes":[8.55767E-3,1.4694715E-3,4.5747776E-4,2.2569322E-4,8.649988E-4,2.564788E-4,3.5375706E-6,0E0,0E0,3.32253E-4,3.9171922E-5,2.5259663E-4,1.5862286E-4,0E0,0E0,1.8291496E-5,7.88006E-5,1.6798986E-6,1.3947778E-5,0E0,0E0,6.2876754E-4,0E0,0E0,1.6289966E-6,5.6334655E-5,1.8648689E-7,0E0,0E0,0E0,2.3184257E-5,0E0,0E0,0E0,0E0,0E0,3.7318678E-5,0E0,0E0,1.0040286E-4,0E0,0E0,0E0],"parents":[2147483647,0,0,1,1,2,2,3,3,4,4,5,5,6,6,9,9,10,10,11,11,12,12,15,15,16,16,17,17,18,18,21,21,24,24,25,25,30,30,36,36,39,39],"right_children":[2,4,6,8,10,12,14,-1,-1,16,18,20,22,-1,-1,24,26,28,30,-1,-1,32,-1,-1,34,36,-1,-1,-1,-1,38,-1,-1,-1,-1,-1,40,-1,-1,42,-1,-1,-1],"split_conditions":[3.3319921E0,2.2213282E-1,5.934119E0,3.173326E-2,2.6338606E0,3.649325E0,6.2514524E0,-3.732451E-3,-1.0480805E-3,6.663984E-1,2.951193E0,3.5858583E0,5.0455885E0,-1.2203455E-3,-3.2131287E-4,4.7599888E-1,2.443461E0,2.7607934E0,3.0781262E0,-1.8157737E-3,4.420236E-4,4.474389E0,-2.2054838E-3,-3.8371593E-4,5.394654E-1,9.202645E-1,1.2889132E-4,-1.3204366E-4,-4.1707067E-4,-1.3791748E-3,3.1415927E0,-2.364336E-3,-4.435143E-3,-5.688742E-5,1.2601615E-4,3.4549535E-4,1.8087958E0,3.378941E-5,-7.416873E-4,1.4279966E0,7.1207853E-4,7.5916754E-4,1.7365478E-3],"split_indices":[0,0,0,0,0,0,0,0,0,0,0,0,0,0,0,0,0,0,0,0,0,0,0,0,0,0,0,0,0,0,0,0,0,0,0,0,0,0,0,0,0,0,0],"split_type":[0,0,0,0,0,0,0,0,0,0,0,0,0,0,0,0,0,0,0,0,0,0,0,0,0,0,0,0,0,0,0,0,0,0,0,0,0,0,0,0,0,0,0],"sum_hessian":[1E2,5.3E1,4.7E1,4E0,4.9E1,4.1E1,6E0,1E0,3E0,3.8E1,1.1E1,5E0,3.6E1,5E0,1E0,7E0,3.1E1,5E0,6E0,4E0,1E0,2.2E1,1.4E1,4E0,3E0,2.8E1,3E0,2E0,3E0,2E0,4E0,1.3E1,9E0,1E0,2E0,4E0,2.4E1,1E0,3E0,1.4E1,1E1,8E0,6E0],"tree_param":{"num_deleted":"0","num_feature":"1","num_nodes":"43","size_leaf_vector":"0"}},{"base_weights":[-6.8931603E-3,1.575105E-3,-1.4292856E-2,-1.4167629E-2,3.3282542E-3,-7.481063E-3,-1.586143E-2,-2.301678E-2,-6.201146E-3,4.2520803E-3,-1.3604723E-3,-8.656762E-3,2.7258098E-3,-1.924207E-2,-1.1011589E-2,3.713618E-5,6.0338974E-3,1.1088699E-4,-2.2654652E-3,-6.789007E-3,-1.3667151E-2,-1.3904126E-2,-2.532478E-2,-1.20395105E-2,-3.8900252E-3,-1.9928862E-3,1.7718503E-3,7.3397555E-3,3.8987498E-3,-8.373661E-3,3.7364364E-3,-2.9001543E-2,-1.255925E-2,-2.4777204E-3,-6.8214536E-4,2.8803945E-4,1.9711454E-3,4.386286E-3,1.0088538E-2,4.0998296E-3,8.434355E-4],"categories":[],"categories_nodes":[],"categories_segments":[],"categories_sizes":[],"default_left":[1,1,1,1,1,1,1,0,0,1,1,1,0,1,1,1,1,0,0,1,0,0,1,0,0,1,1,1,1,0,0,0,0,0,0,0,0,0,0,0,0],"id":29,"left_children":[1,3,5,7,9,11,13,-1,-1,15,17,19,-1,21,23,25,27,-1,-1,29,-1,-1,31,-1,-1,33,35,37,39,-1,-1,-1,-1,-1,-1,-1,-1,-1,-1,-1,-1],"loss_changes":[6.351434E-3,1.3719229E-3,4.583178E-4,2.097527E-4,1.9637382E-4,1.6759912E-4,4.931232E-4,0E0,0E0,2.776555E-4,1.0903771E-5,1.015357E-5,0E0,4.271418E-4,9.9574216E-5,4.57892E-5,4.3877342E-5,9.9393E-7,0E0,1.9807945E-4,0E0,0E0,1.0512071E-4,0E0,0E0,2.122786E-6,1.502247E-6,7.7525445E-5,3.9143924E-6,0E0,0E0,0E0,0E0,0E0,0E0,0E0,0E0,0E0,0E0,0E0,0E0],"parents":[2147483647,0,0,1,1,2,2,3,3,4,4,5,5,6,6,9,9,10,10,11,11,13,13,14,14,15,15,16,16,19,19,22,22,25,25,26,26,27,27,28,28],"right_children":[2,4,6,8,10,12,14,-1,-1,16,18,20,-1,22,24,26,28,-1,-1,30,-1,-1,32,-1,-1,34,36,38,40,-1,-1,-1,-1,-1,-1,-1,-1,-1,-1,-1,-1],"split_conditions":[2.951193E0,2.2213282E-1,3.649325E0,3.173326E-2,2.5069275E0,3.5858583E0,5.1090546E0,-3.4525173E-3,-9.30172E-4,9.202645E-1,2.6973271E0,3.5223918E0,4.0887148E-4,4.537856E0,6.1245193E0,5.394654E-1,1.8087958E0,1.663305E-5,-3.398198E-4,3.4589252E0,-2.050073E-3,-2.0856191E-3,4.9186554E0,-1.8059267E-3,-5.835038E-4,4.125324E-1,6.029319E-1,1.4279966E0,2.443461E0,-1.2560491E-3,5.604655E-4,-4.3502315E-3,-1.8838876E-3,-3.7165807E-4,-1.0232181E-4,4.3205917E-5,2.956718E-4,6.579429E-4,1.5132808E-3,6.149745E-4,1.2651534E-4],"split_indices":[0,0,0,0,0,0,0,0,0,0,0,0,0,0,0,0,0,0,0,0,0,0,0,0,0,0,0,0,0,0,0,0,0,0,0,0,0,0,0,0,0],"split_type":[0,0,0,0,0,0,0,0,0,0,0,0,0,0,0,0,0,0,0,0,0,0,0,0,0,0,0,0,0,0,0,0,0,0,0,0,0,0,0,0,0],"sum_hessian":[1E2,4.7E1,5.3E1,4E0,4.3E1,1.1E1,4.2E1,1E0,3E0,3.6E1,7E0,1E1,1E0,2.3E1,1.9E1,1.1E1,2.5E1,3E0,4E0,9E0,1E0,1.4E1,9E0,1.6E1,3E0,5E0,6E0,1.4E1,1.1E1,8E0,1E0,6E0,3E0,3E0,2E0,1E0,5E0,8E0,6E0,1E1,1E0],"tree_param":{"num_deleted":"0","num_feature":"1","num_nodes":"41","size_leaf_vector":"0"}},{"base_weights":[-6.00745E-3,5.168571E-4,-1.3222141E-2,-1.4826652E-2,1.7101351E-3,-1.4788414E-2,-7.867682E-3,-2.1290522E-2,-5.5751875E-3,3.3136767E-3,-3.7775147E-3,-1.0896846E-2,-1.8074602E-2,2.4863482E-3,-8.937714E-3,-1.5551994E-3,4.5794956E-3,-1.8174673E-3,-4.9179103E-3,-2.4181329E-2,-1.1990201E-2,-1.0794982E-2,-4.178541E-3,-2.8168769E-3,1.7517805E-5,5.3268797E-3,2.077639E-3,-6.8452954E-4,-2.2128038E-3,-7.4376813E-3,-2.4224657E-3,-6.139378E-4,6.431341E-4,3.3203913E-3,7.0566684E-3,2.6346743E-3,7.226765E-4,8.3639286E-4,-3.4462786E-3,1.7903686E-3,3.8014716E-3,1.016736E-2,4.2304024E-3,-4.7642393E-3,-1.4188787E-3,2.1579862E-4,-2.3441166E-3],"categories":[],"categories_nodes":[],"categories_segments":[],"categories_sizes":[],"default_left":[1,1,1,1,1,1,1,0,0,1,1,0,1,0,1,1,1,1,1,0,0,0,0,0,1,1,1,0,0,0,1,0,0,1,1,0,0,0,1,0,0,0,0,0,1,0,0],"id":30,"left_children":[1,3,5,7,9,11,13,-1,-1,15,17,-1,19,-1,21,23,25,27,29,-1,-1,-1,-1,-1,31,33,35,-1,-1,-1,37,-1,-1,39,41,-1,-1,-1,43,-1,-1,-1,-1,-1,45,-1,-1],"loss_changes":[4.760991E-3,1.0140454E-3,2.862038E-4,1.2050249E-4,4.613009E-4,2.6342645E-4,1.6625103E-4,0E0,0E0,2.5364666E-4,1.788461E-5,0E0,3.7886482E-4,0E0,6.0961524E-5,1.7907701E-5,4.8767775E-5,1.1726206E-6,2.5998103E-5,0E0,0E0,0E0,0E0,0E0,2.3700889E-6,5.9868384E-5,4.888836E-6,0E0,0E0,0E0,1.956475E-5,0E0,0E0,2.7627975E-6,6.248761E-5,0E0,2.4621227E-7,0E0,3.928253E-6,0E0,0E0,0E0,0E0,0E0,5.0432523E-6,0E0,0E0],"parents":[2147483647,0,0,1,1,2,2,3,3,4,4,5,5,6,6,9,9,10,10,12,12,14,14,15,15,16,16,17,17,18,18,24,24,25,25,26,26,30,30,33,33,34,34,38,38,44,44],"right_children":[2,4,6,8,10,12,14,-1,-1,16,18,-1,20,-1,22,24,26,28,30,-1,-1,-1,-1,-1,32,34,36,-1,-1,-1,38,-1,-1,40,42,-1,-1,-1,44,-1,-1,-1,-1,-1,46,-1,-1],"split_conditions":[3.3319921E0,1.586663E-1,5.55332E0,3.173326E-2,2.6338606E0,4.474389E0,5.616787E0,-3.1935785E-3,-8.3627814E-4,6.663984E-1,2.951193E0,-1.6345269E-3,4.9186554E0,3.7295223E-4,6.0610523E0,4.125324E-1,2.1261284E0,2.7607934E0,3.0781262E0,-3.6271994E-3,-1.7985302E-3,-1.6192474E-3,-6.2678114E-4,-4.2253154E-4,5.394654E-1,1.4279966E0,2.443461E0,-1.02679434E-4,-3.3192057E-4,-1.1156523E-3,3.1415927E0,-9.2090675E-5,9.6470125E-5,9.202645E-1,1.6818627E0,3.9520118E-4,1.0840148E-4,1.2545893E-4,3.205059E0,2.685553E-4,5.7022076E-4,1.5251042E-3,6.3456036E-4,-7.1463594E-4,3.2685256E0,3.2369793E-5,-3.516175E-4],"split_indices":[0,0,0,0,0,0,0,0,0,0,0,0,0,0,0,0,0,0,0,0,0,0,0,0,0,0,0,0,0,0,0,0,0,0,0,0,0,0,0,0,0,0,0,0,0,0,0],"split_type":[0,0,0,0,0,0,0,0,0,0,0,0,0,0,0,0,0,0,0,0,0,0,0,0,0,0,0,0,0,0,0,0,0,0,0,0,0,0,0,0,0,0,0,0,0,0,0],"sum_hessian":[1E2,5.3E1,4.7E1,3E0,5E1,3.5E1,1.2E1,1E0,2E0,3.9E1,1.1E1,1.8E1,1.7E1,1E0,1.1E1,8E0,3.1E1,5E0,6E0,7E0,1E1,7E0,4E0,4E0,4E0,2.3E1,8E0,2E0,3E0,2E0,4E0,2E0,2E0,1.2E1,1.1E1,5E0,3E0,1E0,3E0,4E0,8E0,4E0,7E0,1E0,2E0,1E0,1E0],"tree_param":{"num_deleted":"0","num_feature":"1","num_nodes":"47","size_leaf_vector":"0"}},{"base_weights":[-5.2284948E-3,9.5993676E-4,-1.0851224E-2,-1.3610117E-2,2.2060298E-3,-5.705778E-3,-1.1915146E-2,-1.9693732E-2,-5.017668E-3,2.963937E-3,-1.764521E-3,-6.944086E-3,3.3386499E-3,-1.3926746E-2,-7.2317095E-3,-1.701938E-3,4.0377825E-3,-4.2326003E-4,-2.4846257E-3,-5.0879074E-3,-1.1824846E-2,-1.029913E-2,-1.6625913E-2,-7.867549E-3,-2.0658378E-3,-2.4788468E-3,-3.0531734E-4,1.5295943E-3,4.44561E-3,-6.792264E-3,4.273474E-3,-2.3081908E-2,-1.10897245E-2,-3.7662238E-3,-8.721324E-3,5.1894546E-3,2.030298E-3,-4.6842378E-3,-1.0774225E-2,-6.5548816E-3,2.299875E-3,3.2945937E-3,6.1781458E-3,-7.7570453E-3,-2.8792622E-3,8.947277E-3,3.6751702E-3,7.7366363E-4,-3.7645802E-3],"categories":[],"categories_nodes":[],"categories_segments":[],"categories_sizes":[],"default_left":[1,1,1,1,1,1,1,0,0,1,1,1,0,1,1,1,1,0,0,1,0,0,1,1,0,0,0,0,1,1,0,0,0,1,0,1,0,1,0,0,0,0,1,0,1,0,0,0,0],"id":31,"left_children":[1,3,5,7,9,11,13,-1,-1,15,17,19,-1,21,23,25,27,-1,-1,29,-1,-1,31,33,-1,-1,-1,-1,35,37,-1,-1,-1,39,-1,41,-1,43,-1,-1,-1,-1,45,-1,47,-1,-1,-1,-1],"loss_changes":[3.5247991E-3,9.1965083E-4,2.2215582E-4,1.10275985E-4,1.4365812E-4,1.463815E-4,3.0439766E-4,0E0,0E0,2.0227881E-4,6.67514E-6,3.0431926E-5,0E0,1.1272216E-4,3.30169E-5,7.92354E-6,2.5933085E-5,4.341257E-7,0E0,1.7262278E-4,0E0,0E0,2.8015254E-4,1.2674427E-5,0E0,0E0,6.3825064E-7,0E0,3.7972524E-5,1.6683596E-5,0E0,0E0,0E0,8.274051E-5,0E0,1.7114158E-5,8.540992E-7,1.6489837E-5,0E0,0E0,0E0,0E0,5.029011E-5,0E0,2.2316526E-5,0E0,0E0,0E0,0E0],"parents":[2147483647,0,0,1,1,2,2,3,3,4,4,5,5,6,6,9,9,10,10,11,11,13,13,14,14,15,15,16,16,19,19,22,22,23,23,28,28,29,29,33,33,35,35,37,37,42,42,44,44],"right_children":[2,4,6,8,10,12,14,-1,-1,16,18,20,-1,22,24,26,28,-1,-1,30,-1,-1,32,34,-1,-1,-1,-1,36,38,-1,-1,-1,40,-1,42,-1,44,-1,-1,-1,-1,46,-1,48,-1,-1,-1,-1],"split_conditions":[3.0146596E0,1.586663E-1,3.649325E0,3.173326E-2,2.570394E0,3.5858583E0,5.4263873E0,-2.95406E-3,-7.5265026E-4,6.029319E-1,2.7607934E0,3.5223918E0,5.007975E-4,4.537856E0,6.1879854E0,4.125324E-1,9.202645E-1,-6.348901E-5,-3.7269387E-4,3.4589252E0,-1.773727E-3,-1.5448696E-3,4.8551884E0,5.616787E0,-3.098757E-4,-3.7182705E-4,-4.5797602E-5,2.2943916E-4,2.1261284E0,3.3954587E0,6.410212E-4,-3.4622864E-3,-1.6634588E-3,5.55332E0,-1.3081986E-3,1.4279966E0,3.0454472E-4,3.0781262E0,-1.6161338E-3,-9.832323E-4,3.4498126E-4,4.941891E-4,1.6818627E0,-1.1635568E-3,3.1415927E0,1.3420917E-3,5.5127556E-4,1.1604955E-4,-5.6468707E-4],"split_indices":[0,0,0,0,0,0,0,0,0,0,0,0,0,0,0,0,0,0,0,0,0,0,0,0,0,0,0,0,0,0,0,0,0,0,0,0,0,0,0,0,0,0,0,0,0,0,0,0,0],"split_type":[0,0,0,0,0,0,0,0,0,0,0,0,0,0,0,0,0,0,0,0,0,0,0,0,0,0,0,0,0,0,0,0,0,0,0,0,0,0,0,0,0,0,0,0,0,0,0,0,0],"sum_hessian":[1E2,4.8E1,5.2E1,3E0,4.5E1,1E1,4.2E1,1E0,2E0,3.8E1,7E0,9E0,1E0,2.8E1,1.4E1,7E0,3.1E1,3E0,4E0,8E0,1E0,1.4E1,1.4E1,1.2E1,2E0,4E0,3E0,5E0,2.6E1,7E0,1E0,5E0,9E0,3E0,9E0,1.9E1,7E0,6E0,1E0,2E0,1E0,8E0,1.1E1,1E0,5E0,4E0,7E0,1E0,4E0],"tree_param":{"num_deleted":"0","num_feature":"1","num_nodes":"49","size_leaf_vector":"0"}},{"base_weights":[-4.5870487E-3,7.825004E-4,-9.464801E-3,-1.2495276E-2,1.9200788E-3,-5.563602E-3,-1.0470917E-2,-1.8216703E-2,-4.515899E-3,2.5835526E-3,-1.5543662E-3,-6.219838E-3,1.1556149E-3,-1.3095986E-2,-7.0597967E-3,-1.2133585E-3,3.6025413E-3,-3.7565082E-4,-2.1864653E-3,-4.6121995E-3,-8.282065E-3,-9.056995E-3,-1.7037075E-2,-7.877907E-3,-3.029885E-3,-2.0019312E-3,2.7284026E-4,3.9697518E-3,1.4108717E-3,-6.1769653E-3,3.952965E-3,-1.0937989E-2,-3.7507613E-3,-1.9453032E-2,-8.549884E-3,-2.4197623E-3,-7.775128E-4,2.1365464E-3,4.814593E-3,-4.2119133E-3,-9.966165E-3,3.0882508E-3,-8.714393E-3,6.332524E-3,3.1187893E-3,-7.1752667E-3,-2.5221435E-3,2.8230697E-3,7.873583E-3,7.156385E-4,-3.3128276E-3],"categories":[],"categories_nodes":[],"categories_segments":[],"categories_sizes":[],"default_left":[1,1,1,1,1,1,1,0,0,1,1,1,0,1,1,1,1,0,0,1,1,0,1,0,0,1,0,1,0,1,0,0,1,0,0,0,0,0,1,1,0,0,0,1,0,0,1,0,0,0,0],"id":32,"left_children":[1,3,5,7,9,11,13,-1,-1,15,17,19,-1,21,23,25,27,-1,-1,29,31,-1,33,-1,-1,35,-1,37,-1,39,-1,-1,41,-1,-1,-1,-1,-1,43,45,-1,-1,-1,47,-1,-1,49,-1,-1,-1,-1],"loss_changes":[2.6527308E-3,7.641129E-4,1.4977157E-4,1.0034896E-4,1.10055145E-4,6.450983E-5,2.7467683E-4,0E0,0E0,1.5526256E-4,5.1391726E-6,1.5852856E-6,0E0,1.958923E-4,4.206912E-5,1.1093989E-5,1.934811E-5,4.4707457E-7,0E0,1.4503964E-4,7.1134127E-6,0E0,3.8725324E-5,0E0,0E0,1.1882039E-6,6.1236597E-7,2.998137E-5,4.740532E-7,1.759117E-5,0E0,0E0,1.2875124E-4,0E0,0E0,0E0,0E0,0E0,2.4010136E-5,1.695464E-5,0E0,0E0,0E0,2.1038519E-5,0E0,0E0,1.7731167E-5,0E0,0E0,0E0,0E0],"parents":[2147483647,0,0,1,1,2,2,3,3,4,4,5,5,6,6,9,9,10,10,11,11,13,13,14,14,15,15,16,16,19,19,20,20,22,22,25,25,27,27,29,29,32,32,38,38,39,39,43,43,46,46],"right_children":[2,4,6,8,10,12,14,-1,-1,16,18,20,-1,22,24,26,28,-1,-1,30,32,-1,34,-1,-1,36,-1,38,-1,40,-1,-1,42,-1,-1,-1,-1,-1,44,46,-1,-1,-1,48,-1,-1,50,-1,-1,-1,-1],"split_conditions":[3.0146596E0,1.586663E-1,3.7762578E0,3.173326E-2,2.570394E0,3.7127914E0,5.1090546E0,-2.7325056E-3,-6.7738484E-4,6.663984E-1,2.7607934E0,3.5223918E0,1.7334224E-4,4.537856E0,6.0610523E0,4.7599888E-1,2.2530613E0,-5.6347624E-5,-3.279698E-4,3.4589252E0,3.5858583E0,-1.3585492E-3,4.9186554E0,-1.1816861E-3,-4.5448277E-4,3.4906584E-1,4.092604E-5,1.2375971E0,2.1163077E-4,3.3954587E0,5.929448E-4,-1.6406984E-3,3.649325E0,-2.917955E-3,-1.2824826E-3,-3.6296435E-4,-1.1662692E-4,3.2048198E-4,1.6818627E0,3.0781262E0,-1.4949248E-3,4.6323764E-4,-1.307159E-3,1.4279966E0,4.678184E-4,-1.07629E-3,3.1415927E0,4.2346047E-4,1.1810374E-3,1.0734578E-4,-4.9692416E-4],"split_indices":[0,0,0,0,0,0,0,0,0,0,0,0,0,0,0,0,0,0,0,0,0,0,0,0,0,0,0,0,0,0,0,0,0,0,0,0,0,0,0,0,0,0,0,0,0,0,0,0,0,0,0],"split_type":[0,0,0,0,0,0,0,0,0,0,0,0,0,0,0,0,0,0,0,0,0,0,0,0,0,0,0,0,0,0,0,0,0,0,0,0,0,0,0,0,0,0,0,0,0,0,0,0,0,0,0],"sum_hessian":[1E2,4.8E1,5.2E1,3E0,4.5E1,1.2E1,4E1,1E0,2E0,3.8E1,7E0,1.1E1,1E0,2.1E1,1.9E1,8E0,3E1,3E0,4E0,8E0,3E0,1.2E1,9E0,1.5E1,4E0,5E0,3E0,2.5E1,5E0,7E0,1E0,1E0,2E0,6E0,3E0,3E0,2E0,9E0,1.6E1,6E0,1E0,1E0,1E0,7E0,9E0,1E0,5E0,3E0,4E0,1E0,4E0],"tree_param":{"num_deleted":"0","num_feature":"1","num_nodes":"51","size_leaf_vector":"0"}},{"base_weights":[-4.0326877E-3,7.2560855E-4,-8.187605E-3,-1.14734555E-2,1.7938452E-3,-4.1518174E-3,-8.902499E-3,-1.6850451E-2,-4.0643066E-3,-1.343824E-3,2.4072006E-3,-5.425684E-3,3.6564916E-3,-9.854798E-3,-3.998328E-3,-2.1475405E-3,-4.32086E-4,3.2394251E-3,-6.343474E-4,-3.7992178E-3,-9.218708E-3,-7.4958242E-3,-1.1122471E-2,6.4204484E-3,-6.1032306E-3,1.7736987E-3,3.8836033E-3,4.132241E-4,-1.2270039E-3,-5.7137436E-3,-2.2087519E-3,-1.665726E-2,-8.005846E-3,-1.2549356E-2,-3.389591E-3,5.5832043E-3,2.5389562E-3,6.6196546E-4,-2.9152886E-3,-5.00533E-3,-1.7765025E-2,-6.809644E-3,-1.2974441E-2,8.2984567E-4,-4.2311377E-3,2.5054961E-3,6.92873E-3,-8.215621E-3,-8.893013E-4,-5.1795077E-3,-1.5562654E-3,2.7182102E-3,-2.9978752E-3],"categories":[],"categories_nodes":[],"categories_segments":[],"categories_sizes":[],"default_left":[1,1,1,1,1,1,1,0,0,1,1,1,0,1,1,0,0,1,1,1,0,0,1,0,1,0,1,0,0,0,1,1,1,0,1,1,0,0,0,0,0,1,0,0,1,0,0,0,1,0,0,0,0],"id":33,"left_children":[1,3,5,7,9,11,13,-1,-1,15,17,19,-1,21,23,-1,-1,25,27,29,-1,-1,31,-1,33,-1,35,-1,-1,-1,37,39,41,-1,43,45,-1,-1,-1,-1,-1,47,-1,-1,49,-1,-1,-1,51,-1,-1,-1,-1],"loss_changes":[2.002744E-3,6.460929E-4,1.18837226E-4,9.087048E-5,8.9837646E-5,1.1930644E-4,1.7075776E-4,0E0,0E0,4.934307E-6,9.824245E-5,2.0499137E-5,0E0,2.727285E-5,2.365601E-4,0E0,8.5594564E-7,2.1437329E-5,6.0946777E-6,1.1739656E-5,0E0,0E0,2.4614157E-4,0E0,9.7402546E-5,7.460512E-7,3.153176E-5,0E0,1.0480562E-7,0E0,1.4099422E-5,1.4334219E-6,6.7437068E-6,0E0,2.8367169E-5,1.5769183E-5,0E0,0E0,0E0,0E0,0E0,1.17551885E-4,0E0,0E0,7.1599206E-6,0E0,0E0,0E0,3.8575672E-5,0E0,0E0,0E0,0E0],"parents":[2147483647,0,0,1,1,2,2,3,3,4,4,5,5,6,6,9,9,10,10,11,11,13,13,14,14,17,17,18,18,19,19,22,22,24,24,26,26,30,30,31,31,32,32,34,34,35,35,41,41,44,44,48,48],"right_children":[2,4,6,8,10,12,14,-1,-1,16,18,20,-1,22,24,-1,-1,26,28,30,-1,-1,32,-1,34,-1,36,-1,-1,-1,38,40,42,-1,44,46,-1,-1,-1,-1,-1,48,-1,-1,50,-1,-1,-1,52,-1,-1,-1,-1],"split_conditions":[2.951193E0,1.586663E-1,3.5223918E0,3.173326E-2,6.029319E-1,3.4589252E0,5.807186E0,-2.5275678E-3,-6.09646E-4,3.4906584E-1,2.443461E0,3.3954587E0,5.484738E-4,4.474389E0,5.870653E0,-3.221311E-4,-6.4812906E-5,1.2375971E0,2.6338606E0,3.0781262E0,-1.3828062E-3,-1.1243736E-3,4.8551884E0,9.630673E-4,5.934119E0,2.6605482E-4,1.6818627E0,6.198362E-5,-1.8405059E-4,-8.570616E-4,3.1415927E0,4.537856E0,5.74372E0,-1.8824034E-3,5.9975863E0,1.4279966E0,3.8084344E-4,9.9294826E-5,-4.372933E-4,-7.507995E-4,-2.6647537E-3,5.55332E0,-1.9461663E-3,1.2447685E-4,6.1879854E0,3.7582443E-4,1.0393095E-3,-1.2323433E-3,5.616787E0,-7.769262E-4,-2.3343982E-4,4.0773154E-4,-4.496813E-4],"split_indices":[0,0,0,0,0,0,0,0,0,0,0,0,0,0,0,0,0,0,0,0,0,0,0,0,0,0,0,0,0,0,0,0,0,0,0,0,0,0,0,0,0,0,0,0,0,0,0,0,0,0,0,0,0],"split_type":[0,0,0,0,0,0,0,0,0,0,0,0,0,0,0,0,0,0,0,0,0,0,0,0,0,0,0,0,0,0,0,0,0,0,0,0,0,0,0,0,0,0,0,0,0,0,0,0,0,0,0,0,0],"sum_hessian":[1E2,4.7E1,5.3E1,3E0,4.4E1,9E0,4.4E1,1E0,2E0,7E0,3.7E1,8E0,1E0,3.6E1,8E0,3E0,4E0,2.9E1,8E0,7E0,1E0,1.5E1,2.1E1,1E0,7E0,1E1,1.9E1,3E0,5E0,2E0,5E0,6E0,1.5E1,1E0,6E0,7E0,1.2E1,1E0,4E0,1E0,5E0,1.4E1,1E0,1E0,5E0,3E0,4E0,1.1E1,3E0,3E0,2E0,1E0,2E0],"tree_param":{"num_deleted":"0","num_feature":"1","num_nodes":"53","size_leaf_vector":"0"}},{"base_weights":[-3.558272E-3,5.104258E-4,-7.252761E-3,-1.5586667E-2,1.170504E-3,-7.730689E-3,-3.0077072E-3,-2.333839E-3,1.9297187E-3,-5.1859594E-3,-9.131351E-3,7.676035E-4,-3.7648596E-3,-3.4058436E-3,-7.9506636E-4,2.7475317E-3,-7.9847424E-4,-5.3864825E-3,-7.882714E-4,-1.1550196E-2,-6.4441506E-3,-5.065039E-3,-1.8485104E-3,8.4045104E-4,3.1716132E-3,3.774464E-5,-1.6422421E-3,-3.4314028E-3,-6.078072E-3,-6.8720067E-3,-1.4199838E-2,-5.326007E-3,-1.1608154E-2,3.832523E-3,1.9820442E-3,3.6673248E-4,-4.1348735E-4,-6.208591E-3,-1.933773E-3,-6.5548527E-3,5.9389174E-3,2.263036E-3,5.3029316E-3,6.123176E-4,-2.5654547E-3,-5.2127102E-3,-1.20013505E-2,6.0972692E-3,2.211392E-3,-3.6574695E-3,-1.3780836E-3,-6.469959E-3,-7.664114E-4,9.4906613E-4,-2.4701555E-3,2.5143325E-3,-2.6981037E-3],"categories":[],"categories_nodes":[],"categories_segments":[],"categories_sizes":[],"default_left":[1,1,1,0,1,1,1,1,1,1,1,0,1,0,0,1,1,1,0,1,1,0,0,0,1,1,0,1,0,0,0,1,0,1,0,0,0,0,1,1,0,0,1,0,1,1,0,0,0,0,1,0,1,0,0,0,0],"id":34,"left_children":[1,3,5,-1,7,9,11,13,15,17,19,-1,21,-1,-1,23,25,27,-1,29,31,-1,-1,-1,33,35,-1,37,-1,-1,-1,39,-1,41,-1,-1,-1,-1,43,45,-1,-1,47,-1,49,51,-1,-1,-1,-1,53,-1,55,-1,-1,-1,-1],"loss_changes":[1.5219095E-3,5.38886E-4,8.4276544E-5,0E0,1.3220997E-4,1.2016739E-4,2.2899316E-5,1.2138273E-5,9.143993E-5,1.2508943E-5,1.1406676E-4,0E0,5.5868077E-6,0E0,6.411619E-8,2.240589E-5,7.1177333E-6,3.4816912E-6,0E0,7.5955875E-5,3.0560477E-5,0E0,0E0,2.503839E-9,1.2058736E-5,1.0423382E-6,0E0,1.7108396E-5,0E0,0E0,0E0,2.4657152E-4,0E0,2.2616077E-5,0E0,8.810218E-9,0E0,0E0,1.1220787E-5,3.9780047E-5,0E0,3.8858343E-7,3.7066347E-6,0E0,1.442837E-6,6.771271E-5,0E0,0E0,0E0,0E0,1.251E-5,0E0,3.213348E-5,0E0,0E0,0E0,0E0],"parents":[2147483647,0,0,1,1,2,2,4,4,5,5,6,6,7,7,8,8,9,9,10,10,12,12,15,15,16,16,17,17,19,19,20,20,24,24,25,25,27,27,31,31,33,33,38,38,39,39,42,42,44,44,45,45,50,50,52,52],"right_children":[2,4,6,-1,8,10,12,14,16,18,20,-1,22,-1,-1,24,26,28,-1,30,32,-1,-1,-1,34,36,-1,38,-1,-1,-1,40,-1,42,-1,-1,-1,-1,44,46,-1,-1,48,-1,50,52,-1,-1,-1,-1,54,-1,56,-1,-1,-1,-1],"split_conditions":[3.0146596E0,3.173326E-2,5.934119E0,-2.338E-3,5.394654E-1,4.157057E0,5.9975863E0,2.8559935E-1,2.443461E0,4.0935907E0,4.9821215E0,1.1514053E-4,6.1245193E0,-5.108766E-4,-1.1925996E-4,9.202645E-1,2.7607934E0,3.3954587E0,-1.1824072E-4,4.537856E0,5.870653E0,-7.5975584E-4,-2.7727656E-4,1.2606767E-4,1.8087958E0,2.6338606E0,-2.4633633E-4,3.0781262E0,-9.1171084E-4,-1.0308011E-3,-2.1299757E-3,5.807186E0,-1.7412232E-3,1.4279966E0,2.9730663E-4,5.5009874E-5,-6.202311E-5,-9.312887E-4,3.1415927E0,5.74372E0,8.9083763E-4,3.3945544E-4,1.6818627E0,9.184764E-5,3.205059E0,5.55332E0,-1.8002026E-3,9.1459043E-4,3.317088E-4,-5.486205E-4,3.2685256E0,-9.704939E-4,5.616787E0,1.4235993E-4,-3.7052334E-4,3.771499E-4,-4.0471557E-4],"split_indices":[0,0,0,0,0,0,0,0,0,0,0,0,0,0,0,0,0,0,0,0,0,0,0,0,0,0,0,0,0,0,0,0,0,0,0,0,0,0,0,0,0,0,0,0,0,0,0,0,0,0,0,0,0,0,0,0,0],"split_type":[0,0,0,0,0,0,0,0,0,0,0,0,0,0,0,0,0,0,0,0,0,0,0,0,0,0,0,0,0,0,0,0,0,0,0,0,0,0,0,0,0,0,0,0,0,0,0,0,0,0,0,0,0,0,0,0,0],"sum_hessian":[1E2,4.8E1,5.2E1,1E0,4.7E1,4.6E1,6E0,8E0,3.9E1,1.8E1,2.8E1,1E0,5E0,4E0,4E0,3E1,9E0,1.7E1,1E0,1.3E1,1.5E1,2E0,3E0,6E0,2.4E1,5E0,4E0,6E0,1.1E1,6E0,7E0,1.4E1,1E0,1.4E1,1E1,3E0,2E0,1E0,5E0,1.3E1,1E0,8E0,6E0,1E0,4E0,1.2E1,1E0,4E0,2E0,1E0,3E0,9E0,3E0,1E0,2E0,1E0,2E0],"tree_param":{"num_deleted":"0","num_feature":"1","num_nodes":"57","size_leaf_vector":"0"}},{"base_weights":[-3.1392819E-3,4.0912308E-4,-6.360651E-3,-1.4417667E-2,1.0183826E-3,-6.6815373E-3,-1.9438349E-3,-2.0537758E-3,1.6841587E-3,-4.2085326E-3,-7.6487884E-3,-3.3125095E-3,-8.7232393E-4,2.350796E-3,-8.732362E-4,-4.869895E-3,-2.6625097E-3,-9.311693E-3,-5.438138E-3,7.323963E-4,2.6961039E-3,-1.266539E-4,-1.4451712E-3,-3.388864E-3,-9.099588E-3,3.8746744E-3,-4.3978193E-3,-6.098211E-3,-1.1847596E-2,-4.4196206E-3,-7.643413E-3,3.2125479E-3,1.3636483E-3,-4.771999E-3,3.838107E-3,-7.0427656E-3,-2.4602772E-3,-1.3769428E-2,-6.0029477E-3,-5.604744E-3,5.493492E-3,-1.0737538E-2,-3.0328583E-3,1.961304E-3,4.0174127E-3,-3.1475837E-3,-8.071452E-3,2.086997E-3,-4.118845E-3,-4.221598E-3,-1.1101246E-2,7.1004033E-4,-5.2593276E-3,3.2809079E-3,1.3862401E-3,5.36561E-3,2.224346E-3,-5.7429485E-3,-1.7578648E-3,-5.3361985E-3,-6.583482E-4,-4.658103E-4,1.7173631E-3,5.6639407E-4,-2.3359954E-3,2.3257434E-3,-2.4282932E-3,-3.3831596E-3,-1.2284145E-3],"categories":[],"categories_nodes":[],"categories_segments":[],"categories_sizes":[],"default_left":[1,1,1,0,1,1,0,1,1,1,1,0,0,1,1,1,1,1,1,0,1,0,0,1,0,0,1,0,1,1,1,1,0,1,0,0,1,0,0,1,0,0,1,1,1,1,0,0,0,1,0,0,0,0,1,0,0,0,1,0,1,0,0,0,1,0,0,0,0],"id":35,"left_children":[1,3,5,-1,7,9,-1,11,13,15,17,-1,-1,19,21,23,25,27,29,-1,31,-1,-1,33,-1,-1,35,-1,37,39,41,43,-1,45,-1,-1,47,-1,-1,49,-1,-1,51,53,55,57,-1,-1,-1,59,-1,-1,-1,-1,61,-1,-1,-1,63,-1,65,-1,-1,-1,67,-1,-1,-1,-1],"loss_changes":[1.1571053E-3,4.573175E-4,6.212876E-5,0E0,1.01636615E-4,8.501881E-5,0E0,1.0494616E-5,7.024699E-5,3.393594E-6,7.434911E-5,0E0,3.1779018E-7,1.590846E-5,3.6599313E-6,3.1805786E-5,9.6448406E-5,7.443421E-5,4.4028857E-6,7.27764E-8,1.3510828E-5,4.1307504E-7,0E0,1.0827832E-4,0E0,0E0,1.342102E-5,0E0,1.8434832E-5,1.9526525E-4,2.4497116E-5,1.0248099E-5,8.009083E-7,1.7471873E-5,0E0,0E0,4.6305824E-5,0E0,0E0,5.1967014E-5,0E0,0E0,2.873468E-5,2.2815839E-6,1.2239092E-5,1.5152473E-5,0E0,0E0,0E0,4.414613E-5,0E0,0E0,0E0,0E0,5.706017E-6,8.559873E-7,0E0,0E0,9.385443E-6,0E0,2.6774298E-5,0E0,1.0376061E-7,0E0,1.643175E-6,0E0,0E0,0E0,0E0],"parents":[2147483647,0,0,1,1,2,2,4,4,5,5,7,7,8,8,9,9,10,10,13,13,14,14,15,15,16,16,17,17,18,18,20,20,23,23,26,26,28,28,29,29,30,30,31,31,33,33,36,36,39,39,42,42,43,43,44,44,45,45,49,49,54,54,58,58,60,60,64,64],"right_children":[2,4,6,-1,8,10,-1,12,14,16,18,-1,-1,20,22,24,26,28,30,-1,32,-1,-1,34,-1,-1,36,-1,38,40,42,44,-1,46,-1,-1,48,-1,-1,50,-1,-1,52,54,56,58,-1,-1,-1,60,-1,-1,-1,-1,62,-1,-1,-1,64,-1,66,-1,-1,-1,68,-1,-1,-1,-1],"split_conditions":[3.0146596E0,3.173326E-2,6.0610523E0,-2.1626502E-3,5.394654E-1,3.9666574E0,-2.9157524E-4,2.2213282E-1,2.5069275E0,3.5858583E0,5.0455885E0,-4.968764E-4,-1.308486E-4,9.202645E-1,2.7607934E0,3.5223918E0,3.649325E0,4.537856E0,5.870653E0,1.0985945E-4,1.9991953E0,-1.8998086E-5,-2.1677569E-4,3.4589252E0,-1.3649382E-3,5.8120117E-4,3.7127914E0,-9.1473165E-4,4.8551884E0,5.807186E0,5.934119E0,1.4279966E0,2.0454726E-4,3.3954587E0,5.757161E-4,-1.0564149E-3,3.7762578E0,-2.0654143E-3,-9.004422E-4,5.74372E0,8.240238E-4,-1.6106308E-3,5.9975863E0,9.8373103E-1,1.6818627E0,3.0781262E0,-1.210718E-3,3.1304956E-4,-6.1782676E-4,5.55332E0,-1.665187E-3,1.0650606E-4,-7.888992E-4,4.921362E-4,1.0471976E0,8.048416E-4,3.336519E-4,-8.614423E-4,3.1415927E0,-8.004298E-4,5.616787E0,-6.9871545E-5,2.576045E-4,8.4959116E-5,3.205059E0,3.4886153E-4,-3.6424398E-4,-5.0747395E-4,-1.8426219E-4],"split_indices":[0,0,0,0,0,0,0,0,0,0,0,0,0,0,0,0,0,0,0,0,0,0,0,0,0,0,0,0,0,0,0,0,0,0,0,0,0,0,0,0,0,0,0,0,0,0,0,0,0,0,0,0,0,0,0,0,0,0,0,0,0,0,0,0,0,0,0,0,0],"split_type":[0,0,0,0,0,0,0,0,0,0,0,0,0,0,0,0,0,0,0,0,0,0,0,0,0,0,0,0,0,0,0,0,0,0,0,0,0,0,0,0,0,0,0,0,0,0,0,0,0,0,0,0,0,0,0,0,0,0,0,0,0,0,0,0,0,0,0,0,0],"sum_hessian":[1E2,4.8E1,5.2E1,1E0,4.7E1,4.8E1,4E0,8E0,3.9E1,1.5E1,3.3E1,3E0,5E0,3.1E1,8E0,9E0,6E0,1.7E1,1.6E1,6E0,2.5E1,4E0,4E0,8E0,1E0,1E0,5E0,9E0,8E0,1.3E1,3E0,1.7E1,8E0,7E0,1E0,1E0,4E0,5E0,3E0,1.2E1,1E0,1E0,2E0,8E0,9E0,6E0,1E0,1E0,3E0,1.1E1,1E0,1E0,1E0,1E0,7E0,4E0,5E0,1E0,5E0,8E0,3E0,1E0,6E0,1E0,4E0,1E0,2E0,1E0,3E0],"tree_param":{"num_deleted":"0","num_feature":"1","num_nodes":"69","size_leaf_vector":"0"}},{"base_weights":[-2.7997128E-3,3.2951985E-4,-5.639952E-3,-1.3336342E-2,8.9206576E-4,-5.925808E-3,-1.7105751E-3,-2.0189583E-3,1.4383128E-3,-3.8427645E-3,-6.731775E-3,-2.93985E-3,-8.7845325E-4,2.0397706E-3,-6.301835E-4,-4.4862255E-3,-2.3745683E-3,-8.04381E-3,-4.7529982E-3,5.3503737E-4,2.4396945E-3,1.372397E-4,-1.1646723E-3,-3.1142249E-3,-8.417115E-3,3.584072E-3,-3.96502E-3,-5.2749338E-3,-1.0008305E-2,-3.3993612E-3,-6.4425E-3,2.97306E-3,1.4905875E-3,-4.391065E-3,3.5502464E-3,-6.5145493E-3,-2.1522045E-3,-1.20482445E-2,-5.558717E-3,-4.3924004E-3,-5.634427E-4,-1.0268658E-2,-3.6235363E-3,1.8065751E-3,4.421691E-3,-2.8851903E-3,-7.4660927E-3,1.9304752E-3,-3.6554933E-3,2.1513104E-3,-2.185464E-3,5.081475E-3,-7.0701577E-3,3.03483E-3,1.332899E-3,5.306676E-3,1.7678142E-3,-5.3122267E-3,-1.5953131E-3,-9.93222E-3,-2.805397E-3,-4.3088198E-4,1.6072318E-3,5.239146E-4,-2.1239414E-3,6.567836E-4,-4.864879E-3,-3.1294227E-3,-1.0902155E-3],"categories":[],"categories_nodes":[],"categories_segments":[],"categories_sizes":[],"default_left":[1,1,1,0,1,1,0,1,1,1,1,0,0,1,1,1,1,1,1,0,1,0,0,1,0,0,1,0,1,1,1,1,0,1,0,0,1,0,0,0,1,0,1,1,1,1,0,0,0,0,0,0,1,0,1,0,0,0,1,0,1,0,0,0,1,0,0,0,0],"id":36,"left_children":[1,3,5,-1,7,9,-1,11,13,15,17,-1,-1,19,21,23,25,27,29,-1,31,-1,-1,33,-1,-1,35,-1,37,39,41,43,-1,45,-1,-1,47,-1,-1,-1,49,-1,51,53,55,57,-1,-1,-1,-1,-1,-1,59,-1,61,-1,-1,-1,63,-1,65,-1,-1,-1,67,-1,-1,-1,-1],"loss_changes":[8.9952315E-4,3.8859295E-4,4.939502E-5,0E0,7.923053E-5,5.6395773E-5,0E0,5.819733E-6,5.2294083E-5,4.462796E-6,5.003938E-5,0E0,0E0,1.7951592E-5,4.26163E-6,2.7719012E-5,8.0549435E-5,5.0556264E-5,1.4691177E-5,6.4879737E-7,8.223913E-6,3.2894906E-7,1.4592752E-7,9.2174516E-5,0E0,0E0,1.371032E-5,0E0,2.3796107E-5,2.8503084E-5,2.7505943E-5,1.735898E-5,0E0,1.5503756E-5,0E0,0E0,3.774407E-5,0E0,0E0,0E0,2.231516E-5,0E0,1.8594122E-4,1.7728307E-6,4.7106296E-6,1.3439389E-5,0E0,0E0,0E0,0E0,0E0,0E0,2.0960215E-5,0E0,5.0472954E-6,0E0,0E0,0E0,7.834469E-6,0E0,2.4586067E-5,0E0,5.924194E-7,0E0,1.7852144E-6,0E0,0E0,0E0,0E0],"parents":[2147483647,0,0,1,1,2,2,4,4,5,5,7,7,8,8,9,9,10,10,13,13,14,14,15,15,16,16,17,17,18,18,20,20,23,23,26,26,28,28,29,29,30,30,31,31,33,33,36,36,40,40,42,42,43,43,44,44,45,45,52,52,54,54,58,58,60,60,64,64],"right_children":[2,4,6,-1,8,10,-1,12,14,16,18,-1,-1,20,22,24,26,28,30,-1,32,-1,-1,34,-1,-1,36,-1,38,40,42,44,-1,46,-1,-1,48,-1,-1,-1,50,-1,52,54,56,58,-1,-1,-1,-1,-1,-1,60,-1,62,-1,-1,-1,64,-1,66,-1,-1,-1,68,-1,-1,-1,-1],"split_conditions":[3.0146596E0,3.173326E-2,6.0610523E0,-2.0004513E-3,4.7599888E-1,3.9666574E0,-2.5658627E-4,2.2213282E-1,2.443461E0,3.5858583E0,5.1090546E0,-4.4097754E-4,-1.31768E-4,9.202645E-1,2.6973271E0,3.5223918E0,3.649325E0,4.537856E0,5.74372E0,8.025561E-5,1.8087958E0,2.0585954E-5,-1.7470085E-4,3.4589252E0,-1.2625672E-3,5.3761085E-4,3.7127914E0,-7.912401E-4,4.8551884E0,5.55332E0,5.807186E0,1.4914632E0,2.2358813E-4,3.3954587E0,5.32537E-4,-9.771824E-4,3.7762578E0,-1.8072367E-3,-8.338076E-4,-6.588601E-4,5.616787E0,-1.5402988E-3,5.870653E0,9.8373103E-1,1.6818627E0,3.0781262E0,-1.119914E-3,2.895713E-4,-5.48324E-4,3.2269658E-4,-3.278196E-4,7.622212E-4,5.934119E0,4.5522454E-4,1.0471976E0,7.9600146E-4,2.6517213E-4,-7.9683407E-4,3.1415927E0,-1.4898331E-3,5.9975863E0,-6.46323E-5,2.4108478E-4,7.858719E-5,3.205059E0,9.851754E-5,-7.2973187E-4,-4.694134E-4,-1.6353233E-4],"split_indices":[0,0,0,0,0,0,0,0,0,0,0,0,0,0,0,0,0,0,0,0,0,0,0,0,0,0,0,0,0,0,0,0,0,0,0,0,0,0,0,0,0,0,0,0,0,0,0,0,0,0,0,0,0,0,0,0,0,0,0,0,0,0,0,0,0,0,0,0,0],"split_type":[0,0,0,0,0,0,0,0,0,0,0,0,0,0,0,0,0,0,0,0,0,0,0,0,0,0,0,0,0,0,0,0,0,0,0,0,0,0,0,0,0,0,0,0,0,0,0,0,0,0,0,0,0,0,0,0,0,0,0,0,0,0,0,0,0,0,0,0,0],"sum_hessian":[1E2,4.8E1,5.2E1,1E0,4.7E1,4.8E1,4E0,7E0,4E1,1.5E1,3.3E1,3E0,4E0,3.1E1,9E0,9E0,6E0,1.8E1,1.5E1,7E0,2.4E1,4E0,5E0,8E0,1E0,1E0,5E0,9E0,9E0,1E1,5E0,1.4E1,1E1,7E0,1E0,1E0,4E0,5E0,4E0,7E0,3E0,1E0,4E0,9E0,5E0,6E0,1E0,1E0,3E0,1E0,2E0,1E0,3E0,1E0,8E0,3E0,2E0,1E0,5E0,1E0,2E0,1E0,7E0,1E0,4E0,1E0,1E0,1E0,3E0],"tree_param":{"num_deleted":"0","num_feature":"1","num_nodes":"69","size_leaf_vector":"0"}},{"base_weights":[-2.497399E-3,3.2012755E-4,-4.9556186E-3,-1.2336116E-2,8.518799E-4,-5.2015376E-3,-1.5053072E-3,-1.6188133E-3,1.4001968E-3,-3.7852162E-3,-6.1791753E-3,-2.6091132E-3,-6.888111E-4,1.9345037E-3,-1.3572113E-4,-8.733159E-3,-4.509753E-3,9.543995E-4,2.480434E-3,4.5320392E-4,-7.02026E-4,-4.7444464E-3,-1.0601561E-2,-3.720358E-3,-6.539896E-3,3.67105E-4,1.2021586E-3,3.4199506E-3,1.5716553E-3,-4.5950967E-3,4.7003627E-3,-9.187296E-3,-2.5949974E-3,1.9413084E-3,3.704071E-4,1.7041921E-3,4.709661E-3,-3.5663885E-3,-9.498507E-3,6.0752034E-4,-4.5000166E-3,7.1692467E-4,2.8072298E-3,-3.9857626E-4,6.62297E-4,-4.36442E-3,-4.8020482E-4,1.9899607E-3,-1.9669135E-3],"categories":[],"categories_nodes":[],"categories_segments":[],"categories_sizes":[],"default_left":[1,1,1,0,1,1,0,1,1,0,1,0,0,1,1,1,1,1,1,0,0,0,0,1,1,0,1,1,0,1,0,0,1,1,1,0,0,1,0,0,0,0,0,0,0,0,1,0,0],"id":37,"left_children":[1,3,5,-1,7,9,-1,11,13,-1,15,-1,-1,17,19,21,23,25,27,-1,-1,-1,-1,29,31,-1,33,35,-1,37,-1,-1,39,41,43,-1,-1,45,-1,-1,-1,-1,-1,-1,-1,-1,47,-1,-1],"loss_changes":[7.0112257E-4,3.335483E-4,3.798888E-5,0E0,6.593863E-5,4.584284E-5,0E0,6.491642E-6,3.2267963E-5,3.5349512E-7,7.999863E-5,0E0,1.7706589E-7,1.3149671E-5,3.9867828E-6,2.4226669E-5,6.1183528E-6,1.304772E-6,9.993637E-6,9.7923134E-8,3.0182946E-8,0E0,0E0,1.3945352E-4,1.7933882E-5,2.125853E-8,4.199236E-6,9.676485E-6,0E0,4.178731E-5,0E0,0E0,2.1036421E-5,2.2283075E-6,1.3862684E-6,0E0,0E0,3.2384385E-5,0E0,0E0,0E0,0E0,0E0,0E0,0E0,0E0,1.8603749E-5,0E0,0E0],"parents":[2147483647,0,0,1,1,2,2,4,4,5,5,7,7,8,8,10,10,13,13,14,14,15,15,16,16,17,17,18,18,23,23,24,24,26,26,27,27,29,29,32,32,33,33,34,34,37,37,46,46],"right_children":[2,4,6,-1,8,10,-1,12,14,-1,16,-1,-1,18,20,22,24,26,28,-1,-1,-1,-1,30,32,-1,34,36,-1,38,-1,-1,40,42,44,-1,-1,46,-1,-1,-1,-1,-1,-1,-1,-1,48,-1,-1],"split_conditions":[2.951193E0,3.173326E-2,6.0610523E0,-1.8504175E-3,5.394654E-1,4.347457E0,-2.2579609E-4,2.2213282E-1,2.3165278E0,-5.6778244E-4,4.9186554E0,-3.91367E-4,-1.03321676E-4,1.2375971E0,2.6338606E0,4.601322E0,5.870653E0,7.933315E-1,1.6818627E0,6.798059E-5,-1.0530391E-4,-7.11667E-4,-1.5902341E-3,5.807186E0,5.934119E0,5.5065753E-5,9.8373103E-1,1.4914632E0,2.357483E-4,5.74372E0,7.0505444E-4,-1.3780944E-3,5.9975863E0,9.202645E-1,1.0471976E0,2.5562884E-4,7.0644915E-4,5.55332E0,-1.424776E-3,9.112805E-5,-6.750025E-4,1.07538704E-4,4.210845E-4,-5.9786442E-5,9.934456E-5,-6.546631E-4,5.616787E0,2.9849412E-4,-2.9503703E-4],"split_indices":[0,0,0,0,0,0,0,0,0,0,0,0,0,0,0,0,0,0,0,0,0,0,0,0,0,0,0,0,0,0,0,0,0,0,0,0,0,0,0,0,0,0,0,0,0,0,0,0,0],"split_type":[0,0,0,0,0,0,0,0,0,0,0,0,0,0,0,0,0,0,0,0,0,0,0,0,0,0,0,0,0,0,0,0,0,0,0,0,0,0,0,0,0,0,0,0,0,0,0,0,0],"sum_hessian":[1E2,4.7E1,5.3E1,1E0,4.6E1,4.9E1,4E0,8E0,3.8E1,2.2E1,2.7E1,3E0,5E0,2.8E1,1E1,9E0,1.8E1,1.1E1,1.7E1,5E0,5E0,4E0,5E0,1.5E1,3E0,4E0,7E0,7E0,1E1,1.4E1,1E0,1E0,2E0,3E0,4E0,4E0,3E0,1.3E1,1E0,1E0,1E0,2E0,1E0,1E0,3E0,1E1,3E0,1E0,2E0],"tree_param":{"num_deleted":"0","num_feature":"1","num_nodes":"49","size_leaf_vector":"0"}},{"base_weights":[-2.1919955E-3,2.1827233E-4,-4.378998E-3,-1.1410908E-2,6.982742E-4,-4.601297E-3,-1.3246696E-3,-1.589288E-3,1.1275967E-3,-3.3074669E-3,-5.4535456E-3,-2.3155902E-3,-6.9038867E-4,1.5891204E-3,-4.6203882E-4,-1.9707892E-3,-3.5846785E-3,-7.905225E-3,-4.0776124E-3,4.233308E-4,1.8986082E-3,2.5977692E-5,-9.552509E-4,-4.629921E-3,-5.129784E-4,-5.5103847E-3,-2.9605587E-3,-4.175103E-3,-1.0054302E-2,-3.3738017E-3,-6.049406E-3,2.2401544E-3,8.928031E-4,7.685125E-4,-1.0254793E-3,-1.6433373E-3,-6.62224E-3,3.5678744E-3,-3.6817235E-3,-4.128143E-3,4.347831E-3,-8.498251E-3,-2.4003733E-3,1.4305472E-3,2.890812E-3,-9.953976E-5,1.0487863E-3,-2.610825E-3,3.732443E-4,-7.50193E-3,-2.81079E-3,-3.2318712E-3,-8.786112E-3,5.619526E-4,-4.1625127E-3,2.5966763E-3,1.0124578E-3,4.1798353E-3,1.5496612E-3,1.335673E-3,-7.758066E-4,3.5991669E-3,-3.6448836E-3,-3.9040695E-3,-4.0730834E-4,-1.12235546E-4,1.3498323E-3,-5.742073E-3,-2.9322235E-3,1.8407106E-3,-1.7702183E-3,2.0695925E-3,-3.6393641E-3],"categories":[],"categories_nodes":[],"categories_segments":[],"categories_sizes":[],"default_left":[1,1,1,0,1,1,0,1,1,1,1,0,0,1,1,1,1,1,1,0,1,0,0,0,1,1,1,0,0,1,1,1,1,0,1,0,0,0,1,1,0,0,1,1,1,0,0,0,1,0,1,1,0,0,0,0,1,0,0,0,0,0,1,0,1,0,0,0,1,0,0,0,0],"id":38,"left_children":[1,3,5,-1,7,9,-1,11,13,15,17,-1,-1,19,21,23,25,27,29,-1,31,-1,-1,-1,33,35,37,-1,-1,39,41,43,45,-1,47,-1,-1,-1,49,51,-1,-1,53,55,57,-1,-1,-1,59,-1,61,63,-1,-1,-1,-1,65,-1,-1,-1,-1,-1,67,-1,69,-1,-1,-1,71,-1,-1,-1,-1],"loss_changes":[5.333533E-4,2.814873E-4,2.9890332E-5,0E0,4.893297E-5,3.5993173E-5,2.3476514E-7,3.6243218E-6,3.081406E-5,1.08729E-6,6.221933E-5,0E0,0E0,1.0741787E-5,2.4317715E-6,2.0884016E-5,4.1179883E-6,3.0169089E-5,7.345894E-6,5.116673E-7,6.588205E-6,3.5483626E-7,0E0,0E0,4.0719196E-6,2.016226E-6,8.37571E-5,0E0,0E0,1.1696918E-4,1.5344689E-5,5.3465483E-6,1.3427061E-6,0E0,9.844317E-6,0E0,0E0,0E0,2.549369E-5,3.840134E-5,0E0,0E0,1.799923E-5,2.2464392E-6,9.081647E-6,0E0,0E0,0E0,4.353863E-6,0E0,8.262311E-5,2.6889844E-5,0E0,0E0,0E0,0E0,3.5664862E-6,0E0,0E0,0E0,0E0,0E0,1.0979566E-6,0E0,1.5513848E-5,3.1433132E-7,3.1059244E-8,0E0,4.6438858E-5,0E0,0E0,0E0,0E0],"parents":[2147483647,0,0,1,1,2,2,4,4,5,5,7,7,8,8,9,9,10,10,13,13,14,14,15,15,16,16,17,17,18,18,20,20,24,24,25,25,26,26,29,29,30,30,31,31,32,32,34,34,38,38,39,39,42,42,43,43,44,44,48,48,50,50,51,51,56,56,62,62,64,64,68,68],"right_children":[2,4,6,-1,8,10,-1,12,14,16,18,-1,-1,20,22,24,26,28,30,-1,32,-1,-1,-1,34,36,38,-1,-1,40,42,44,46,-1,48,-1,-1,-1,50,52,-1,-1,54,56,58,-1,-1,-1,60,-1,62,64,-1,-1,-1,-1,66,-1,-1,-1,-1,-1,68,-1,70,-1,-1,-1,72,-1,-1,-1,-1],"split_conditions":[3.0146596E0,3.173326E-2,6.0610523E0,-1.7116362E-3,4.7599888E-1,4.347457E0,-1.9870045E-4,2.2213282E-1,2.443461E0,3.3319921E0,4.8551884E0,-3.4733853E-4,-1.03558305E-4,9.202645E-1,2.7607934E0,3.0781262E0,3.4589252E0,4.601322E0,5.870653E0,6.3499625E-5,1.9991953E0,3.896654E-6,-1.4328763E-4,-6.944882E-4,3.1415927E0,3.3954587E0,3.5223918E0,-6.262654E-4,-1.5081455E-3,5.807186E0,5.934119E0,1.4914632E0,2.062662E0,1.15276875E-4,3.205059E0,-2.465006E-4,-9.933361E-4,5.351812E-4,3.5858583E0,5.74372E0,6.521747E-4,-1.2747378E-3,5.9975863E0,9.8373103E-1,1.6818627E0,-1.4930964E-5,1.5731796E-4,-3.9162376E-4,3.2685256E0,-1.1252896E-3,3.649325E0,5.55332E0,-1.3179169E-3,8.429289E-5,-6.2437693E-4,3.8950148E-4,1.1106641E0,6.269753E-4,2.3244918E-4,2.0035096E-4,-1.16371E-4,5.3987507E-4,3.7127914E0,-5.8561045E-4,5.616787E0,-1.6835333E-5,2.0247485E-4,-8.61311E-4,3.7762578E0,2.761066E-4,-2.6553276E-4,3.104389E-4,-5.459046E-4],"split_indices":[0,0,0,0,0,0,0,0,0,0,0,0,0,0,0,0,0,0,0,0,0,0,0,0,0,0,0,0,0,0,0,0,0,0,0,0,0,0,0,0,0,0,0,0,0,0,0,0,0,0,0,0,0,0,0,0,0,0,0,0,0,0,0,0,0,0,0,0,0,0,0,0,0],"split_type":[0,0,0,0,0,0,0,0,0,0,0,0,0,0,0,0,0,0,0,0,0,0,0,0,0,0,0,0,0,0,0,0,0,0,0,0,0,0,0,0,0,0,0,0,0,0,0,0,0,0,0,0,0,0,0,0,0,0,0,0,0,0,0,0,0,0,0,0,0,0,0,0,0],"sum_hessian":[1E2,4.8E1,5.2E1,1E0,4.7E1,4.8E1,4E0,7E0,4E1,2.1E1,2.7E1,3E0,4E0,3.1E1,9E0,5E0,1.6E1,8E0,1.9E1,7E0,2.4E1,5E0,4E0,1E0,4E0,2E0,1.4E1,4E0,4E0,1.6E1,3E0,1.7E1,7E0,1E0,3E0,1E0,1E0,1E0,1.3E1,1.5E1,1E0,1E0,2E0,9E0,8E0,1E0,6E0,1E0,2E0,1E0,1.2E1,1.4E1,1E0,1E0,1E0,1E0,8E0,3E0,5E0,1E0,1E0,1E0,1.1E1,1.1E1,3E0,2E0,6E0,1E0,1E1,1E0,2E0,1E0,9E0],"tree_param":{"num_deleted":"0","num_feature":"1","num_nodes":"73","size_leaf_vector":"0"}},{"base_weights":[-1.955509E-3,1.72036E-4,-3.885588E-3,-1.0555089E-2,6.1541545E-4,-4.083829E-3,-1.1657083E-3,-1.2762067E-3,1.0256451E-3,-2.9601464E-3,-4.8208716E-3,-1.8973083E-3,-3.9986373E-4,1.4254432E-3,-5.0982006E-4,-6.9566104E-3,-3.6187456E-3,4.5286756E-4,1.6324657E-3,-7.705689E-5,-8.406192E-4,-3.67409E-3,-8.847808E-3,-2.7854205E-3,-5.098934E-3,2.0939866E-3,9.195258E-4,-3.3672552E-3,-3.4356117E-4,-8.127153E-3,-2.8678596E-3,1.2734712E-3,3.1125147E-3,1.7026663E-3,-1.5931925E-3,4.021749E-3,-5.595699E-3,2.4019182E-3,8.8120834E-4,3.7095994E-3,1.2788972E-3,-7.860884E-3,-2.2203426E-3,7.380545E-5,1.2726089E-3,5.198121E-4,-3.850326E-3],"categories":[],"categories_nodes":[],"categories_segments":[],"categories_sizes":[],"default_left":[1,1,1,0,1,1,0,1,1,0,1,0,0,1,1,1,1,0,1,0,0,0,0,1,1,1,0,0,1,0,1,1,1,0,0,0,1,0,1,0,0,0,1,0,0,0,0],"id":39,"left_children":[1,3,5,-1,7,9,-1,11,13,-1,15,-1,-1,17,19,21,23,-1,25,-1,-1,-1,-1,27,29,31,-1,-1,33,-1,35,37,39,-1,-1,-1,41,-1,43,-1,-1,-1,45,-1,-1,-1,-1],"loss_changes":[4.1540782E-4,2.3954894E-4,2.3816596E-5,0E0,3.85569E-5,2.6311434E-5,4.1850035E-7,4.140018E-6,2.528177E-5,1.7514685E-7,4.6713743E-5,0E0,1.10551355E-8,5.703747E-6,1.2236437E-6,2.336345E-5,1.0466902E-5,1.6732986E-7,6.6294815E-6,1.8156429E-7,0E0,0E0,0E0,2.0154519E-5,1.722954E-5,8.572075E-6,3.385785E-7,0E0,1.29407945E-5,0E0,1.1647322E-4,2.3098873E-6,